Epoch,Batch,lstm_1,lstm_2,dense_1,dense_2
1,1,-0.10067471861839294,-0.10434887558221817,-0.09154193848371506,-0.1315368115901947
1,2,-0.10262987017631531,-0.10493334382772446,-0.0944950059056282,-0.13429059088230133
1,3,-0.10407683998346329,-0.10457783192396164,-0.09703705459833145,-0.13621239364147186
1,4,-0.10364478081464767,-0.10679779946804047,-0.09994658827781677,-0.1382431983947754
1,5,-0.10470090061426163,-0.10556232929229736,-0.1015610545873642,-0.14039678871631622
1,6,-0.1055503785610199,-0.1044294536113739,-0.10277353972196579,-0.1422230303287506
1,7,-0.10471723228693008,-0.10362403839826584,-0.10413207113742828,-0.14435578882694244
1,8,-0.10556092113256454,-0.10414645820856094,-0.10444677621126175,-0.1454203873872757
1,9,-0.10462860763072968,-0.10551951080560684,-0.10593641549348831,-0.1469903588294983
1,10,-0.10451629757881165,-0.10550761967897415,-0.10603230446577072,-0.14590753614902496
1,11,-0.1035698652267456,-0.10543520748615265,-0.10694041848182678,-0.14706428349018097
1,12,-0.10490037500858307,-0.10735903680324554,-0.10628271102905273,-0.14744140207767487
1,13,-0.10403582453727722,-0.10741280764341354,-0.10675309598445892,-0.1483890563249588
1,14,-0.10346608608961105,-0.10723022371530533,-0.10639659315347672,-0.1492241770029068
1,15,-0.10383756458759308,-0.10730845481157303,-0.106788270175457,-0.1501053124666214
1,16,-0.10496250540018082,-0.1068493202328682,-0.107844278216362,-0.15100479125976562
1,17,-0.10468907654285431,-0.10742796212434769,-0.10839120298624039,-0.15175104141235352
1,18,-0.1050865650177002,-0.10722748190164566,-0.1090162843465805,-0.15256066620349884
1,19,-0.10539560765028,-0.10821627825498581,-0.10995405167341232,-0.15328174829483032
1,20,-0.10671068727970123,-0.10769189149141312,-0.11087961494922638,-0.15401040017604828
1,21,-0.10625317692756653,-0.10764124989509583,-0.11087274551391602,-0.15473909676074982
1,22,-0.10589032620191574,-0.10788587480783463,-0.11092150956392288,-0.1553533971309662
1,23,-0.10629177838563919,-0.10771426558494568,-0.1114640161395073,-0.15604355931282043
1,24,-0.1068563386797905,-0.10685387253761292,-0.11220099031925201,-0.15671773254871368
1,25,-0.10722649097442627,-0.10726141929626465,-0.11261133849620819,-0.15733709931373596
1,26,-0.10790355503559113,-0.10710462182760239,-0.11312969028949738,-0.15799914300441742
1,27,-0.10751252621412277,-0.10726185888051987,-0.11358615010976791,-0.15859219431877136
1,28,-0.10852329432964325,-0.10639946907758713,-0.11503573507070541,-0.15926645696163177
1,29,-0.11006055772304535,-0.10692217946052551,-0.11427614837884903,-0.1598142683506012
1,30,-0.11087008565664291,-0.10646352171897888,-0.11425384134054184,-0.16041375696659088
1,31,-0.11009884625673294,-0.1068732962012291,-0.11443015187978745,-0.16088445484638214
1,32,-0.11061082035303116,-0.10709220916032791,-0.11559943109750748,-0.16144093871116638
1,33,-0.11006514728069305,-0.10646500438451767,-0.11484622210264206,-0.16192862391471863
1,34,-0.11181294173002243,-0.1066519245505333,-0.11489921808242798,-0.16249361634254456
1,35,-0.11094177514314651,-0.10646484047174454,-0.11449937522411346,-0.16304005682468414
1,36,-0.11163784563541412,-0.1068701520562172,-0.11451491713523865,-0.16347849369049072
1,37,-0.11183798313140869,-0.10699713975191116,-0.11500533670186996,-0.16388775408267975
1,38,-0.11125155538320541,-0.1082804799079895,-0.11504500359296799,-0.1643718034029007
1,39,-0.11159423738718033,-0.10833882540464401,-0.11632132530212402,-0.1648462563753128
1,40,-0.11217685788869858,-0.10795513540506363,-0.11782527714967728,-0.16532863676548004
1,41,-0.11336492747068405,-0.10665921866893768,-0.11968737095594406,-0.16574545204639435
1,42,-0.11240330338478088,-0.10762931406497955,-0.12055971473455429,-0.16617582738399506
1,43,-0.1123354360461235,-0.10747513175010681,-0.1205720454454422,-0.16659441590309143
1,44,-0.11338399350643158,-0.10570217669010162,-0.12063775956630707,-0.16702726483345032
1,45,-0.11212772876024246,-0.10701103508472443,-0.12059364467859268,-0.1674751192331314
1,46,-0.1134597659111023,-0.10662680119276047,-0.12066073715686798,-0.16789475083351135
1,47,-0.11242350190877914,-0.10633419454097748,-0.12141161412000656,-0.16825208067893982
1,48,-0.11311948299407959,-0.10559175908565521,-0.12098811566829681,-0.16876846551895142
2,49,-0.11261848360300064,-0.10579273104667664,-0.12081221491098404,-0.16912570595741272
2,50,-0.11098254472017288,-0.10716182738542557,-0.120689257979393,-0.1693248748779297
2,51,-0.111293263733387,-0.1081790030002594,-0.12173693627119064,-0.16975849866867065
2,52,-0.11177567392587662,-0.10805560648441315,-0.12212609499692917,-0.16999568045139313
2,53,-0.11233718693256378,-0.10757847875356674,-0.12177933007478714,-0.17045393586158752
2,54,-0.11275237053632736,-0.1081165000796318,-0.12262797355651855,-0.17087581753730774
2,55,-0.11247691512107849,-0.10731611400842667,-0.12305688858032227,-0.17127566039562225
2,56,-0.11273117363452911,-0.10833676904439926,-0.12521058320999146,-0.17164894938468933
2,57,-0.11320512741804123,-0.10896292328834534,-0.12517207860946655,-0.1721116304397583
2,58,-0.11319175362586975,-0.10859251767396927,-0.12649565935134888,-0.1724792718887329
2,59,-0.11285614222288132,-0.10913167148828506,-0.1271270513534546,-0.172865092754364
2,60,-0.11363668739795685,-0.10999488830566406,-0.1274811029434204,-0.17333188652992249
2,61,-0.11407969892024994,-0.11156310141086578,-0.12726163864135742,-0.1736958920955658
2,62,-0.1142868846654892,-0.11256031692028046,-0.1262408345937729,-0.17410129308700562
2,63,-0.11530497670173645,-0.11134441941976547,-0.12592512369155884,-0.17446286976337433
2,64,-0.11553427577018738,-0.11087699979543686,-0.12651997804641724,-0.17492495477199554
2,65,-0.1148594468832016,-0.11268475651741028,-0.1245758906006813,-0.17536453902721405
2,66,-0.11564458161592484,-0.11278422921895981,-0.12532535195350647,-0.17583803832530975
2,67,-0.11619826406240463,-0.11304961144924164,-0.12445417791604996,-0.1762283593416214
2,68,-0.11688926070928574,-0.11141940951347351,-0.12517064809799194,-0.17669495940208435
2,69,-0.11664638668298721,-0.11208325624465942,-0.12551748752593994,-0.17690931260585785
2,70,-0.11708863079547882,-0.11203423142433167,-0.1262025237083435,-0.17732861638069153
2,71,-0.11814116686582565,-0.11115174740552902,-0.125495046377182,-0.17778879404067993
2,72,-0.11799275130033493,-0.11173565685749054,-0.1261807084083557,-0.17816945910453796
2,73,-0.1177729144692421,-0.11282160878181458,-0.12658686935901642,-0.1786375343799591
2,74,-0.11715086549520493,-0.11476762592792511,-0.12691748142242432,-0.17904576659202576
2,75,-0.11678586155176163,-0.1151379868388176,-0.12804409861564636,-0.1794244796037674
2,76,-0.11741094291210175,-0.11374615132808685,-0.1278887540102005,-0.17984099686145782
2,77,-0.11665188521146774,-0.11539225280284882,-0.12965187430381775,-0.18005242943763733
2,78,-0.11534307897090912,-0.11493179202079773,-0.1293371468782425,-0.1805223673582077
2,79,-0.11346283555030823,-0.11573563516139984,-0.12897171080112457,-0.18089540302753448
2,80,-0.11378661543130875,-0.11521516740322113,-0.12946851551532745,-0.18137286603450775
2,81,-0.11183732002973557,-0.1150231882929802,-0.12913821637630463,-0.1816706657409668
2,82,-0.11248858273029327,-0.11578149348497391,-0.12731973826885223,-0.18203312158584595
2,83,-0.11273076385259628,-0.11575859040021896,-0.12736280262470245,-0.1823192685842514
2,84,-0.11256026476621628,-0.11500412225723267,-0.1285765916109085,-0.18283657729625702
2,85,-0.11369252949953079,-0.11526467651128769,-0.1280689537525177,-0.18326503038406372
2,86,-0.11239209026098251,-0.11490892618894577,-0.12789057195186615,-0.18379268050193787
2,87,-0.11316484212875366,-0.1143433079123497,-0.12944482266902924,-0.18405088782310486
2,88,-0.11349666863679886,-0.11401284486055374,-0.12881679832935333,-0.18452098965644836
2,89,-0.11268727481365204,-0.11334841698408127,-0.12877756357192993,-0.1846187710762024
2,90,-0.11148045212030411,-0.11291205883026123,-0.1288304328918457,-0.18504628539085388
2,91,-0.11111868172883987,-0.11290472000837326,-0.12988081574440002,-0.1856190264225006
2,92,-0.1115163266658783,-0.11375512182712555,-0.13069376349449158,-0.1860683709383011
2,93,-0.1125594973564148,-0.11271634697914124,-0.1310102790594101,-0.18640531599521637
2,94,-0.11097844690084457,-0.11261041462421417,-0.13187450170516968,-0.186045303940773
2,95,-0.11076672375202179,-0.11386480927467346,-0.13193239271640778,-0.18647290766239166
2,96,-0.11035274714231491,-0.1131271943449974,-0.13277289271354675,-0.18696340918540955
2,97,-0.11160429567098618,-0.11392190307378769,-0.13421747088432312,-0.18760403990745544
3,98,-0.1114475280046463,-0.11325234174728394,-0.1335262805223465,-0.18792712688446045
3,99,-0.11235319823026657,-0.11438541114330292,-0.1348899006843567,-0.1884491890668869
3,100,-0.11273334920406342,-0.11405748873949051,-0.13439059257507324,-0.1888769268989563
3,101,-0.11312533915042877,-0.11504607647657394,-0.1360745131969452,-0.18931056559085846
3,102,-0.11348345130681992,-0.11377041041851044,-0.1370326578617096,-0.18863742053508759
3,103,-0.11383119970560074,-0.11412879079580307,-0.1364274024963379,-0.1891002655029297
3,104,-0.11411205679178238,-0.1159728616476059,-0.1358267068862915,-0.1898004114627838
3,105,-0.11584307253360748,-0.116365946829319,-0.13535992801189423,-0.1908341348171234
3,106,-0.11518623679876328,-0.11559005826711655,-0.13583099842071533,-0.19134221971035004
3,107,-0.11522643268108368,-0.11389489471912384,-0.13662607967853546,-0.19194133579730988
3,108,-0.11454261094331741,-0.11541789770126343,-0.13832345604896545,-0.19197753071784973
3,109,-0.11378568410873413,-0.11498954892158508,-0.137335404753685,-0.1925400048494339
3,110,-0.11505237966775894,-0.11550166457891464,-0.13877105712890625,-0.19274291396141052
3,111,-0.11473138630390167,-0.11613569408655167,-0.137433260679245,-0.19324016571044922
3,112,-0.11504475772380829,-0.11638764292001724,-0.13780631124973297,-0.19364403188228607
3,113,-0.11439669877290726,-0.11505137383937836,-0.1375909000635147,-0.19413906335830688
3,114,-0.11528649181127548,-0.11716657876968384,-0.1368497610092163,-0.19452576339244843
3,115,-0.11570421606302261,-0.11748845130205154,-0.13722389936447144,-0.19499334692955017
3,116,-0.11570405960083008,-0.11778448522090912,-0.1363241821527481,-0.19545410573482513
3,117,-0.1146242767572403,-0.11782515048980713,-0.13529470562934875,-0.19602353870868683
3,118,-0.11467287689447403,-0.11747763305902481,-0.13679476082324982,-0.19652308523654938
3,119,-0.11348134279251099,-0.11652052402496338,-0.13705316185951233,-0.19710275530815125
3,120,-0.11324960738420486,-0.11685440689325333,-0.13678810000419617,-0.19745919108390808
3,121,-0.11198034882545471,-0.11656054854393005,-0.13641561567783356,-0.19806116819381714
3,122,-0.11255018413066864,-0.11683466285467148,-0.13772569596767426,-0.19893257319927216
3,123,-0.11361359804868698,-0.11607213318347931,-0.1372150331735611,-0.19973976910114288
3,124,-0.11474999040365219,-0.11644037812948227,-0.13863617181777954,-0.20049726963043213
3,125,-0.1147954910993576,-0.1154540404677391,-0.1405777484178543,-0.20142310857772827
3,126,-0.11517202854156494,-0.1147909164428711,-0.14124703407287598,-0.20195239782333374
3,127,-0.11510174721479416,-0.11528583616018295,-0.14177584648132324,-0.20297682285308838
3,128,-0.11555789411067963,-0.1146133616566658,-0.14301921427249908,-0.20371434092521667
3,129,-0.1150842159986496,-0.11550460755825043,-0.14358320832252502,-0.2033384144306183
3,130,-0.11371732503175735,-0.1167229637503624,-0.14304094016551971,-0.20366813242435455
3,131,-0.11353690177202225,-0.11816738545894623,-0.14157502353191376,-0.20389777421951294
3,132,-0.11427101492881775,-0.11730244010686874,-0.14245925843715668,-0.2051253318786621
3,133,-0.11519262939691544,-0.11879373341798782,-0.14235371351242065,-0.20467066764831543
3,134,-0.11492516845464706,-0.11705058813095093,-0.14153778553009033,-0.20525500178337097
3,135,-0.11431258171796799,-0.11810149997472763,-0.14160922169685364,-0.2058383673429489
3,136,-0.11331513524055481,-0.11731036007404327,-0.1417550891637802,-0.2064901888370514
3,137,-0.11448708921670914,-0.117966428399086,-0.14343604445457458,-0.20729050040245056
3,138,-0.11392240971326828,-0.117770254611969,-0.1430661976337433,-0.2081422358751297
3,139,-0.11494430154561996,-0.11640710383653641,-0.1439502239227295,-0.20902879536151886
3,140,-0.11436666548252106,-0.11619813740253448,-0.14516042172908783,-0.20992016792297363
3,141,-0.1151900589466095,-0.11430894583463669,-0.14411041140556335,-0.2110477089881897
3,142,-0.11462900042533875,-0.11298824101686478,-0.1440540850162506,-0.2122041881084442
3,143,-0.11456669121980667,-0.11341341584920883,-0.14373405277729034,-0.21304191648960114
3,144,-0.11550585925579071,-0.11156240105628967,-0.1449926197528839,-0.21306678652763367
3,145,-0.11472292244434357,-0.11048635095357895,-0.14301952719688416,-0.21410372853279114
3,146,-0.11466766148805618,-0.10984811931848526,-0.14306366443634033,-0.2150983065366745
4,147,-0.1155327558517456,-0.1096174418926239,-0.14323408901691437,-0.21566781401634216
4,148,-0.1155356913805008,-0.11065768450498581,-0.14292041957378387,-0.21609993278980255
4,149,-0.11565506458282471,-0.11050605773925781,-0.14393043518066406,-0.21582719683647156
4,150,-0.11638393998146057,-0.10926356166601181,-0.1443471908569336,-0.2169921100139618
4,151,-0.11616635322570801,-0.11008735001087189,-0.14487133920192719,-0.21773241460323334
4,152,-0.11686193943023682,-0.11069542914628983,-0.14401878416538239,-0.21905934810638428
4,153,-0.11696556955575943,-0.1106036826968193,-0.14458993077278137,-0.2192678153514862
4,154,-0.1169363409280777,-0.10994613170623779,-0.14540226757526398,-0.22023776173591614
4,155,-0.11708275228738785,-0.11116620898246765,-0.14421837031841278,-0.22120192646980286
4,156,-0.1164499968290329,-0.11149086803197861,-0.14273753762245178,-0.2215593457221985
4,157,-0.11773176491260529,-0.11057553440332413,-0.14189128577709198,-0.22087836265563965
4,158,-0.11854557693004608,-0.1106586679816246,-0.14209085702896118,-0.2218184620141983
4,159,-0.11784737557172775,-0.1114109605550766,-0.1426382213830948,-0.22276374697685242
4,160,-0.11819805204868317,-0.11068118363618851,-0.1430830955505371,-0.22353997826576233
4,161,-0.11828266829252243,-0.11162855476140976,-0.1432759314775467,-0.2218484729528427
4,162,-0.11830069124698639,-0.11130491644144058,-0.14280900359153748,-0.22281022369861603
4,163,-0.11997813731431961,-0.1104152724146843,-0.14271856844425201,-0.2235647439956665
4,164,-0.11961342394351959,-0.11116790771484375,-0.14364926517009735,-0.22470690310001373
4,165,-0.11958837509155273,-0.11137464642524719,-0.1427554190158844,-0.2254822850227356
4,166,-0.11972290277481079,-0.11305210739374161,-0.14288564026355743,-0.22624588012695312
4,167,-0.1210612803697586,-0.11216746270656586,-0.14278024435043335,-0.22439950704574585
4,168,-0.12030179053544998,-0.1116788387298584,-0.14282909035682678,-0.2255355566740036
4,169,-0.11926808208227158,-0.11181062459945679,-0.14337767660617828,-0.226568341255188
4,170,-0.1193835437297821,-0.11164139956235886,-0.14426001906394958,-0.22727996110916138
4,171,-0.12114018201828003,-0.11211910843849182,-0.143733948469162,-0.2283822000026703
4,172,-0.12164241820573807,-0.11115595698356628,-0.1429397165775299,-0.2281561940908432
4,173,-0.11948707699775696,-0.11093258857727051,-0.14349304139614105,-0.22855857014656067
4,174,-0.12049587815999985,-0.11038990318775177,-0.1444329172372818,-0.22915564477443695
4,175,-0.12023840844631195,-0.11050768196582794,-0.14432185888290405,-0.2298058420419693
4,176,-0.12102367728948593,-0.11082913726568222,-0.14512203633785248,-0.23076827824115753
4,177,-0.12150479108095169,-0.11177447438240051,-0.14474067091941833,-0.2314912974834442
4,178,-0.12240558862686157,-0.11163480579853058,-0.14430934190750122,-0.23231519758701324
4,179,-0.12111460417509079,-0.11199481040239334,-0.14518001675605774,-0.2334875464439392
4,180,-0.12074018269777298,-0.11283863335847855,-0.14487814903259277,-0.23456449806690216
4,181,-0.11984885483980179,-0.1137450635433197,-0.14493907988071442,-0.2350422441959381
4,182,-0.12032719701528549,-0.11367206275463104,-0.1463041603565216,-0.23568332195281982
4,183,-0.12226597219705582,-0.1136457622051239,-0.1462244689464569,-0.23666734993457794
4,184,-0.12163163721561432,-0.11413847655057907,-0.14712296426296234,-0.2370147407054901
4,185,-0.1220892146229744,-0.1140809953212738,-0.14818106591701508,-0.23791466653347015
4,186,-0.1218005120754242,-0.11388738453388214,-0.14897800981998444,-0.23890411853790283
4,187,-0.12199748307466507,-0.11352340131998062,-0.14990194141864777,-0.23989559710025787
4,188,-0.12153610587120056,-0.11537208408117294,-0.14801275730133057,-0.2405124008655548
4,189,-0.12341205030679703,-0.1159224584698677,-0.14832715690135956,-0.24128402769565582
4,190,-0.1217939704656601,-0.11659374088048935,-0.14904902875423431,-0.24198763072490692
4,191,-0.12122394889593124,-0.11756549775600433,-0.14930644631385803,-0.24262335896492004
4,192,-0.1217183768749237,-0.11735188215970993,-0.14987696707248688,-0.24321392178535461
4,193,-0.12144540995359421,-0.11677753180265427,-0.14923445880413055,-0.2439989149570465
4,194,-0.12277335673570633,-0.11730358004570007,-0.14838628470897675,-0.24485108256340027
4,195,-0.12163925170898438,-0.11782137304544449,-0.14940255880355835,-0.24573573470115662
5,196,-0.12207436561584473,-0.11963816732168198,-0.14930224418640137,-0.24652794003486633
5,197,-0.12063278257846832,-0.12047608941793442,-0.14919380843639374,-0.24702106416225433
5,198,-0.1204792857170105,-0.11941452324390411,-0.1501445770263672,-0.24773313105106354
5,199,-0.1190907284617424,-0.12083791941404343,-0.15027663111686707,-0.24846813082695007
5,200,-0.12111598998308182,-0.12170971184968948,-0.15180203318595886,-0.24914222955703735
5,201,-0.12039324641227722,-0.12236454337835312,-0.1518407016992569,-0.24982327222824097
5,202,-0.12025262415409088,-0.12274061143398285,-0.15140382945537567,-0.2504561245441437
5,203,-0.12072546780109406,-0.12333813309669495,-0.1521546095609665,-0.25099754333496094
5,204,-0.11963178962469101,-0.1247626543045044,-0.15362492203712463,-0.25183534622192383
5,205,-0.1196344867348671,-0.12431970983743668,-0.15414421260356903,-0.2527637481689453
5,206,-0.11975044757127762,-0.12304907292127609,-0.15544623136520386,-0.25315332412719727
5,207,-0.12023637443780899,-0.12240004539489746,-0.15485145151615143,-0.2537473738193512
5,208,-0.12012466788291931,-0.12336128950119019,-0.15481628477573395,-0.2550949454307556
5,209,-0.12095958739519119,-0.12210860103368759,-0.15347033739089966,-0.25555121898651123
5,210,-0.12192769348621368,-0.12169629335403442,-0.15398821234703064,-0.25623083114624023
5,211,-0.12151897698640823,-0.12305723875761032,-0.1543465256690979,-0.25740960240364075
5,212,-0.1215158998966217,-0.12251593917608261,-0.15499210357666016,-0.258005291223526
5,213,-0.12136867642402649,-0.12279657274484634,-0.1549300104379654,-0.2584565281867981
5,214,-0.12147893756628036,-0.12293923646211624,-0.15626069903373718,-0.25902533531188965
5,215,-0.12282585352659225,-0.12412787973880768,-0.1566963642835617,-0.26009947061538696
5,216,-0.12357688695192337,-0.1254890114068985,-0.15734325349330902,-0.2606135904788971
5,217,-0.12409738451242447,-0.1255432367324829,-0.15718607604503632,-0.2614167034626007
5,218,-0.12383316457271576,-0.12584133446216583,-0.15619800984859467,-0.2624163329601288
5,219,-0.12441673129796982,-0.1257605254650116,-0.1560649424791336,-0.26305148005485535
5,220,-0.12354203313589096,-0.12702232599258423,-0.15699511766433716,-0.2641065716743469
5,221,-0.1244293749332428,-0.12860481441020966,-0.15749898552894592,-0.26447609066963196
5,222,-0.12501633167266846,-0.1272045224905014,-0.15865005552768707,-0.2648400664329529
5,223,-0.12376657128334045,-0.12722431123256683,-0.15935933589935303,-0.2655543386936188
5,224,-0.1243973970413208,-0.1271590143442154,-0.1590297669172287,-0.26610854268074036
5,225,-0.12397360801696777,-0.12719105184078217,-0.15798445045948029,-0.26642847061157227
5,226,-0.12458635866641998,-0.1267143338918686,-0.15860840678215027,-0.26719218492507935
5,227,-0.1249474585056305,-0.12668177485466003,-0.15885746479034424,-0.26759564876556396
5,228,-0.1251954287290573,-0.12712650001049042,-0.1590457707643509,-0.26810458302497864
5,229,-0.12518613040447235,-0.1273958832025528,-0.15925048291683197,-0.2688829302787781
5,230,-0.12492676079273224,-0.12546087801456451,-0.16053475439548492,-0.26982107758522034
5,231,-0.12379858642816544,-0.1263081580400467,-0.16037870943546295,-0.27025818824768066
5,232,-0.12344402819871902,-0.12558910250663757,-0.1596723347902298,-0.27079257369041443
5,233,-0.1242600530385971,-0.12665337324142456,-0.16057580709457397,-0.27195653319358826
5,234,-0.12450626492500305,-0.12494324892759323,-0.1585293710231781,-0.27230221033096313
5,235,-0.12559784948825836,-0.12541785836219788,-0.15827727317810059,-0.2737564146518707
5,236,-0.12500305473804474,-0.12545786798000336,-0.15695494413375854,-0.27464911341667175
5,237,-0.12404807657003403,-0.12538598477840424,-0.1555478870868683,-0.27603405714035034
5,238,-0.12436758726835251,-0.12508034706115723,-0.15482155978679657,-0.2768542170524597
5,239,-0.12608930468559265,-0.1255621612071991,-0.1552497297525406,-0.2772621810436249
5,240,-0.12606573104858398,-0.12562449276447296,-0.15451306104660034,-0.2777346968650818
5,241,-0.12738986313343048,-0.12679575383663177,-0.15480181574821472,-0.2782455086708069
5,242,-0.12770283222198486,-0.12748025357723236,-0.15626955032348633,-0.2785475254058838
5,243,-0.12777473032474518,-0.12829318642616272,-0.15662728250026703,-0.2795834541320801
5,244,-0.12807688117027283,-0.13005132973194122,-0.15657033026218414,-0.2804300785064697
6,245,-0.12787900865077972,-0.1301809549331665,-0.15813659131526947,-0.28117236495018005
6,246,-0.12754635512828827,-0.13087084889411926,-0.15803825855255127,-0.2827491760253906
6,247,-0.1273277848958969,-0.13087624311447144,-0.16016463935375214,-0.2831813395023346
6,248,-0.1268426477909088,-0.12962907552719116,-0.16106130182743073,-0.283607542514801
6,249,-0.12780828773975372,-0.1280125230550766,-0.1627596616744995,-0.28418591618537903
6,250,-0.12716732919216156,-0.12883171439170837,-0.16425316035747528,-0.2845211923122406
6,251,-0.12753339111804962,-0.12865591049194336,-0.16445711255073547,-0.28482845425605774
6,252,-0.12775665521621704,-0.1291217803955078,-0.1647293120622635,-0.28548821806907654
6,253,-0.1282515674829483,-0.12851549685001373,-0.1650291085243225,-0.28623518347740173
6,254,-0.1272251158952713,-0.12783560156822205,-0.16450992226600647,-0.28715991973876953
6,255,-0.1270054131746292,-0.12702293694019318,-0.16554106771945953,-0.2881442904472351
6,256,-0.12774774432182312,-0.1277073174715042,-0.16475500166416168,-0.2889347970485687
6,257,-0.12854792177677155,-0.12908929586410522,-0.1648644655942917,-0.28928861021995544
6,258,-0.12776388227939606,-0.1297852247953415,-0.16497506201267242,-0.28996288776397705
6,259,-0.12815876305103302,-0.12903983891010284,-0.1647113710641861,-0.29052120447158813
6,260,-0.12899047136306763,-0.1282256841659546,-0.16487154364585876,-0.29101598262786865
6,261,-0.12943796813488007,-0.12699465453624725,-0.16398300230503082,-0.2914838194847107
6,262,-0.13008829951286316,-0.1258469671010971,-0.1652921438217163,-0.29238206148147583
6,263,-0.13020485639572144,-0.12467323243618011,-0.16553732752799988,-0.2927819788455963
6,264,-0.13060568273067474,-0.12496458739042282,-0.16445982456207275,-0.29313668608665466
6,265,-0.1316506713628769,-0.12659062445163727,-0.16361461579799652,-0.29355931282043457
6,266,-0.13072696328163147,-0.1255733072757721,-0.16391202807426453,-0.2940625250339508
6,267,-0.1324419230222702,-0.12469993531703949,-0.16455331444740295,-0.29455557465553284
6,268,-0.13181184232234955,-0.12489823251962662,-0.16471855342388153,-0.295113742351532
6,269,-0.1330508142709732,-0.12544766068458557,-0.16419203579425812,-0.29575690627098083
6,270,-0.13220977783203125,-0.12653562426567078,-0.16454194486141205,-0.2963155508041382
6,271,-0.13325084745883942,-0.12451047450304031,-0.16621381044387817,-0.2971086800098419
6,272,-0.13360168039798737,-0.1246422752737999,-0.16549630463123322,-0.29809311032295227
6,273,-0.1350877434015274,-0.12472972273826599,-0.1653914898633957,-0.29870906472206116
6,274,-0.13531160354614258,-0.12327731400728226,-0.16686977446079254,-0.2994275391101837
6,275,-0.13645519316196442,-0.12400417774915695,-0.1657865047454834,-0.29990366101264954
6,276,-0.13562005758285522,-0.1249072253704071,-0.1650368571281433,-0.3003063499927521
6,277,-0.13627266883850098,-0.12677647173404694,-0.16428856551647186,-0.30082473158836365
6,278,-0.13716763257980347,-0.12717987596988678,-0.16442716121673584,-0.3013867139816284
6,279,-0.13677914440631866,-0.1272810399532318,-0.16582414507865906,-0.3025384843349457
6,280,-0.1379387378692627,-0.1269971877336502,-0.16630586981773376,-0.3031785488128662
6,281,-0.13784590363502502,-0.12819820642471313,-0.16837790608406067,-0.3040657341480255
6,282,-0.13970214128494263,-0.12816974520683289,-0.16793665289878845,-0.30457544326782227
6,283,-0.13872618973255157,-0.12997770309448242,-0.16816183924674988,-0.3051023483276367
6,284,-0.13954006135463715,-0.13119608163833618,-0.1695365309715271,-0.3055715262889862
6,285,-0.14007726311683655,-0.1312892884016037,-0.16999474167823792,-0.30679601430892944
6,286,-0.13986289501190186,-0.13188035786151886,-0.16923834383487701,-0.30748090147972107
6,287,-0.1405336856842041,-0.13275380432605743,-0.1700216829776764,-0.30842095613479614
6,288,-0.14095604419708252,-0.13273420929908752,-0.16968375444412231,-0.3087989389896393
6,289,-0.14086541533470154,-0.13279636204242706,-0.1695653647184372,-0.3096255362033844
6,290,-0.14245998859405518,-0.1334725022315979,-0.17077484726905823,-0.30992621183395386
6,291,-0.14314095675945282,-0.13462844491004944,-0.17009852826595306,-0.310395210981369
6,292,-0.14141845703125,-0.13522866368293762,-0.1710982620716095,-0.3108082413673401
6,293,-0.14314286410808563,-0.1349441260099411,-0.17132148146629333,-0.31119081377983093
7,294,-0.14295585453510284,-0.13477061688899994,-0.1714867502450943,-0.31259018182754517
7,295,-0.14318834245204926,-0.13433344662189484,-0.17361398041248322,-0.3130800724029541
7,296,-0.14423435926437378,-0.13487599790096283,-0.17226779460906982,-0.31387045979499817
7,297,-0.14361877739429474,-0.13509202003479004,-0.17188477516174316,-0.3144352436065674
7,298,-0.14309591054916382,-0.13560914993286133,-0.17265918850898743,-0.3147285580635071
7,299,-0.14308010041713715,-0.1365923136472702,-0.17398479580879211,-0.3152801990509033
7,300,-0.1419655829668045,-0.1380571871995926,-0.17263014614582062,-0.31582772731781006
7,301,-0.14474539458751678,-0.13951873779296875,-0.17287659645080566,-0.3160949945449829
7,302,-0.14462825655937195,-0.14083299040794373,-0.17482182383537292,-0.31658735871315
7,303,-0.1447448432445526,-0.14034073054790497,-0.17577853798866272,-0.3172159194946289
7,304,-0.14468716084957123,-0.1394827514886856,-0.1765867918729782,-0.3180215060710907
7,305,-0.14430218935012817,-0.13897795975208282,-0.1756867617368698,-0.3189348876476288
7,306,-0.14487949013710022,-0.13704133033752441,-0.17569559812545776,-0.31950831413269043
7,307,-0.1459701657295227,-0.13698223233222961,-0.17519420385360718,-0.31992292404174805
7,308,-0.14509238302707672,-0.13771571218967438,-0.17581836879253387,-0.32074904441833496
7,309,-0.1448071449995041,-0.13659490644931793,-0.17591069638729095,-0.3212277591228485
7,310,-0.14573706686496735,-0.1377064436674118,-0.1766216903924942,-0.32230469584465027
7,311,-0.14588360488414764,-0.13787920773029327,-0.17764365673065186,-0.32267963886260986
7,312,-0.14544381201267242,-0.13807658851146698,-0.17948004603385925,-0.3230639398097992
7,313,-0.14557453989982605,-0.1368567794561386,-0.17902250587940216,-0.32347118854522705
7,314,-0.1452164500951767,-0.13719993829727173,-0.1786702275276184,-0.3239424228668213
7,315,-0.14603541791439056,-0.13797500729560852,-0.17882680892944336,-0.32449138164520264
7,316,-0.14679104089736938,-0.13640831410884857,-0.17838642001152039,-0.3248494863510132
7,317,-0.14666208624839783,-0.13807880878448486,-0.17827248573303223,-0.3252633512020111
7,318,-0.14758415520191193,-0.13874472677707672,-0.1779380589723587,-0.32567787170410156
7,319,-0.14690159261226654,-0.13856889307498932,-0.17838428914546967,-0.32658082246780396
7,320,-0.145610511302948,-0.13858003914356232,-0.17947591841220856,-0.3271774351596832
7,321,-0.1470138132572174,-0.13784365355968475,-0.1785431057214737,-0.3277883529663086
7,322,-0.1472860425710678,-0.13719403743743896,-0.177487313747406,-0.328039288520813
7,323,-0.14708106219768524,-0.13584564626216888,-0.17771898210048676,-0.3284362554550171
7,324,-0.14885999262332916,-0.13636121153831482,-0.17715416848659515,-0.32878270745277405
7,325,-0.14858998358249664,-0.1374150514602661,-0.17868539690971375,-0.32935628294944763
7,326,-0.14950887858867645,-0.1384097933769226,-0.1796358823776245,-0.3297467529773712
7,327,-0.14981961250305176,-0.1388845443725586,-0.17851272225379944,-0.33016088604927063
7,328,-0.15027642250061035,-0.1395624428987503,-0.17918063700199127,-0.33041805028915405
7,329,-0.14955583214759827,-0.13977093994617462,-0.17972910404205322,-0.33072856068611145
7,330,-0.15149232745170593,-0.14006707072257996,-0.17965662479400635,-0.3312142789363861
7,331,-0.1501513421535492,-0.140412837266922,-0.18053294718265533,-0.33189257979393005
7,332,-0.15095043182373047,-0.14082828164100647,-0.1810077726840973,-0.33217406272888184
7,333,-0.15016618371009827,-0.14234864711761475,-0.18076595664024353,-0.33326494693756104
7,334,-0.15081417560577393,-0.14132805168628693,-0.18280622363090515,-0.33393773436546326
7,335,-0.15096086263656616,-0.14108014106750488,-0.18284910917282104,-0.33447402715682983
7,336,-0.15012110769748688,-0.14181682467460632,-0.18291638791561127,-0.33503472805023193
7,337,-0.14966529607772827,-0.1421939879655838,-0.18111692368984222,-0.3355017304420471
7,338,-0.15059848129749298,-0.142168790102005,-0.1796453893184662,-0.3367904722690582
7,339,-0.15102620422840118,-0.1422170102596283,-0.17962606251239777,-0.3371972441673279
7,340,-0.1512916386127472,-0.14162278175354004,-0.180232435464859,-0.33766230940818787
7,341,-0.15224067866802216,-0.14276984333992004,-0.18093667924404144,-0.33808082342147827
7,342,-0.15275859832763672,-0.1418246030807495,-0.18198785185813904,-0.33851391077041626
8,343,-0.1533323973417282,-0.14309516549110413,-0.18288984894752502,-0.3389943540096283
8,344,-0.15535734593868256,-0.1415807008743286,-0.18236562609672546,-0.34122925996780396
8,345,-0.15466031432151794,-0.14317026734352112,-0.18189623951911926,-0.3415383994579315
8,346,-0.15652506053447723,-0.14474241435527802,-0.18209850788116455,-0.34178128838539124
8,347,-0.15608222782611847,-0.14635026454925537,-0.18092398345470428,-0.342209130525589
8,348,-0.1556902974843979,-0.14588838815689087,-0.18229371309280396,-0.3425028920173645
8,349,-0.15435577929019928,-0.14452260732650757,-0.18196910619735718,-0.3428539037704468
8,350,-0.1551913470029831,-0.1436818242073059,-0.18169081211090088,-0.3431241810321808
8,351,-0.15625469386577606,-0.14404183626174927,-0.1818569153547287,-0.3434402644634247
8,352,-0.15752771496772766,-0.14581723511219025,-0.18335159122943878,-0.34377333521842957
8,353,-0.15731608867645264,-0.14544011652469635,-0.1846187561750412,-0.3442820906639099
8,354,-0.15703339874744415,-0.1450703889131546,-0.18514202535152435,-0.34469759464263916
8,355,-0.15810242295265198,-0.14573051035404205,-0.18606805801391602,-0.34526321291923523
8,356,-0.15767325460910797,-0.14604979753494263,-0.18743796646595,-0.34566590189933777
8,357,-0.1600951999425888,-0.14634299278259277,-0.18832306563854218,-0.3458189070224762
8,358,-0.15932324528694153,-0.14717431366443634,-0.18840937316417694,-0.34617680311203003
8,359,-0.15961576998233795,-0.14859075844287872,-0.18794289231300354,-0.3466544449329376
8,360,-0.16002604365348816,-0.1503111571073532,-0.18854841589927673,-0.3469236195087433
8,361,-0.15993879735469818,-0.15013939142227173,-0.18861182034015656,-0.3473026156425476
8,362,-0.1606992781162262,-0.15156854689121246,-0.19004912674427032,-0.3477104902267456
8,363,-0.16032421588897705,-0.1505148708820343,-0.1890895962715149,-0.34801310300827026
8,364,-0.16089676320552826,-0.1501016914844513,-0.18882746994495392,-0.3486074209213257
8,365,-0.16142641007900238,-0.15081894397735596,-0.18795010447502136,-0.34947440028190613
8,366,-0.16163042187690735,-0.15148596465587616,-0.18706771731376648,-0.3503882586956024
8,367,-0.16220082342624664,-0.1521010547876358,-0.18827815353870392,-0.35093581676483154
8,368,-0.16195183992385864,-0.15251563489437103,-0.18606384098529816,-0.3522464334964752
8,369,-0.1634654849767685,-0.15250632166862488,-0.18608048558235168,-0.35323742032051086
8,370,-0.1634991616010666,-0.15299484133720398,-0.1852818876504898,-0.35480445623397827
8,371,-0.16449955105781555,-0.15207412838935852,-0.18521693348884583,-0.355885773897171
8,372,-0.16573171317577362,-0.15314435958862305,-0.1869199424982071,-0.35662418603897095
8,373,-0.16539603471755981,-0.1527208387851715,-0.18623092770576477,-0.35613736510276794
8,374,-0.16457794606685638,-0.15176032483577728,-0.18628160655498505,-0.3566332161426544
8,375,-0.1648532897233963,-0.15253910422325134,-0.185397669672966,-0.3571298122406006
8,376,-0.16353046894073486,-0.15145549178123474,-0.18517209589481354,-0.35770612955093384
8,377,-0.1658753901720047,-0.15160109102725983,-0.18458721041679382,-0.3588307797908783
8,378,-0.16455338895320892,-0.15090316534042358,-0.18456532061100006,-0.35952556133270264
8,379,-0.1658688336610794,-0.1512342095375061,-0.1846000701189041,-0.36051106452941895
8,380,-0.16577960550785065,-0.1524427980184555,-0.18559710681438446,-0.36103901267051697
8,381,-0.16671480238437653,-0.15090303122997284,-0.18548469245433807,-0.36242160201072693
8,382,-0.1675773710012436,-0.15071560442447662,-0.18375054001808167,-0.36328279972076416
8,383,-0.16777575016021729,-0.1522180736064911,-0.18248766660690308,-0.36417409777641296
8,384,-0.1671760231256485,-0.1524597555398941,-0.18406033515930176,-0.36474788188934326
8,385,-0.16871322691440582,-0.1534712165594101,-0.18437965214252472,-0.36571282148361206
8,386,-0.16814792156219482,-0.15179714560508728,-0.1826542168855667,-0.36635473370552063
8,387,-0.16791798174381256,-0.15131914615631104,-0.18422918021678925,-0.36722245812416077
8,388,-0.16863907873630524,-0.15073560178279877,-0.18424053490161896,-0.36813825368881226
8,389,-0.16896668076515198,-0.15134117007255554,-0.18485109508037567,-0.36866676807403564
8,390,-0.1695924550294876,-0.14970430731773376,-0.18645620346069336,-0.36946481466293335
8,391,-0.17043864727020264,-0.14998124539852142,-0.1860833317041397,-0.37023255228996277
9,392,-0.17021803557872772,-0.15053051710128784,-0.18632175028324127,-0.3713770806789398
9,393,-0.17091004550457,-0.15122483670711517,-0.1874075084924698,-0.3723037540912628
9,394,-0.17176933586597443,-0.15133965015411377,-0.18734265863895416,-0.3736201524734497
9,395,-0.17159615457057953,-0.1496105194091797,-0.1875719279050827,-0.37452131509780884
9,396,-0.17195385694503784,-0.15043488144874573,-0.18686442077159882,-0.37515291571617126
9,397,-0.17313291132450104,-0.14922621846199036,-0.1853475123643875,-0.37595921754837036
9,398,-0.17285756766796112,-0.1493365317583084,-0.18571721017360687,-0.3766334354877472
9,399,-0.17255021631717682,-0.14902710914611816,-0.18652907013893127,-0.37745583057403564
9,400,-0.17201825976371765,-0.1493077278137207,-0.1844818890094757,-0.37816283106803894
9,401,-0.17356395721435547,-0.1501682549715042,-0.18386593461036682,-0.378970742225647
9,402,-0.17455509305000305,-0.15127971768379211,-0.18322858214378357,-0.3796584904193878
9,403,-0.1747770756483078,-0.15151973068714142,-0.18306393921375275,-0.38072946667671204
9,404,-0.17573226988315582,-0.15020427107810974,-0.18354350328445435,-0.38177943229675293
9,405,-0.17397981882095337,-0.15116745233535767,-0.18334294855594635,-0.3823380470275879
9,406,-0.17434577643871307,-0.15230177342891693,-0.18333648145198822,-0.38316965103149414
9,407,-0.17452464997768402,-0.1516578048467636,-0.1847812980413437,-0.3840297758579254
9,408,-0.17391365766525269,-0.1509222537279129,-0.18481457233428955,-0.38453951478004456
9,409,-0.17383578419685364,-0.15132415294647217,-0.18357831239700317,-0.38533130288124084
9,410,-0.17330604791641235,-0.1526329666376114,-0.18457473814487457,-0.3858422636985779
9,411,-0.1716655045747757,-0.15262733399868011,-0.18629197776317596,-0.3866099715232849
9,412,-0.17333856225013733,-0.15395495295524597,-0.1874925196170807,-0.38740861415863037
9,413,-0.17220158874988556,-0.15276242792606354,-0.18887892365455627,-0.38853830099105835
9,414,-0.17398858070373535,-0.15274091064929962,-0.18814139068126678,-0.38918063044548035
9,415,-0.1738729625940323,-0.15332575142383575,-0.18756374716758728,-0.3861082196235657
9,416,-0.1733623445034027,-0.15159539878368378,-0.18522216379642487,-0.3861978054046631
9,417,-0.1747407615184784,-0.15022434294223785,-0.18456719815731049,-0.3863065242767334
9,418,-0.17400331795215607,-0.15124426782131195,-0.1838967353105545,-0.38641950488090515
9,419,-0.1755794733762741,-0.14962716400623322,-0.18481449782848358,-0.38654083013534546
9,420,-0.1743144690990448,-0.15030419826507568,-0.18493525683879852,-0.38672274351119995
9,421,-0.17554357647895813,-0.15214550495147705,-0.18402542173862457,-0.3868412375450134
9,422,-0.17482711374759674,-0.15212811529636383,-0.18456418812274933,-0.3870919942855835
9,423,-0.1764952838420868,-0.15152126550674438,-0.18447206914424896,-0.3872388005256653
9,424,-0.1756756752729416,-0.1499163657426834,-0.18490004539489746,-0.3873997628688812
9,425,-0.1756301075220108,-0.15107569098472595,-0.1840367317199707,-0.38758546113967896
9,426,-0.17498037219047546,-0.1504807472229004,-0.184886172413826,-0.3878072500228882
9,427,-0.1750476062297821,-0.15148378908634186,-0.1846817284822464,-0.387978196144104
9,428,-0.17597785592079163,-0.15222331881523132,-0.18573719263076782,-0.388205885887146
9,429,-0.17526543140411377,-0.1528390794992447,-0.18498867750167847,-0.38844019174575806
9,430,-0.17578548192977905,-0.15288686752319336,-0.18410935997962952,-0.38865965604782104
9,431,-0.17597241699695587,-0.15360991656780243,-0.18390950560569763,-0.3890089690685272
9,432,-0.17659825086593628,-0.15401798486709595,-0.18379329144954681,-0.3892575800418854
9,433,-0.1753554344177246,-0.15367349982261658,-0.1844644844532013,-0.3897048830986023
9,434,-0.17605829238891602,-0.15388114750385284,-0.1839798241853714,-0.3901659846305847
9,435,-0.17665249109268188,-0.1535560041666031,-0.18288615345954895,-0.3909689486026764
9,436,-0.1766781359910965,-0.15374581515789032,-0.18219372630119324,-0.3916996121406555
9,437,-0.17634867131710052,-0.15526947379112244,-0.18114376068115234,-0.3922272324562073
9,438,-0.1779329925775528,-0.15538549423217773,-0.1806999146938324,-0.39281165599823
9,439,-0.17818738520145416,-0.1542845070362091,-0.18167877197265625,-0.39219966530799866
9,440,-0.17918327450752258,-0.15472698211669922,-0.1828538179397583,-0.39257732033729553
10,441,-0.17848466336727142,-0.15544646978378296,-0.18466728925704956,-0.3929959535598755
10,442,-0.18004272878170013,-0.15506945550441742,-0.18450820446014404,-0.3933934271335602
10,443,-0.17890898883342743,-0.1568269431591034,-0.18558911979198456,-0.3938009440898895
10,444,-0.17979177832603455,-0.15723302960395813,-0.1849643886089325,-0.3941987156867981
10,445,-0.17920494079589844,-0.15785135328769684,-0.18664586544036865,-0.39452531933784485
10,446,-0.18037621676921844,-0.15740065276622772,-0.18741154670715332,-0.394956111907959
10,447,-0.1801411509513855,-0.15651041269302368,-0.18793372809886932,-0.39546653628349304
10,448,-0.1810108721256256,-0.15491047501564026,-0.18894806504249573,-0.3958389461040497
10,449,-0.1803470104932785,-0.1548699289560318,-0.1879550814628601,-0.3962397277355194
10,450,-0.18108537793159485,-0.15618646144866943,-0.18921512365341187,-0.39670470356941223
10,451,-0.18052567541599274,-0.1571240872144699,-0.19071586430072784,-0.3972822427749634
10,452,-0.18043921887874603,-0.15694460272789001,-0.19085504114627838,-0.3975965976715088
10,453,-0.18005938827991486,-0.15550541877746582,-0.18981598317623138,-0.39854517579078674
10,454,-0.17911189794540405,-0.15484972298145294,-0.19051960110664368,-0.39936766028404236
10,455,-0.17928758263587952,-0.15572410821914673,-0.1914144903421402,-0.40035486221313477
10,456,-0.17885394394397736,-0.15649384260177612,-0.19398251175880432,-0.40082648396492004
10,457,-0.1802801638841629,-0.1558070331811905,-0.19375504553318024,-0.40146470069885254
10,458,-0.17865538597106934,-0.15627256035804749,-0.19345299899578094,-0.4022366404533386
10,459,-0.17998257279396057,-0.15598426759243011,-0.19264276325702667,-0.40385541319847107
10,460,-0.17868173122406006,-0.1565987765789032,-0.19153879582881927,-0.40474656224250793
10,461,-0.17909999191761017,-0.157104030251503,-0.18961168825626373,-0.40519389510154724
10,462,-0.1788625717163086,-0.15654850006103516,-0.18999789655208588,-0.40565741062164307
10,463,-0.17999154329299927,-0.15702734887599945,-0.18951824307441711,-0.4059939384460449
10,464,-0.1802077442407608,-0.15601764619350433,-0.19030232727527618,-0.40665656328201294
10,465,-0.17986081540584564,-0.15581417083740234,-0.1907082498073578,-0.407135009765625
10,466,-0.18000461161136627,-0.15578091144561768,-0.19087332487106323,-0.40753820538520813
10,467,-0.18066474795341492,-0.15588581562042236,-0.190749391913414,-0.4080095887184143
10,468,-0.18153056502342224,-0.15788252651691437,-0.19051004946231842,-0.4085063934326172
10,469,-0.1801537722349167,-0.1557372510433197,-0.19013378024101257,-0.40891405940055847
10,470,-0.1815449595451355,-0.157123401761055,-0.1905430406332016,-0.40982985496520996
10,471,-0.18169431388378143,-0.15749073028564453,-0.19054006040096283,-0.4105052947998047
10,472,-0.1815059781074524,-0.15766943991184235,-0.19146564602851868,-0.41118451952934265
10,473,-0.18103104829788208,-0.15793319046497345,-0.19189472496509552,-0.4115535616874695
10,474,-0.18164779245853424,-0.1579032987356186,-0.1902931034564972,-0.4121483266353607
10,475,-0.18249256908893585,-0.1576082706451416,-0.19012632966041565,-0.4126964807510376
10,476,-0.1845783144235611,-0.15827469527721405,-0.1907203495502472,-0.41332557797431946
10,477,-0.18339677155017853,-0.15988075733184814,-0.19013679027557373,-0.41403403878211975
10,478,-0.18376971781253815,-0.15931789577007294,-0.1889837086200714,-0.41445639729499817
10,479,-0.18445011973381042,-0.15888889133930206,-0.18801529705524445,-0.41540274024009705
10,480,-0.18465103209018707,-0.15784509479999542,-0.18802575767040253,-0.41616931557655334
10,481,-0.18397745490074158,-0.15712518990039825,-0.18829405307769775,-0.41651540994644165
10,482,-0.18545791506767273,-0.15745267271995544,-0.18839578330516815,-0.4174800515174866
10,483,-0.18504095077514648,-0.1580040007829666,-0.18903891742229462,-0.4179254472255707
10,484,-0.18432573974132538,-0.15711283683776855,-0.19065551459789276,-0.4183299243450165
10,485,-0.18560409545898438,-0.1571582406759262,-0.18906554579734802,-0.4193161129951477
10,486,-0.18596337735652924,-0.155885249376297,-0.19125446677207947,-0.42004579305648804
10,487,-0.18522650003433228,-0.157637357711792,-0.19200517237186432,-0.4206916093826294
10,488,-0.1874861866235733,-0.15738211572170258,-0.1912955641746521,-0.42138832807540894
10,489,-0.18629348278045654,-0.15826451778411865,-0.19226117432117462,-0.4223875403404236
11,490,-0.18634140491485596,-0.15885084867477417,-0.19315262138843536,-0.42290112376213074
11,491,-0.18795274198055267,-0.15773865580558777,-0.1943444013595581,-0.42390093207359314
11,492,-0.18686756491661072,-0.15859563648700714,-0.19378601014614105,-0.42494121193885803
11,493,-0.18643616139888763,-0.15964418649673462,-0.1932535320520401,-0.4256090223789215
11,494,-0.18682052195072174,-0.1608256697654724,-0.19337423145771027,-0.4263443946838379
11,495,-0.18688306212425232,-0.16109642386436462,-0.19400238990783691,-0.4269768297672272
11,496,-0.18777044117450714,-0.16000871360301971,-0.1933557093143463,-0.4275612235069275
11,497,-0.18739241361618042,-0.16013360023498535,-0.1942869871854782,-0.428157776594162
11,498,-0.18720750510692596,-0.15840847790241241,-0.1938050091266632,-0.42875686287879944
11,499,-0.18743674457073212,-0.156668022274971,-0.19404737651348114,-0.4297855794429779
11,500,-0.1888790875673294,-0.15773849189281464,-0.1954963505268097,-0.43014854192733765
11,501,-0.18984268605709076,-0.15771692991256714,-0.19459249079227448,-0.43085017800331116
11,502,-0.18796035647392273,-0.15764307975769043,-0.1965760737657547,-0.43152502179145813
11,503,-0.1892472207546234,-0.1586391180753708,-0.1958293914794922,-0.4321337640285492
11,504,-0.18842342495918274,-0.1599307358264923,-0.19560052454471588,-0.4327678680419922
11,505,-0.19049300253391266,-0.1608143150806427,-0.1948300153017044,-0.43439939618110657
11,506,-0.19015230238437653,-0.1615695059299469,-0.19659757614135742,-0.4314795732498169
11,507,-0.19152326881885529,-0.16186648607254028,-0.19642001390457153,-0.43172866106033325
11,508,-0.19060470163822174,-0.1634560525417328,-0.19715651869773865,-0.4318922758102417
11,509,-0.19167514145374298,-0.1627267301082611,-0.19680778682231903,-0.43262550234794617
11,510,-0.19182544946670532,-0.16342784464359283,-0.19618985056877136,-0.4330620765686035
11,511,-0.19185617566108704,-0.16282713413238525,-0.19664427638053894,-0.4335361421108246
11,512,-0.19256949424743652,-0.1620510071516037,-0.19865284860134125,-0.4345349073410034
11,513,-0.19232134521007538,-0.16210921108722687,-0.19803735613822937,-0.4352475702762604
11,514,-0.19317544996738434,-0.1623203158378601,-0.19699136912822723,-0.4361717700958252
11,515,-0.1932143121957779,-0.16286680102348328,-0.19597657024860382,-0.436847448348999
11,516,-0.1944647878408432,-0.16174891591072083,-0.1959865838289261,-0.4372064173221588
11,517,-0.1946866363286972,-0.16281183063983917,-0.19640479981899261,-0.43743401765823364
11,518,-0.1956702619791031,-0.1646362543106079,-0.19677338004112244,-0.43807709217071533
11,519,-0.19394461810588837,-0.16381853818893433,-0.19822581112384796,-0.43740227818489075
11,520,-0.19410279393196106,-0.16423399746418,-0.1983821541070938,-0.43775153160095215
11,521,-0.19500747323036194,-0.16409428417682648,-0.19848750531673431,-0.43839678168296814
11,522,-0.19527359306812286,-0.16422832012176514,-0.19802454113960266,-0.43929025530815125
11,523,-0.19699974358081818,-0.1644136756658554,-0.19774185121059418,-0.43992260098457336
11,524,-0.19574245810508728,-0.1644386500120163,-0.19730471074581146,-0.440434992313385
11,525,-0.19777008891105652,-0.16651977598667145,-0.19578450918197632,-0.4409428834915161
11,526,-0.19634656608104706,-0.16715025901794434,-0.19468897581100464,-0.4415714740753174
11,527,-0.19742271304130554,-0.1661318838596344,-0.19613789021968842,-0.44223108887672424
11,528,-0.19652004539966583,-0.1651773601770401,-0.19501253962516785,-0.4431191682815552
11,529,-0.197407066822052,-0.16588684916496277,-0.19455035030841827,-0.4435671269893646
11,530,-0.19594745337963104,-0.16546139121055603,-0.19470573961734772,-0.44412940740585327
11,531,-0.19571658968925476,-0.16691838204860687,-0.19509649276733398,-0.44479572772979736
11,532,-0.19678834080696106,-0.16712108254432678,-0.19564476609230042,-0.4456377625465393
11,533,-0.1967509686946869,-0.16781774163246155,-0.19547992944717407,-0.44603967666625977
11,534,-0.19718368351459503,-0.16788601875305176,-0.1979094296693802,-0.4466216564178467
11,535,-0.19734600186347961,-0.16713310778141022,-0.19813045859336853,-0.448012113571167
11,536,-0.1984432190656662,-0.16838914155960083,-0.19866518676280975,-0.4482974708080292
11,537,-0.19725386798381805,-0.16916704177856445,-0.2004752904176712,-0.4487041234970093
11,538,-0.19798998534679413,-0.1685710847377777,-0.20172733068466187,-0.4492361843585968
12,539,-0.19726182520389557,-0.16896985471248627,-0.20363657176494598,-0.44959554076194763
12,540,-0.196609765291214,-0.16916264593601227,-0.20415334403514862,-0.45050013065338135
12,541,-0.19834846258163452,-0.1701829433441162,-0.20466800034046173,-0.45097336173057556
12,542,-0.19758006930351257,-0.17063963413238525,-0.20414966344833374,-0.4518029987812042
12,543,-0.19769848883152008,-0.1726168841123581,-0.20473667979240417,-0.4525225758552551
12,544,-0.1973446160554886,-0.17401966452598572,-0.20494741201400757,-0.45316562056541443
12,545,-0.19835852086544037,-0.1748996078968048,-0.20548203587532043,-0.4543955326080322
12,546,-0.19814451038837433,-0.1758391112089157,-0.20674234628677368,-0.4549679160118103
12,547,-0.1989414393901825,-0.1752634197473526,-0.20839659869670868,-0.45561888813972473
12,548,-0.19848960638046265,-0.17480753362178802,-0.2080523520708084,-0.45602619647979736
12,549,-0.19818241894245148,-0.1742144674062729,-0.20858779549598694,-0.45665499567985535
12,550,-0.1980433613061905,-0.17431128025054932,-0.20744004845619202,-0.4571484625339508
12,551,-0.198871448636055,-0.17360562086105347,-0.20798633992671967,-0.4579048752784729
12,552,-0.19848138093948364,-0.17401054501533508,-0.2091750055551529,-0.4585220515727997
12,553,-0.19928830862045288,-0.17461472749710083,-0.208357572555542,-0.4592445492744446
12,554,-0.19836142659187317,-0.17330755293369293,-0.2091631442308426,-0.46028298139572144
12,555,-0.19857536256313324,-0.17388533055782318,-0.20932240784168243,-0.46136534214019775
12,556,-0.19850754737854004,-0.17395555973052979,-0.21053272485733032,-0.46242380142211914
12,557,-0.20014818012714386,-0.17467999458312988,-0.20979230105876923,-0.46306025981903076
12,558,-0.19860504567623138,-0.1755366325378418,-0.20932631194591522,-0.4632827043533325
12,559,-0.2002868950366974,-0.17474974691867828,-0.20891739428043365,-0.4647074341773987
12,560,-0.1989373415708542,-0.17507754266262054,-0.20831939578056335,-0.46532168984413147
12,561,-0.19977878034114838,-0.17484557628631592,-0.20807036757469177,-0.4661763310432434
12,562,-0.19935573637485504,-0.1756572127342224,-0.2077196091413498,-0.46725377440452576
12,563,-0.20095466077327728,-0.17566990852355957,-0.20795944333076477,-0.46772390604019165
12,564,-0.20124639570713043,-0.1757030040025711,-0.2069648802280426,-0.4685311019420624
12,565,-0.2009735405445099,-0.17578303813934326,-0.2069716453552246,-0.4690040647983551
12,566,-0.20264264941215515,-0.17582421004772186,-0.20853354036808014,-0.4694044589996338
12,567,-0.20129750669002533,-0.17495514452457428,-0.20929326117038727,-0.46994683146476746
12,568,-0.20210044085979462,-0.17703676223754883,-0.20860306918621063,-0.47031375765800476
12,569,-0.20085695385932922,-0.17768768966197968,-0.2098214477300644,-0.4707943797111511
12,570,-0.20148472487926483,-0.17882448434829712,-0.2100657820701599,-0.4714583158493042
12,571,-0.2015913724899292,-0.17907868325710297,-0.2114248126745224,-0.4721658527851105
12,572,-0.2012147158384323,-0.17893560230731964,-0.21114952862262726,-0.4727269411087036
12,573,-0.20283441245555878,-0.1780872344970703,-0.20984290540218353,-0.473006933927536
12,574,-0.2023778259754181,-0.17717912793159485,-0.20816563069820404,-0.4735395908355713
12,575,-0.2035546898841858,-0.1774066537618637,-0.20770913362503052,-0.4745522141456604
12,576,-0.20388884842395782,-0.17603082954883575,-0.20761562883853912,-0.4750916063785553
12,577,-0.20464947819709778,-0.17670173943042755,-0.20559687912464142,-0.4756569564342499
12,578,-0.203607439994812,-0.17797665297985077,-0.2074977308511734,-0.4761276841163635
12,579,-0.20483215153217316,-0.17951606214046478,-0.20712515711784363,-0.47663676738739014
12,580,-0.20437301695346832,-0.17819805443286896,-0.20631730556488037,-0.4771707057952881
12,581,-0.20335735380649567,-0.1787784993648529,-0.20648187398910522,-0.4776940941810608
12,582,-0.20476080477237701,-0.17913882434368134,-0.2071654498577118,-0.47809162735939026
12,583,-0.20384550094604492,-0.18093587458133698,-0.20736068487167358,-0.478666752576828
12,584,-0.2041516900062561,-0.18082380294799805,-0.20790567994117737,-0.47909849882125854
12,585,-0.2051336020231247,-0.18034468591213226,-0.20797385275363922,-0.4794423580169678
12,586,-0.20451757311820984,-0.18092766404151917,-0.2071942538022995,-0.47973889112472534
12,587,-0.2044757753610611,-0.18147337436676025,-0.20803694427013397,-0.480299174785614
13,588,-0.2042752355337143,-0.18195420503616333,-0.20893162488937378,-0.48142141103744507
13,589,-0.20547793805599213,-0.1827480047941208,-0.20717459917068481,-0.4817892611026764
13,590,-0.20655345916748047,-0.18120574951171875,-0.2083520144224167,-0.4824659824371338
13,591,-0.20702490210533142,-0.18156787753105164,-0.2085644155740738,-0.4829018712043762
13,592,-0.2069709450006485,-0.18404391407966614,-0.20872615277767181,-0.4835476279258728
13,593,-0.20593339204788208,-0.18402549624443054,-0.20964835584163666,-0.4843097925186157
13,594,-0.20687329769134521,-0.18426765501499176,-0.2106843888759613,-0.48502588272094727
13,595,-0.20545414090156555,-0.1853955090045929,-0.21018946170806885,-0.4858945906162262
13,596,-0.20607821643352509,-0.18479490280151367,-0.21106086671352386,-0.48631757497787476
13,597,-0.2049737274646759,-0.18511787056922913,-0.2112068384885788,-0.48689213395118713
13,598,-0.2065587043762207,-0.1847025603055954,-0.21135424077510834,-0.48762989044189453
13,599,-0.2049632966518402,-0.18433327972888947,-0.2117546647787094,-0.4881219267845154
13,600,-0.20504651963710785,-0.1822027862071991,-0.21098989248275757,-0.4893716871738434
13,601,-0.20428366959095,-0.18128225207328796,-0.2099163979291916,-0.48959848284721375
13,602,-0.20482033491134644,-0.18136204779148102,-0.2104019671678543,-0.49008408188819885
13,603,-0.20436234772205353,-0.1819523125886917,-0.2087443768978119,-0.49084433913230896
13,604,-0.20417973399162292,-0.18287287652492523,-0.21041984856128693,-0.49159592390060425
13,605,-0.2044237107038498,-0.18348588049411774,-0.2111504077911377,-0.49217844009399414
13,606,-0.20385919511318207,-0.18459855020046234,-0.21181167662143707,-0.49263620376586914
13,607,-0.20515331625938416,-0.18511749804019928,-0.21036700904369354,-0.49322354793548584
13,608,-0.2057790458202362,-0.18481606245040894,-0.20956070721149445,-0.49366071820259094
13,609,-0.206214040517807,-0.184842050075531,-0.20889848470687866,-0.49411389231681824
13,610,-0.20637069642543793,-0.1849427968263626,-0.2104630023241043,-0.4947293996810913
13,611,-0.20713432133197784,-0.18418391048908234,-0.21040655672550201,-0.4952118992805481
13,612,-0.20722846686840057,-0.18561655282974243,-0.2098846137523651,-0.4956335723400116
13,613,-0.20607313513755798,-0.18521063029766083,-0.21099957823753357,-0.49766823649406433
13,614,-0.2079952508211136,-0.18475039303302765,-0.2125938981771469,-0.49789848923683167
13,615,-0.20778292417526245,-0.18442094326019287,-0.21348799765110016,-0.49837908148765564
13,616,-0.20775206387043,-0.18485404551029205,-0.21266059577465057,-0.4985446333885193
13,617,-0.2084226906299591,-0.18512770533561707,-0.2123917043209076,-0.49894979596138
13,618,-0.20987097918987274,-0.18508794903755188,-0.211663156747818,-0.4992634654045105
13,619,-0.2110237330198288,-0.18586018681526184,-0.21138419210910797,-0.49956536293029785
13,620,-0.2112787365913391,-0.1864837110042572,-0.2104976922273636,-0.5000483393669128
13,621,-0.21144303679466248,-0.18875446915626526,-0.21009384095668793,-0.5004448890686035
13,622,-0.21229848265647888,-0.1888050138950348,-0.21097712218761444,-0.5008694529533386
13,623,-0.2121960073709488,-0.18864880502223969,-0.21084943413734436,-0.5011634230613708
13,624,-0.2134713977575302,-0.18750694394111633,-0.21114636957645416,-0.5015823841094971
13,625,-0.21366749703884125,-0.18784186244010925,-0.21196141839027405,-0.5020455718040466
13,626,-0.21444694697856903,-0.18797527253627777,-0.21139851212501526,-0.5023266077041626
13,627,-0.21411851048469543,-0.18906374275684357,-0.210550919175148,-0.5028454661369324
13,628,-0.21322381496429443,-0.1890280395746231,-0.20965451002120972,-0.5032632350921631
13,629,-0.21242755651474,-0.18903110921382904,-0.20996946096420288,-0.5037322640419006
13,630,-0.21266669034957886,-0.18790662288665771,-0.20899856090545654,-0.504294753074646
13,631,-0.21282656490802765,-0.18755953013896942,-0.20999163389205933,-0.5048418045043945
13,632,-0.2139967978000641,-0.1863233745098114,-0.2081206738948822,-0.5053483247756958
13,633,-0.21445836126804352,-0.18660354614257812,-0.20844703912734985,-0.5055967569351196
13,634,-0.2134820520877838,-0.18653737008571625,-0.20924951136112213,-0.506544828414917
13,635,-0.21351689100265503,-0.18694153428077698,-0.20794165134429932,-0.5074087977409363
13,636,-0.2138880342245102,-0.18671320378780365,-0.20911787450313568,-0.5080379843711853
14,637,-0.2132652997970581,-0.18870268762111664,-0.20809191465377808,-0.5083869695663452
14,638,-0.2141001671552658,-0.18904447555541992,-0.2089330554008484,-0.5087692737579346
14,639,-0.21512305736541748,-0.18963852524757385,-0.20875027775764465,-0.5094395875930786
14,640,-0.21465425193309784,-0.18844109773635864,-0.20991960167884827,-0.5097739100456238
14,641,-0.21314705908298492,-0.18969455361366272,-0.20996436476707458,-0.5106881260871887
14,642,-0.2147374451160431,-0.18804064393043518,-0.20981769263744354,-0.5111902356147766
14,643,-0.21621374785900116,-0.1895059198141098,-0.20996999740600586,-0.5115600228309631
14,644,-0.21581897139549255,-0.18973581492900848,-0.20977099239826202,-0.5120285749435425
14,645,-0.21631646156311035,-0.19055844843387604,-0.2089957892894745,-0.512320339679718
14,646,-0.215751051902771,-0.18990112841129303,-0.20731614530086517,-0.5127903819084167
14,647,-0.21480312943458557,-0.19076277315616608,-0.20689968764781952,-0.513049840927124
14,648,-0.2160065919160843,-0.1912025660276413,-0.20680372416973114,-0.5132831931114197
14,649,-0.21757875382900238,-0.19158153235912323,-0.20653358101844788,-0.5139114856719971
14,650,-0.21905866265296936,-0.19128064811229706,-0.20858219265937805,-0.5146748423576355
14,651,-0.21933338046073914,-0.1899615377187729,-0.20749031007289886,-0.515565037727356
14,652,-0.21958191692829132,-0.19076332449913025,-0.2069033533334732,-0.5158658027648926
14,653,-0.21958236396312714,-0.1918211281299591,-0.20669090747833252,-0.5162472724914551
14,654,-0.2189301699399948,-0.19073447585105896,-0.20833638310432434,-0.516616702079773
14,655,-0.2191087305545807,-0.19137988984584808,-0.20765401422977448,-0.5168988704681396
14,656,-0.21719977259635925,-0.1907675713300705,-0.20877692103385925,-0.517295777797699
14,657,-0.2160082757472992,-0.19096548855304718,-0.20858970284461975,-0.518378734588623
14,658,-0.216676726937294,-0.18985991179943085,-0.20883329212665558,-0.5191292762756348
14,659,-0.2170362025499344,-0.18961121141910553,-0.20854532718658447,-0.5197838544845581
14,660,-0.2175835222005844,-0.19134537875652313,-0.2079855054616928,-0.5200222730636597
14,661,-0.21856513619422913,-0.19146522879600525,-0.20677320659160614,-0.5205257534980774
14,662,-0.21766243875026703,-0.19196580350399017,-0.20722299814224243,-0.5208004117012024
14,663,-0.21866296231746674,-0.19081422686576843,-0.20890025794506073,-0.5210725665092468
14,664,-0.22056721150875092,-0.18885229527950287,-0.21080712974071503,-0.5216858386993408
14,665,-0.22035007178783417,-0.18740355968475342,-0.21163715422153473,-0.5221744179725647
14,666,-0.2194199413061142,-0.18773001432418823,-0.21165499091148376,-0.5224935412406921
14,667,-0.2181188017129898,-0.18906369805335999,-0.21332424879074097,-0.5227651596069336
14,668,-0.21858856081962585,-0.1892465054988861,-0.21462589502334595,-0.5232104063034058
14,669,-0.21847449243068695,-0.18895085155963898,-0.21503448486328125,-0.523524820804596
14,670,-0.21793827414512634,-0.18760018050670624,-0.21456879377365112,-0.5237724781036377
14,671,-0.21760818362236023,-0.18938831984996796,-0.21395762264728546,-0.5242379307746887
14,672,-0.2173059582710266,-0.19008299708366394,-0.21456016600131989,-0.5246632099151611
14,673,-0.21783572435379028,-0.18969114124774933,-0.21326105296611786,-0.5256342887878418
14,674,-0.21834434568881989,-0.19056685268878937,-0.2128327488899231,-0.5259233117103577
14,675,-0.21820881962776184,-0.19199387729167938,-0.21188950538635254,-0.5262796878814697
14,676,-0.2192220836877823,-0.1917666792869568,-0.2115490585565567,-0.5268234610557556
14,677,-0.2189529687166214,-0.19208291172981262,-0.21274340152740479,-0.5272186398506165
14,678,-0.21985042095184326,-0.19373342394828796,-0.2130596935749054,-0.5277066826820374
14,679,-0.21907903254032135,-0.19301067292690277,-0.21317730844020844,-0.5293648838996887
14,680,-0.21869949996471405,-0.19342033565044403,-0.21134814620018005,-0.5298174619674683
14,681,-0.21850112080574036,-0.1933574080467224,-0.21137091517448425,-0.5302847027778625
14,682,-0.21846525371074677,-0.19301347434520721,-0.2108190655708313,-0.5304778218269348
14,683,-0.21870757639408112,-0.19230248034000397,-0.21238745748996735,-0.5307480096817017
14,684,-0.2169489860534668,-0.19144101440906525,-0.2131618857383728,-0.5312857627868652
14,685,-0.21909722685813904,-0.19061197340488434,-0.21454881131649017,-0.5321252346038818
15,686,-0.21875746548175812,-0.19127097725868225,-0.2151012122631073,-0.5325217843055725
15,687,-0.21897274255752563,-0.19222979247570038,-0.21720539033412933,-0.5329652428627014
15,688,-0.21930380165576935,-0.19232794642448425,-0.21614104509353638,-0.5332164168357849
15,689,-0.21845586597919464,-0.1925404667854309,-0.21508784592151642,-0.5334587693214417
15,690,-0.2181212604045868,-0.19282658398151398,-0.21572183072566986,-0.5336294770240784
15,691,-0.2183516025543213,-0.192194402217865,-0.2149759829044342,-0.5340312123298645
15,692,-0.218098983168602,-0.1905253827571869,-0.214835062623024,-0.53465735912323
15,693,-0.21994753181934357,-0.18948636949062347,-0.21632100641727448,-0.5351196527481079
15,694,-0.2218509167432785,-0.18933513760566711,-0.21544964611530304,-0.5357832312583923
15,695,-0.22099167108535767,-0.18909940123558044,-0.2159278690814972,-0.5360012650489807
15,696,-0.221186101436615,-0.1902807056903839,-0.21740739047527313,-0.5365175604820251
15,697,-0.22047816216945648,-0.18987329304218292,-0.21775975823402405,-0.5368609428405762
15,698,-0.22178789973258972,-0.18892830610275269,-0.2172842025756836,-0.537523090839386
15,699,-0.22221307456493378,-0.18962939083576202,-0.21611322462558746,-0.5379804968833923
15,700,-0.2240917682647705,-0.19111844897270203,-0.21437400579452515,-0.5383353233337402
15,701,-0.22560635209083557,-0.19152498245239258,-0.2158079296350479,-0.5385501980781555
15,702,-0.22488495707511902,-0.19102853536605835,-0.217133566737175,-0.538923442363739
15,703,-0.22470320761203766,-0.19070103764533997,-0.21755124628543854,-0.5399234294891357
15,704,-0.22523809969425201,-0.1886965036392212,-0.21914361417293549,-0.540418267250061
15,705,-0.223954975605011,-0.1891634315252304,-0.22044891119003296,-0.5408728122711182
15,706,-0.22361654043197632,-0.18936604261398315,-0.2217414677143097,-0.5415091514587402
15,707,-0.2239638715982437,-0.1894989162683487,-0.22135964035987854,-0.5419774055480957
15,708,-0.22586967051029205,-0.19036120176315308,-0.22160811722278595,-0.5424485206604004
15,709,-0.22682465612888336,-0.1899886131286621,-0.22178906202316284,-0.5429705381393433
15,710,-0.22750365734100342,-0.19070476293563843,-0.22133179008960724,-0.5432054996490479
15,711,-0.22841866314411163,-0.19074441492557526,-0.22160844504833221,-0.5439714193344116
15,712,-0.22935441136360168,-0.18988177180290222,-0.22313620150089264,-0.5444608926773071
15,713,-0.23043285310268402,-0.18976376950740814,-0.22358842194080353,-0.5446273684501648
15,714,-0.22961628437042236,-0.19060203433036804,-0.22373098134994507,-0.545180082321167
15,715,-0.22940495610237122,-0.19205734133720398,-0.22465650737285614,-0.5461827516555786
15,716,-0.23039919137954712,-0.19060175120830536,-0.22426941990852356,-0.5473065376281738
15,717,-0.22942744195461273,-0.1896226555109024,-0.22377926111221313,-0.5477100014686584
15,718,-0.23004285991191864,-0.1907625049352646,-0.22366350889205933,-0.548474133014679
15,719,-0.23066554963588715,-0.19171085953712463,-0.22459568083286285,-0.5496227741241455
15,720,-0.23001186549663544,-0.19298264384269714,-0.2238418012857437,-0.5501787662506104
15,721,-0.23000112175941467,-0.19464603066444397,-0.2231082171201706,-0.5504767894744873
15,722,-0.22965584695339203,-0.1945195496082306,-0.22272373735904694,-0.5518980622291565
15,723,-0.2310912162065506,-0.19488073885440826,-0.22151106595993042,-0.5520675182342529
15,724,-0.23095913231372833,-0.19353190064430237,-0.2228853553533554,-0.5522199273109436
15,725,-0.23237846791744232,-0.19369174540042877,-0.22258207201957703,-0.5525006055831909
15,726,-0.23280057311058044,-0.19445274770259857,-0.22253760695457458,-0.5528004765510559
15,727,-0.233474463224411,-0.19612988829612732,-0.22178590297698975,-0.5530860424041748
15,728,-0.2330888956785202,-0.19561181962490082,-0.22253653407096863,-0.5532785654067993
15,729,-0.23257465660572052,-0.19553840160369873,-0.22155581414699554,-0.5537889003753662
15,730,-0.23221355676651,-0.19513124227523804,-0.22323095798492432,-0.5547680854797363
15,731,-0.23277977108955383,-0.19517837464809418,-0.2243572175502777,-0.5561512112617493
15,732,-0.2326960563659668,-0.1944034844636917,-0.22290201485157013,-0.556329607963562
15,733,-0.23312605917453766,-0.19286178052425385,-0.22425469756126404,-0.5567576885223389
15,734,-0.23430633544921875,-0.1927558034658432,-0.2240157574415207,-0.5571491122245789
16,735,-0.23511777818202972,-0.19202286005020142,-0.22442002594470978,-0.5574374198913574
16,736,-0.23595498502254486,-0.19299951195716858,-0.22382447123527527,-0.5577788352966309
16,737,-0.23701900243759155,-0.19279973208904266,-0.22535641491413116,-0.5580708384513855
16,738,-0.23626938462257385,-0.19305887818336487,-0.22657814621925354,-0.5584830641746521
16,739,-0.23453214764595032,-0.19290508329868317,-0.22645457088947296,-0.5587621331214905
16,740,-0.23379409313201904,-0.19083760678768158,-0.22759880125522614,-0.5592005252838135
16,741,-0.23226851224899292,-0.1917814165353775,-0.22814950346946716,-0.5595974326133728
16,742,-0.23260633647441864,-0.19207452237606049,-0.22690130770206451,-0.5601458549499512
16,743,-0.23339784145355225,-0.19336071610450745,-0.22739310562610626,-0.5604491829872131
16,744,-0.23293378949165344,-0.19331969320774078,-0.22696806490421295,-0.5609301924705505
16,745,-0.23318389058113098,-0.19406487047672272,-0.22572219371795654,-0.5616414546966553
16,746,-0.23219215869903564,-0.19401191174983978,-0.22534900903701782,-0.5619339346885681
16,747,-0.23215249180793762,-0.19447219371795654,-0.22569146752357483,-0.5622804164886475
16,748,-0.23301388323307037,-0.19272831082344055,-0.22691640257835388,-0.562523365020752
16,749,-0.2333047091960907,-0.19310499727725983,-0.2265598326921463,-0.5627447962760925
16,750,-0.2328118085861206,-0.19285687804222107,-0.22662736475467682,-0.5634669661521912
16,751,-0.2326710820198059,-0.19301973283290863,-0.22595468163490295,-0.5638119578361511
16,752,-0.23440483212471008,-0.1916092485189438,-0.22457954287528992,-0.5639011859893799
16,753,-0.23393762111663818,-0.1906098872423172,-0.22414596378803253,-0.5641928315162659
16,754,-0.2327510118484497,-0.19090032577514648,-0.22419334948062897,-0.564570426940918
16,755,-0.2320241630077362,-0.19101114571094513,-0.22484923899173737,-0.5651760697364807
16,756,-0.23169942200183868,-0.19183215498924255,-0.22678256034851074,-0.5657147765159607
16,757,-0.23294180631637573,-0.19323378801345825,-0.22735713422298431,-0.5664940476417542
16,758,-0.23385293781757355,-0.19289059937000275,-0.2279905080795288,-0.5671878457069397
16,759,-0.23263929784297943,-0.19393695890903473,-0.230874165892601,-0.5673945546150208
16,760,-0.2325984537601471,-0.19380858540534973,-0.23038221895694733,-0.567719578742981
16,761,-0.23278898000717163,-0.19369852542877197,-0.23091906309127808,-0.5684356689453125
16,762,-0.23275049030780792,-0.19304335117340088,-0.23147569596767426,-0.568847119808197
16,763,-0.23309005796909332,-0.1914304494857788,-0.23100966215133667,-0.569107174873352
16,764,-0.23188312351703644,-0.19151879847049713,-0.23085632920265198,-0.5695843696594238
16,765,-0.2336011528968811,-0.19395725429058075,-0.23119677603244781,-0.5702691674232483
16,766,-0.2317732572555542,-0.19266143441200256,-0.2316104769706726,-0.571242094039917
16,767,-0.23295441269874573,-0.19210687279701233,-0.23046453297138214,-0.5715850591659546
16,768,-0.2343338578939438,-0.19276992976665497,-0.23166827857494354,-0.5720535516738892
16,769,-0.23539429903030396,-0.19313178956508636,-0.2319054901599884,-0.5724185705184937
16,770,-0.23598705232143402,-0.19414761662483215,-0.2310190200805664,-0.573019802570343
16,771,-0.23600775003433228,-0.1940610110759735,-0.23121517896652222,-0.5733245611190796
16,772,-0.23594851791858673,-0.19457584619522095,-0.23150534927845,-0.5737281441688538
16,773,-0.23615412414073944,-0.19444634020328522,-0.23138447105884552,-0.5740277171134949
16,774,-0.23605558276176453,-0.1947527527809143,-0.23167291283607483,-0.5743151307106018
16,775,-0.2375442385673523,-0.19479133188724518,-0.23280154168605804,-0.5752211809158325
16,776,-0.23718766868114471,-0.19434934854507446,-0.231453537940979,-0.5755227208137512
16,777,-0.23749376833438873,-0.1944292187690735,-0.23188163340091705,-0.5759823322296143
16,778,-0.23623907566070557,-0.19412760436534882,-0.23242154717445374,-0.5764110088348389
16,779,-0.2358248084783554,-0.19291213154792786,-0.23189949989318848,-0.5769280791282654
16,780,-0.23511843383312225,-0.19335979223251343,-0.2332470417022705,-0.5774927139282227
16,781,-0.23569214344024658,-0.19376860558986664,-0.23402108252048492,-0.5791518688201904
16,782,-0.23472753167152405,-0.19400639832019806,-0.23339968919754028,-0.5793286561965942
16,783,-0.23423410952091217,-0.19459179043769836,-0.2339233160018921,-0.5795965194702148
17,784,-0.23304669559001923,-0.19415165483951569,-0.23508906364440918,-0.5798866748809814
17,785,-0.23373273015022278,-0.19406020641326904,-0.2341345101594925,-0.5801646709442139
17,786,-0.23499751091003418,-0.1940227746963501,-0.23449836671352386,-0.5803676247596741
17,787,-0.23402445018291473,-0.1941710114479065,-0.23571477830410004,-0.581739604473114
17,788,-0.2359296679496765,-0.1958112120628357,-0.23602229356765747,-0.5819128155708313
17,789,-0.23487456142902374,-0.19515138864517212,-0.23725998401641846,-0.5820277333259583
17,790,-0.23469506204128265,-0.19607064127922058,-0.2352396696805954,-0.5822169184684753
17,791,-0.23615452647209167,-0.19687069952487946,-0.23508498072624207,-0.5827854871749878
17,792,-0.23584574460983276,-0.1957044005393982,-0.23593267798423767,-0.5831125974655151
17,793,-0.23512515425682068,-0.19605164229869843,-0.2369457334280014,-0.583691418170929
17,794,-0.2353391796350479,-0.19689114391803741,-0.23681345582008362,-0.5842631459236145
17,795,-0.23437078297138214,-0.19678834080696106,-0.23776698112487793,-0.5844625234603882
17,796,-0.23403076827526093,-0.19803321361541748,-0.2367924302816391,-0.5846184492111206
17,797,-0.23501601815223694,-0.1983090490102768,-0.23703442513942719,-0.5849834084510803
17,798,-0.23531289398670197,-0.19782696664333344,-0.23692066967487335,-0.5851849913597107
17,799,-0.23446646332740784,-0.1997414231300354,-0.23732003569602966,-0.5853836536407471
17,800,-0.23311324417591095,-0.19988860189914703,-0.23903468251228333,-0.5857574343681335
17,801,-0.23383045196533203,-0.1987733095884323,-0.23887670040130615,-0.58611661195755
17,802,-0.23536477982997894,-0.19782958924770355,-0.2387957125902176,-0.586430013179779
17,803,-0.23419849574565887,-0.19775529205799103,-0.23911058902740479,-0.5866365432739258
17,804,-0.23290486633777618,-0.19663673639297485,-0.2413308322429657,-0.5868719816207886
17,805,-0.23153524100780487,-0.19699305295944214,-0.24034589529037476,-0.5870975255966187
17,806,-0.23128242790699005,-0.1972460150718689,-0.2413208782672882,-0.5873685479164124
17,807,-0.23047514259815216,-0.19667385518550873,-0.23997549712657928,-0.5875884890556335
17,808,-0.23236878216266632,-0.19801005721092224,-0.23888859152793884,-0.5879897475242615
17,809,-0.23269855976104736,-0.19793382287025452,-0.23836860060691833,-0.5882558226585388
17,810,-0.23306041955947876,-0.1985386312007904,-0.23869991302490234,-0.5885431170463562
17,811,-0.2331811785697937,-0.19883622229099274,-0.23870594799518585,-0.5889183282852173
17,812,-0.23449185490608215,-0.20024873316287994,-0.23858073353767395,-0.5891137719154358
17,813,-0.2358912080526352,-0.19881759583950043,-0.23878352344036102,-0.5893514752388
17,814,-0.23639239370822906,-0.19955499470233917,-0.23746280372142792,-0.589933454990387
17,815,-0.23611465096473694,-0.19841693341732025,-0.2374611645936966,-0.5903826355934143
17,816,-0.2355370819568634,-0.19858990609645844,-0.23621413111686707,-0.5907801389694214
17,817,-0.23583132028579712,-0.1993427276611328,-0.23533979058265686,-0.5912660956382751
17,818,-0.2373521476984024,-0.1995871514081955,-0.23646250367164612,-0.591789186000824
17,819,-0.2378837913274765,-0.20049503445625305,-0.23553963005542755,-0.5925047993659973
17,820,-0.239251971244812,-0.20059557259082794,-0.23543961346149445,-0.5927396416664124
17,821,-0.23820489645004272,-0.2015025019645691,-0.2361934930086136,-0.5930433869361877
17,822,-0.23727449774742126,-0.20129963755607605,-0.23548828065395355,-0.5944700837135315
17,823,-0.23793603479862213,-0.20159019529819489,-0.23450051248073578,-0.5946944355964661
17,824,-0.23873429000377655,-0.20110420882701874,-0.23378662765026093,-0.594883382320404
17,825,-0.23931404948234558,-0.2006688117980957,-0.23310157656669617,-0.5953257083892822
17,826,-0.23879416286945343,-0.2008603811264038,-0.23182104527950287,-0.5958276987075806
17,827,-0.2385648638010025,-0.20191888511180878,-0.2337380051612854,-0.5959986448287964
17,828,-0.23802949488162994,-0.20169351994991302,-0.23432697355747223,-0.5967260599136353
17,829,-0.23745936155319214,-0.2034023404121399,-0.23473381996154785,-0.5974367260932922
17,830,-0.23820413649082184,-0.2023676484823227,-0.23626580834388733,-0.5976750254631042
17,831,-0.23818476498126984,-0.2026306390762329,-0.2342076450586319,-0.5983143448829651
17,832,-0.2382906675338745,-0.2047925889492035,-0.23372218012809753,-0.5988017916679382
18,833,-0.23827603459358215,-0.20420025289058685,-0.2337493896484375,-0.5990158319473267
18,834,-0.23823940753936768,-0.20307108759880066,-0.23498322069644928,-0.599486768245697
18,835,-0.23892976343631744,-0.2039995640516281,-0.23429059982299805,-0.5998049378395081
18,836,-0.24021154642105103,-0.20407319068908691,-0.23582343757152557,-0.6000145077705383
18,837,-0.23935531079769135,-0.20408064126968384,-0.23552434146404266,-0.6002014875411987
18,838,-0.23952609300613403,-0.20400772988796234,-0.2354283332824707,-0.6004604697227478
18,839,-0.2391778975725174,-0.20359404385089874,-0.23521478474140167,-0.6009342670440674
18,840,-0.23851904273033142,-0.20484775304794312,-0.23625794053077698,-0.6013001203536987
18,841,-0.23912009596824646,-0.20541609823703766,-0.23550231754779816,-0.6015017032623291
18,842,-0.23926346004009247,-0.20464108884334564,-0.2353787124156952,-0.6018537878990173
18,843,-0.23902708292007446,-0.20549117028713226,-0.23545590043067932,-0.6023358106613159
18,844,-0.23936697840690613,-0.20621700584888458,-0.23629584908485413,-0.6026246547698975
18,845,-0.23898962140083313,-0.2056557983160019,-0.235606387257576,-0.602745532989502
18,846,-0.23961055278778076,-0.2060646116733551,-0.2358076572418213,-0.603150486946106
18,847,-0.24021929502487183,-0.20565344393253326,-0.23499733209609985,-0.6034389138221741
18,848,-0.24047094583511353,-0.20487888157367706,-0.2356438934803009,-0.6039448976516724
18,849,-0.24190498888492584,-0.20479153096675873,-0.23513491451740265,-0.6042845249176025
18,850,-0.24296443164348602,-0.203924760222435,-0.23475660383701324,-0.6050168871879578
18,851,-0.24189169704914093,-0.2054876983165741,-0.2356131672859192,-0.605553150177002
18,852,-0.24140407145023346,-0.20556043088436127,-0.23417973518371582,-0.6060323715209961
18,853,-0.24166497588157654,-0.20656022429466248,-0.23398558795452118,-0.6064444184303284
18,854,-0.24254587292671204,-0.20812034606933594,-0.23549886047840118,-0.6067085266113281
18,855,-0.24163374304771423,-0.20807628333568573,-0.23475992679595947,-0.6076674461364746
18,856,-0.24238474667072296,-0.2078443318605423,-0.2352684587240219,-0.6079384088516235
18,857,-0.24352633953094482,-0.20822876691818237,-0.23507161438465118,-0.6082133650779724
18,858,-0.2432846575975418,-0.20880553126335144,-0.23463445901870728,-0.6086018085479736
18,859,-0.24320746958255768,-0.20918488502502441,-0.23606273531913757,-0.6090677380561829
18,860,-0.24479728937149048,-0.20820729434490204,-0.23572902381420135,-0.6091678738594055
18,861,-0.24501362442970276,-0.2080439031124115,-0.2366994321346283,-0.6096060872077942
18,862,-0.2440711408853531,-0.20840822160243988,-0.23701652884483337,-0.6100323796272278
18,863,-0.2448606938123703,-0.2088485211133957,-0.23566953837871552,-0.6103073358535767
18,864,-0.2444969266653061,-0.21045738458633423,-0.23548878729343414,-0.6107187867164612
18,865,-0.24453753232955933,-0.20869560539722443,-0.23484742641448975,-0.6111034750938416
18,866,-0.24437697231769562,-0.2099321186542511,-0.23391881585121155,-0.6112932562828064
18,867,-0.24392439424991608,-0.20963798463344574,-0.23439471423625946,-0.6117287278175354
18,868,-0.24364158511161804,-0.2092408686876297,-0.23489686846733093,-0.6119239926338196
18,869,-0.24471071362495422,-0.20886382460594177,-0.23664620518684387,-0.6122627854347229
18,870,-0.2448044866323471,-0.2103889435529709,-0.23534083366394043,-0.6124584078788757
18,871,-0.24548667669296265,-0.2101914882659912,-0.23658479750156403,-0.6126729249954224
18,872,-0.2454727739095688,-0.21124714612960815,-0.23635528981685638,-0.6129667162895203
18,873,-0.24579568207263947,-0.21104955673217773,-0.23686733841896057,-0.613152265548706
18,874,-0.2432052344083786,-0.21218442916870117,-0.2395591139793396,-0.6133085489273071
18,875,-0.24424630403518677,-0.21307800710201263,-0.24028167128562927,-0.6138297915458679
18,876,-0.24450616538524628,-0.21376745402812958,-0.2393040806055069,-0.6142892837524414
18,877,-0.24398218095302582,-0.21384625136852264,-0.2400277554988861,-0.6145743727684021
18,878,-0.24491025507450104,-0.21289904415607452,-0.2391035258769989,-0.61503005027771
18,879,-0.24554327130317688,-0.21431520581245422,-0.23786382377147675,-0.6154347062110901
18,880,-0.2458069622516632,-0.21517813205718994,-0.2380329817533493,-0.6156991720199585
18,881,-0.2453368902206421,-0.2149643450975418,-0.23842328786849976,-0.615841269493103
19,882,-0.24541109800338745,-0.213472381234169,-0.2375756800174713,-0.6160492897033691
19,883,-0.2449106127023697,-0.21488915383815765,-0.23819853365421295,-0.6164007186889648
19,884,-0.24462664127349854,-0.21477515995502472,-0.23898936808109283,-0.6165575981140137
19,885,-0.24448205530643463,-0.21490077674388885,-0.23852412402629852,-0.6169474124908447
19,886,-0.24481786787509918,-0.21320301294326782,-0.2387433648109436,-0.6173232197761536
19,887,-0.24592828750610352,-0.21299345791339874,-0.23914742469787598,-0.6177599430084229
19,888,-0.24582529067993164,-0.21298855543136597,-0.2399882674217224,-0.6179492473602295
19,889,-0.246479332447052,-0.21335630118846893,-0.23986276984214783,-0.6187902092933655
19,890,-0.24613630771636963,-0.21255698800086975,-0.23947499692440033,-0.6194209456443787
19,891,-0.24534718692302704,-0.21187198162078857,-0.23910681903362274,-0.6197071671485901
19,892,-0.24514281749725342,-0.21416735649108887,-0.2402985692024231,-0.620833694934845
19,893,-0.24527552723884583,-0.21616043150424957,-0.23951835930347443,-0.6210750937461853
19,894,-0.24634325504302979,-0.21477872133255005,-0.2392198145389557,-0.6215221285820007
19,895,-0.24723190069198608,-0.21373431384563446,-0.24116282165050507,-0.6227890849113464
19,896,-0.2471114546060562,-0.2132882922887802,-0.23968365788459778,-0.6229193210601807
19,897,-0.2470596879720688,-0.21276897192001343,-0.23843303322792053,-0.6232174634933472
19,898,-0.2477225959300995,-0.21265213191509247,-0.23893927037715912,-0.6233895421028137
19,899,-0.24745318293571472,-0.21343232691287994,-0.23868496716022491,-0.623572826385498
19,900,-0.24730731546878815,-0.21371793746948242,-0.23781433701515198,-0.6238880753517151
19,901,-0.24713583290576935,-0.21355180442333221,-0.23781512677669525,-0.6240877509117126
19,902,-0.24766503274440765,-0.2148493379354477,-0.23810476064682007,-0.6244364976882935
19,903,-0.24799507856369019,-0.21387194097042084,-0.23740027844905853,-0.6246576905250549
19,904,-0.24909740686416626,-0.21387746930122375,-0.2363373190164566,-0.6248465180397034
19,905,-0.248524010181427,-0.2151421457529068,-0.23567190766334534,-0.6252337098121643
19,906,-0.24909357726573944,-0.21419863402843475,-0.23677536845207214,-0.6253835558891296
19,907,-0.2477961778640747,-0.21352073550224304,-0.23802275955677032,-0.6262826919555664
19,908,-0.24887904524803162,-0.21400471031665802,-0.237379252910614,-0.6278195381164551
19,909,-0.24924935400485992,-0.21484465897083282,-0.236440971493721,-0.6279998421669006
19,910,-0.24995888769626617,-0.21478159725666046,-0.23718149960041046,-0.6280364990234375
19,911,-0.2505539655685425,-0.21506907045841217,-0.23707349598407745,-0.6286326050758362
19,912,-0.2504614591598511,-0.21613644063472748,-0.23859499394893646,-0.6287452578544617
19,913,-0.25099796056747437,-0.21630725264549255,-0.23934873938560486,-0.6289350390434265
19,914,-0.25247722864151,-0.21627767384052277,-0.23873049020767212,-0.6292002201080322
19,915,-0.25201454758644104,-0.21776098012924194,-0.23863065242767334,-0.6295328736305237
19,916,-0.25218817591667175,-0.21910396218299866,-0.2382265031337738,-0.629679799079895
19,917,-0.25092267990112305,-0.21783608198165894,-0.23967762291431427,-0.6300491690635681
19,918,-0.25162050127983093,-0.21815544366836548,-0.2415488362312317,-0.6302623748779297
19,919,-0.25192275643348694,-0.2172911912202835,-0.241952046751976,-0.630488932132721
19,920,-0.25155016779899597,-0.2174748182296753,-0.24373529851436615,-0.6307148337364197
19,921,-0.2503092885017395,-0.21779009699821472,-0.24449250102043152,-0.6308315992355347
19,922,-0.25087106227874756,-0.2180156409740448,-0.2428840547800064,-0.6310349106788635
19,923,-0.2507654130458832,-0.21803061664104462,-0.24194929003715515,-0.6312506198883057
19,924,-0.25105389952659607,-0.2192181795835495,-0.24188357591629028,-0.6313382387161255
19,925,-0.25241875648498535,-0.21996751427650452,-0.24089306592941284,-0.6316795945167542
19,926,-0.25179001688957214,-0.2209538370370865,-0.24053630232810974,-0.6324480772018433
19,927,-0.2523763179779053,-0.22286194562911987,-0.24073439836502075,-0.6325451135635376
19,928,-0.25130170583724976,-0.22221937775611877,-0.2421867996454239,-0.632851243019104
19,929,-0.25033822655677795,-0.22201701998710632,-0.2420935183763504,-0.6329982876777649
19,930,-0.25222739577293396,-0.22420522570610046,-0.24170053005218506,-0.6338285803794861
20,931,-0.25206872820854187,-0.22499024868011475,-0.2428765743970871,-0.6366499066352844
20,932,-0.2525831162929535,-0.22552382946014404,-0.24338801205158234,-0.6366611123085022
20,933,-0.25186899304389954,-0.2270897626876831,-0.24279391765594482,-0.6367678642272949
20,934,-0.252025306224823,-0.22717870771884918,-0.2438744455575943,-0.6368345022201538
20,935,-0.2527313530445099,-0.22762295603752136,-0.24443551898002625,-0.636902928352356
20,936,-0.2532634139060974,-0.22741807997226715,-0.24572311341762543,-0.6369451284408569
20,937,-0.25353559851646423,-0.2271217554807663,-0.2456955462694168,-0.6369834542274475
20,938,-0.2546165883541107,-0.22747744619846344,-0.24395489692687988,-0.6370180249214172
20,939,-0.2551971971988678,-0.22659161686897278,-0.24406272172927856,-0.6370545625686646
20,940,-0.2547919750213623,-0.22567380964756012,-0.24541734158992767,-0.6370998024940491
20,941,-0.25491827726364136,-0.22716476023197174,-0.24569691717624664,-0.6371551156044006
20,942,-0.25409385561943054,-0.2278130203485489,-0.24469096958637238,-0.637202262878418
20,943,-0.25286155939102173,-0.22874194383621216,-0.24493913352489471,-0.637265682220459
20,944,-0.2542736530303955,-0.23000051081180573,-0.24543388187885284,-0.6374721527099609
20,945,-0.25337275862693787,-0.23023495078086853,-0.2460673600435257,-0.6375294327735901
20,946,-0.25222262740135193,-0.22901298105716705,-0.24505828320980072,-0.6376063227653503
20,947,-0.251470685005188,-0.22921313345432281,-0.2460053712129593,-0.637664258480072
20,948,-0.25186511874198914,-0.22946183383464813,-0.2450496256351471,-0.6378176212310791
20,949,-0.2527424991130829,-0.22980494797229767,-0.24411335587501526,-0.638019859790802
20,950,-0.2540983259677887,-0.2312455177307129,-0.24373136460781097,-0.6380600929260254
20,951,-0.25503674149513245,-0.2320234328508377,-0.24480608105659485,-0.6381033658981323
20,952,-0.2537538707256317,-0.23337697982788086,-0.24535465240478516,-0.6381583213806152
20,953,-0.2543871998786926,-0.23407861590385437,-0.24423204362392426,-0.6383928656578064
20,954,-0.25522059202194214,-0.23315684497356415,-0.24605734646320343,-0.6384626626968384
20,955,-0.2540750205516815,-0.23266316950321198,-0.24548786878585815,-0.6384912729263306
20,956,-0.25475049018859863,-0.23217475414276123,-0.24615633487701416,-0.6387338638305664
20,957,-0.25524500012397766,-0.2323002964258194,-0.2451469451189041,-0.6393745541572571
20,958,-0.2546842098236084,-0.23078511655330658,-0.24526868760585785,-0.6395161747932434
20,959,-0.2549832761287689,-0.23219946026802063,-0.24498045444488525,-0.6395529508590698
20,960,-0.2553618252277374,-0.23146189749240875,-0.2448524832725525,-0.6396359801292419
20,961,-0.25619032979011536,-0.23116670548915863,-0.24454522132873535,-0.6400603652000427
20,962,-0.25565415620803833,-0.23160496354103088,-0.24510781466960907,-0.6401679515838623
20,963,-0.2553045153617859,-0.2321045994758606,-0.24758733808994293,-0.6402230262756348
20,964,-0.2563457489013672,-0.23189163208007812,-0.2484186440706253,-0.6405165791511536
20,965,-0.2566080689430237,-0.23308685421943665,-0.2499547153711319,-0.641145646572113
20,966,-0.2562611699104309,-0.23445050418376923,-0.24923819303512573,-0.6413009166717529
20,967,-0.2553410232067108,-0.2335110604763031,-0.2503852844238281,-0.6416099071502686
20,968,-0.2568129301071167,-0.23442280292510986,-0.25089165568351746,-0.6416935324668884
20,969,-0.2575719356536865,-0.23500794172286987,-0.25007364153862,-0.6418676376342773
20,970,-0.2565641403198242,-0.23558859527111053,-0.24999292194843292,-0.6420602798461914
20,971,-0.2563849091529846,-0.23583875596523285,-0.24859346449375153,-0.6423978805541992
20,972,-0.2579880654811859,-0.23514403402805328,-0.24810464680194855,-0.6428126096725464
20,973,-0.2574899196624756,-0.2346922755241394,-0.2479207068681717,-0.6428641080856323
20,974,-0.25616833567619324,-0.23436574637889862,-0.24965427815914154,-0.6429359912872314
20,975,-0.25725826621055603,-0.2349359095096588,-0.2493417114019394,-0.6430663466453552
20,976,-0.25715625286102295,-0.2349798083305359,-0.24907337129116058,-0.6432616114616394
20,977,-0.2576322555541992,-0.2364056259393692,-0.24811579287052155,-0.6433641314506531
20,978,-0.2582518458366394,-0.2370673567056656,-0.24745897948741913,-0.6435183882713318
20,979,-0.25777575373649597,-0.23582281172275543,-0.2485630065202713,-0.64377760887146
21,980,-0.25642481446266174,-0.23543164134025574,-0.24731412529945374,-0.6439517140388489
21,981,-0.25659680366516113,-0.23745617270469666,-0.24768930673599243,-0.6441459059715271
21,982,-0.2573434114456177,-0.23807238042354584,-0.24619129300117493,-0.6442339420318604
21,983,-0.25813132524490356,-0.23887260258197784,-0.24678274989128113,-0.6444356441497803
21,984,-0.2596159875392914,-0.2378654181957245,-0.24785754084587097,-0.6445744633674622
21,985,-0.26052090525627136,-0.23899100720882416,-0.24791385233402252,-0.644871175289154
21,986,-0.2610636353492737,-0.2388622760772705,-0.24806314706802368,-0.6450051069259644
21,987,-0.262241005897522,-0.23808403313159943,-0.2483142763376236,-0.645139753818512
21,988,-0.26131078600883484,-0.23759829998016357,-0.2492329329252243,-0.6452122330665588
21,989,-0.2604183256626129,-0.23824165761470795,-0.25112098455429077,-0.6453408598899841
21,990,-0.25983360409736633,-0.2395581156015396,-0.2513538599014282,-0.6454451680183411
21,991,-0.25940558314323425,-0.23937633633613586,-0.2515961825847626,-0.6455714702606201
21,992,-0.25966715812683105,-0.23984652757644653,-0.25088047981262207,-0.6458461880683899
21,993,-0.2594297230243683,-0.23949500918388367,-0.2509276568889618,-0.6459638476371765
21,994,-0.2602633833885193,-0.240011066198349,-0.2507655918598175,-0.6462381482124329
21,995,-0.2591145634651184,-0.23814283311367035,-0.25170275568962097,-0.6464856863021851
21,996,-0.25940409302711487,-0.23759974539279938,-0.2527238130569458,-0.6470134854316711
21,997,-0.26121777296066284,-0.2387191206216812,-0.25135162472724915,-0.6470731496810913
21,998,-0.2625372111797333,-0.2390543818473816,-0.2516140043735504,-0.6473686099052429
21,999,-0.26137298345565796,-0.23963694274425507,-0.2537892162799835,-0.6475593447685242
21,1000,-0.2620476186275482,-0.24107888340950012,-0.25398680567741394,-0.6479498147964478
21,1001,-0.26129642128944397,-0.24349869787693024,-0.2540760636329651,-0.6481577157974243
21,1002,-0.26282036304473877,-0.24470020830631256,-0.254471093416214,-0.6485847234725952
21,1003,-0.2619619369506836,-0.2453884333372116,-0.25413617491722107,-0.6487324237823486
21,1004,-0.26118430495262146,-0.24487672746181488,-0.2536734342575073,-0.6488881707191467
21,1005,-0.2623142898082733,-0.24487344920635223,-0.2546258866786957,-0.6489971280097961
21,1006,-0.2624736726284027,-0.24489013850688934,-0.2537190318107605,-0.6502143740653992
21,1007,-0.2626473307609558,-0.24553553760051727,-0.2520267069339752,-0.6505329608917236
21,1008,-0.26060861349105835,-0.24565015733242035,-0.25309672951698303,-0.6513856053352356
21,1009,-0.2605383098125458,-0.24679520726203918,-0.25396573543548584,-0.6516576409339905
21,1010,-0.2610200047492981,-0.24584642052650452,-0.25370103120803833,-0.6519774198532104
21,1011,-0.26206761598587036,-0.2449726164340973,-0.2526893615722656,-0.652146577835083
21,1012,-0.2624424993991852,-0.24452662467956543,-0.25384488701820374,-0.6524558663368225
21,1013,-0.26219722628593445,-0.24617193639278412,-0.2537587285041809,-0.653091549873352
21,1014,-0.2613426446914673,-0.24675004184246063,-0.2541255056858063,-0.6538547873497009
21,1015,-0.26202866435050964,-0.2475903183221817,-0.2556779086589813,-0.6544432044029236
21,1016,-0.2624610364437103,-0.2488866001367569,-0.2549498677253723,-0.6545810103416443
21,1017,-0.2628762423992157,-0.24885158240795135,-0.25567030906677246,-0.6546927690505981
21,1018,-0.2629847228527069,-0.24823153018951416,-0.25624024868011475,-0.6550631523132324
21,1019,-0.2631881833076477,-0.2469371259212494,-0.25596585869789124,-0.6557008028030396
21,1020,-0.26340344548225403,-0.2458781749010086,-0.2551617920398712,-0.6560455560684204
21,1021,-0.2627244293689728,-0.24741868674755096,-0.2537127435207367,-0.6566155552864075
21,1022,-0.2605683207511902,-0.24654175341129303,-0.2530972957611084,-0.6569808721542358
21,1023,-0.26037999987602234,-0.24703161418437958,-0.253252774477005,-0.6575307250022888
21,1024,-0.2618784010410309,-0.2452802062034607,-0.25473475456237793,-0.6583409309387207
21,1025,-0.26211318373680115,-0.24536170065402985,-0.25562775135040283,-0.6586004495620728
21,1026,-0.2624872624874115,-0.2471611499786377,-0.2553902268409729,-0.658925473690033
21,1027,-0.262958288192749,-0.2468036562204361,-0.2574978172779083,-0.6593427062034607
21,1028,-0.2618692219257355,-0.24588391184806824,-0.2575376629829407,-0.6600640416145325
22,1029,-0.26065415143966675,-0.24502971768379211,-0.2558627724647522,-0.6603613495826721
22,1030,-0.26153746247291565,-0.24440345168113708,-0.25567758083343506,-0.6605556607246399
22,1031,-0.25998347997665405,-0.2444976419210434,-0.2546718120574951,-0.6609588861465454
22,1032,-0.2606264054775238,-0.2443844974040985,-0.2556198835372925,-0.6612254977226257
22,1033,-0.25957828760147095,-0.24563272297382355,-0.25593847036361694,-0.661537230014801
22,1034,-0.26006433367729187,-0.2468433678150177,-0.25559383630752563,-0.6618267297744751
22,1035,-0.2603614032268524,-0.2460305392742157,-0.25518837571144104,-0.6620662808418274
22,1036,-0.26112374663352966,-0.2459576427936554,-0.25516149401664734,-0.6625185012817383
22,1037,-0.2606278359889984,-0.24600814282894135,-0.253558486700058,-0.6630438566207886
22,1038,-0.26062682271003723,-0.24517643451690674,-0.25298383831977844,-0.6637181639671326
22,1039,-0.2597709894180298,-0.24594493210315704,-0.2537015378475189,-0.6639363169670105
22,1040,-0.2592894732952118,-0.24700559675693512,-0.25294655561447144,-0.6644647717475891
22,1041,-0.26045113801956177,-0.24687352776527405,-0.2542601525783539,-0.6649185419082642
22,1042,-0.2603163719177246,-0.24858273565769196,-0.25550487637519836,-0.6656543016433716
22,1043,-0.2606874406337738,-0.24821054935455322,-0.25530844926834106,-0.6662216782569885
22,1044,-0.26117581129074097,-0.24797174334526062,-0.2554309666156769,-0.6670210361480713
22,1045,-0.26093733310699463,-0.2483053058385849,-0.25428247451782227,-0.667914867401123
22,1046,-0.26177316904067993,-0.24820904433727264,-0.25447407364845276,-0.6684691905975342
22,1047,-0.26083412766456604,-0.2476871758699417,-0.25627401471138,-0.6688283681869507
22,1048,-0.26194241642951965,-0.24718625843524933,-0.2573583424091339,-0.6694600582122803
22,1049,-0.26117751002311707,-0.24735338985919952,-0.25680363178253174,-0.6702131032943726
22,1050,-0.262875497341156,-0.24745887517929077,-0.25525328516960144,-0.6702904105186462
22,1051,-0.26376044750213623,-0.2483825534582138,-0.2566995620727539,-0.671501100063324
22,1052,-0.26284947991371155,-0.24724410474300385,-0.25635093450546265,-0.6718683838844299
22,1053,-0.2616975009441376,-0.2489737868309021,-0.2559736669063568,-0.6720967292785645
22,1054,-0.2618041932582855,-0.24967610836029053,-0.257999449968338,-0.6727162599563599
22,1055,-0.26094740629196167,-0.24874836206436157,-0.25930511951446533,-0.6730016469955444
22,1056,-0.2615906894207001,-0.24831432104110718,-0.2592247724533081,-0.6741259098052979
22,1057,-0.26194870471954346,-0.24866990745067596,-0.2599603533744812,-0.6744568347930908
22,1058,-0.2618410885334015,-0.24736575782299042,-0.25926780700683594,-0.6747267246246338
22,1059,-0.26213088631629944,-0.24742691218852997,-0.25909215211868286,-0.675398051738739
22,1060,-0.26191580295562744,-0.24654939770698547,-0.25899800658226013,-0.6756644248962402
22,1061,-0.26208773255348206,-0.24610626697540283,-0.26068833470344543,-0.6759393811225891
22,1062,-0.26129013299942017,-0.24514447152614594,-0.2615198791027069,-0.6764265894889832
22,1063,-0.261035293340683,-0.2458806037902832,-0.26089778542518616,-0.6767831444740295
22,1064,-0.26126962900161743,-0.24810637533664703,-0.26067686080932617,-0.6772664785385132
22,1065,-0.26207655668258667,-0.24833710491657257,-0.2611187994480133,-0.6776611804962158
22,1066,-0.26160746812820435,-0.24648822844028473,-0.2590238153934479,-0.6785768270492554
22,1067,-0.2623837888240814,-0.24725453555583954,-0.2579349875450134,-0.6787123680114746
22,1068,-0.2621629238128662,-0.24726979434490204,-0.2566829323768616,-0.6791780591011047
22,1069,-0.26221412420272827,-0.24642466008663177,-0.2555103600025177,-0.679564893245697
22,1070,-0.2624896764755249,-0.24782194197177887,-0.25487515330314636,-0.6799300909042358
22,1071,-0.2634202837944031,-0.24735325574874878,-0.2537878155708313,-0.6803722381591797
22,1072,-0.26257115602493286,-0.2469068169593811,-0.25275781750679016,-0.6812556982040405
22,1073,-0.26240211725234985,-0.24719393253326416,-0.2523420751094818,-0.6817497611045837
22,1074,-0.26162636280059814,-0.2479071021080017,-0.25168389081954956,-0.6822690963745117
22,1075,-0.262096643447876,-0.24650932848453522,-0.25023379921913147,-0.6831008195877075
22,1076,-0.26336368918418884,-0.24678237736225128,-0.24943086504936218,-0.683545708656311
22,1077,-0.2632822096347809,-0.2480493187904358,-0.24850952625274658,-0.6839879155158997
23,1078,-0.2618197500705719,-0.2484714388847351,-0.24878181517124176,-0.684504508972168
23,1079,-0.26090168952941895,-0.24939237534999847,-0.2485724538564682,-0.6849300265312195
23,1080,-0.26111146807670593,-0.24882248044013977,-0.24885457754135132,-0.6851941347122192
23,1081,-0.26139914989471436,-0.2500205338001251,-0.24927851557731628,-0.6864044666290283
23,1082,-0.2620571255683899,-0.251313716173172,-0.2480422556400299,-0.6872000098228455
23,1083,-0.2624647617340088,-0.2507149875164032,-0.24938426911830902,-0.6873869895935059
23,1084,-0.2641071081161499,-0.2509949207305908,-0.2503547668457031,-0.6878067851066589
23,1085,-0.26497456431388855,-0.25077754259109497,-0.2513637840747833,-0.6886332035064697
23,1086,-0.2658448815345764,-0.2509714365005493,-0.2520044445991516,-0.6888847947120667
23,1087,-0.26601412892341614,-0.25121134519577026,-0.2521548569202423,-0.6896327137947083
23,1088,-0.2658512592315674,-0.2500975728034973,-0.253154456615448,-0.6900078058242798
23,1089,-0.2650032639503479,-0.25149059295654297,-0.2530403435230255,-0.6901466250419617
23,1090,-0.26550641655921936,-0.25272226333618164,-0.2517860233783722,-0.6904681921005249
23,1091,-0.26439493894577026,-0.25345751643180847,-0.25184351205825806,-0.6919419765472412
23,1092,-0.263238787651062,-0.25561749935150146,-0.2524067759513855,-0.6924779415130615
23,1093,-0.264791876077652,-0.25607916712760925,-0.2534272074699402,-0.6927995681762695
23,1094,-0.2675120532512665,-0.2564229667186737,-0.25480741262435913,-0.693036675453186
23,1095,-0.2676912248134613,-0.2551494538784027,-0.2559362053871155,-0.6935290098190308
23,1096,-0.26734256744384766,-0.25480368733406067,-0.2561986744403839,-0.6942178010940552
23,1097,-0.266579270362854,-0.2540578842163086,-0.25769510865211487,-0.6962903141975403
23,1098,-0.26708534359931946,-0.25373372435569763,-0.2592471241950989,-0.6967760324478149
23,1099,-0.26662367582321167,-0.25549644231796265,-0.2589620053768158,-0.6972911357879639
23,1100,-0.2651071548461914,-0.2561831474304199,-0.2595146596431732,-0.6973312497138977
23,1101,-0.26558077335357666,-0.25538191199302673,-0.2593002915382385,-0.6976280808448792
23,1102,-0.2656596899032593,-0.2551540732383728,-0.25857847929000854,-0.6978955268859863
23,1103,-0.2656027376651764,-0.25535130500793457,-0.25968924164772034,-0.6988527178764343
23,1104,-0.26670798659324646,-0.25568321347236633,-0.26103127002716064,-0.6990017294883728
23,1105,-0.26646021008491516,-0.2567838430404663,-0.26231279969215393,-0.6991601586341858
23,1106,-0.26586124300956726,-0.2577238380908966,-0.26354852318763733,-0.6992431282997131
23,1107,-0.2646138072013855,-0.2575233280658722,-0.263545423746109,-0.700203001499176
23,1108,-0.2647787630558014,-0.25865402817726135,-0.2646338939666748,-0.7003620862960815
23,1109,-0.2648998498916626,-0.2599000632762909,-0.2645818293094635,-0.7005804777145386
23,1110,-0.26468244194984436,-0.2609528601169586,-0.26365840435028076,-0.7008002400398254
23,1111,-0.2643532454967499,-0.26107919216156006,-0.26455560326576233,-0.7010482549667358
23,1112,-0.26463082432746887,-0.2609398663043976,-0.26697951555252075,-0.70134037733078
23,1113,-0.2639642357826233,-0.261036217212677,-0.2675279974937439,-0.7019362449645996
23,1114,-0.26489493250846863,-0.26165175437927246,-0.2685738205909729,-0.7027374505996704
23,1115,-0.2647188901901245,-0.2609173655509949,-0.26880598068237305,-0.7032002806663513
23,1116,-0.26487210392951965,-0.2603375315666199,-0.2695099711418152,-0.7035309076309204
23,1117,-0.2641887664794922,-0.26029229164123535,-0.2693136930465698,-0.7037650942802429
23,1118,-0.26524969935417175,-0.261473685503006,-0.27132102847099304,-0.704353392124176
23,1119,-0.2654968202114105,-0.26069313287734985,-0.27100878953933716,-0.7046769261360168
23,1120,-0.2661983072757721,-0.26043856143951416,-0.27028506994247437,-0.7049772143363953
23,1121,-0.26647883653640747,-0.2618047297000885,-0.2705601155757904,-0.705270528793335
23,1122,-0.26675859093666077,-0.26101210713386536,-0.2707599401473999,-0.70538729429245
23,1123,-0.2662453353404999,-0.2605612277984619,-0.2697241008281708,-0.7062607407569885
23,1124,-0.2663017511367798,-0.2623564302921295,-0.2691803574562073,-0.7063078880310059
