Epoch,Batch,lstm_1,lstm_2,dense_1,dense_2
1,1,-0.11031646281480789,-0.10736575722694397,-0.09150567650794983,-0.1315346211194992
1,2,-0.11254819482564926,-0.10425011813640594,-0.09464054554700851,-0.13466259837150574
1,3,-0.1121010035276413,-0.10642210394144058,-0.09761497378349304,-0.13769963383674622
1,4,-0.11207539588212967,-0.1061948910355568,-0.10005935281515121,-0.14026112854480743
1,5,-0.1120208352804184,-0.10626252740621567,-0.10110042244195938,-0.1421683430671692
1,6,-0.11223261058330536,-0.10637116432189941,-0.10257959365844727,-0.14269618690013885
1,7,-0.11201941221952438,-0.10631909221410751,-0.10361341387033463,-0.14333069324493408
1,8,-0.11203674972057343,-0.10641854256391525,-0.10373775660991669,-0.1441611498594284
1,9,-0.11188247799873352,-0.10640086233615875,-0.10459353774785995,-0.14523307979106903
1,10,-0.11185730993747711,-0.10644304007291794,-0.10460535436868668,-0.14599217474460602
1,11,-0.11150448024272919,-0.10643155127763748,-0.10528261214494705,-0.14708301424980164
1,12,-0.11145532131195068,-0.106483593583107,-0.1057494506239891,-0.14834405481815338
1,13,-0.11123644560575485,-0.10645339637994766,-0.10632548481225967,-0.14925161004066467
1,14,-0.11110721528530121,-0.10648559778928757,-0.10520854592323303,-0.1507139503955841
1,15,-0.11069189757108688,-0.10647018998861313,-0.10596282035112381,-0.15211693942546844
1,16,-0.1103871539235115,-0.10647585988044739,-0.10592485964298248,-0.15291376411914825
1,17,-0.1096203625202179,-0.10649653524160385,-0.10696074366569519,-0.15401680767536163
1,18,-0.10959947854280472,-0.10651183873414993,-0.10810671001672745,-0.15535759925842285
1,19,-0.10942619293928146,-0.10652255266904831,-0.10820677876472473,-0.15607763826847076
1,20,-0.10863147675991058,-0.10651849210262299,-0.10820884257555008,-0.15721407532691956
1,21,-0.10804671049118042,-0.10648197680711746,-0.10858875513076782,-0.157928466796875
1,22,-0.10660185664892197,-0.10653676837682724,-0.10773168504238129,-0.1588476449251175
1,23,-0.10614113509654999,-0.10651468485593796,-0.10844189673662186,-0.15955770015716553
1,24,-0.10705552995204926,-0.10659800469875336,-0.10810134559869766,-0.16092625260353088
1,25,-0.10658054798841476,-0.10659555345773697,-0.10856804996728897,-0.1613418608903885
1,26,-0.10556604713201523,-0.10659445077180862,-0.10870467871427536,-0.16218997538089752
1,27,-0.10461601614952087,-0.10658009350299835,-0.10824494063854218,-0.16300992667675018
1,28,-0.1040538102388382,-0.1065739318728447,-0.10833989083766937,-0.16344353556632996
1,29,-0.10503188520669937,-0.1065407246351242,-0.10755407065153122,-0.16393865644931793
1,30,-0.10490283370018005,-0.10649920254945755,-0.10856476426124573,-0.1651124507188797
1,31,-0.10445914417505264,-0.10642491281032562,-0.10800406336784363,-0.16553914546966553
1,32,-0.10431507229804993,-0.10630890727043152,-0.10775331407785416,-0.16627265512943268
1,33,-0.10388658195734024,-0.10636904835700989,-0.10807521641254425,-0.16655582189559937
1,34,-0.10659865289926529,-0.10633482038974762,-0.10890432447195053,-0.16743803024291992
1,35,-0.1059059202671051,-0.10626299679279327,-0.10754810273647308,-0.16804715991020203
1,36,-0.10640024393796921,-0.1062830239534378,-0.10815276205539703,-0.16910861432552338
1,37,-0.10589063167572021,-0.10674633085727692,-0.10878181457519531,-0.16949498653411865
1,38,-0.10553246736526489,-0.1067931056022644,-0.10912521183490753,-0.16998761892318726
1,39,-0.10506216436624527,-0.10669280588626862,-0.10897892713546753,-0.17053383588790894
1,40,-0.10492050647735596,-0.10654110461473465,-0.11034645140171051,-0.17142373323440552
1,41,-0.1043209508061409,-0.10646381974220276,-0.10914656519889832,-0.17182017862796783
1,42,-0.10355575382709503,-0.10648250579833984,-0.10924836248159409,-0.17212937772274017
1,43,-0.10494086146354675,-0.10668474435806274,-0.10945983231067657,-0.1727598011493683
1,44,-0.10455653816461563,-0.10660697519779205,-0.11019696295261383,-0.17367857694625854
1,45,-0.10426507890224457,-0.10692047327756882,-0.10950343310832977,-0.17339646816253662
1,46,-0.1040596067905426,-0.1069023534655571,-0.10997400432825089,-0.17419031262397766
1,47,-0.10399559140205383,-0.10681520402431488,-0.10993584990501404,-0.17429086565971375
1,48,-0.10377299040555954,-0.10666525363922119,-0.11049039661884308,-0.17498548328876495
2,49,-0.10379984229803085,-0.10669223964214325,-0.11092102527618408,-0.1756887435913086
2,50,-0.10500575602054596,-0.10653845965862274,-0.1119677871465683,-0.17447136342525482
2,51,-0.10369446128606796,-0.10637211054563522,-0.11222381889820099,-0.17625059187412262
2,52,-0.10324748605489731,-0.10653301328420639,-0.11256155371665955,-0.17545804381370544
2,53,-0.10308121144771576,-0.10593680292367935,-0.11263690888881683,-0.1759699285030365
2,54,-0.10374552756547928,-0.10472610592842102,-0.11334871500730515,-0.17650063335895538
2,55,-0.10364552587270737,-0.1048809364438057,-0.11089334636926651,-0.1768871396780014
2,56,-0.10370594263076782,-0.10686806589365005,-0.1115146279335022,-0.17773769795894623
2,57,-0.10359527915716171,-0.10607344657182693,-0.1109406128525734,-0.17822840809822083
2,58,-0.10372834652662277,-0.10722532123327255,-0.11100630462169647,-0.17933286726474762
2,59,-0.10370492935180664,-0.10714495182037354,-0.11091382056474686,-0.17928674817085266
2,60,-0.10384750366210938,-0.10679745674133301,-0.11139697581529617,-0.18022538721561432
2,61,-0.10446805506944656,-0.10653089731931686,-0.11204586178064346,-0.18142862617969513
2,62,-0.10425475984811783,-0.10655208677053452,-0.11235327273607254,-0.18202170729637146
2,63,-0.10403149574995041,-0.10633598268032074,-0.11372915655374527,-0.18209317326545715
2,64,-0.10501191765069962,-0.10683897882699966,-0.11314206570386887,-0.18294718861579895
2,65,-0.10483326017856598,-0.10778195410966873,-0.11315362900495529,-0.18404307961463928
2,66,-0.10513035207986832,-0.10787349194288254,-0.11340823769569397,-0.18455052375793457
2,67,-0.10530228167772293,-0.10740731656551361,-0.11413713544607162,-0.18539191782474518
2,68,-0.10475029051303864,-0.10792823135852814,-0.11435745656490326,-0.18710508942604065
2,69,-0.10455622524023056,-0.10742667317390442,-0.11473485827445984,-0.1873127818107605
2,70,-0.10481202602386475,-0.10692209750413895,-0.11634942144155502,-0.1876354068517685
2,71,-0.10507240891456604,-0.10642434656620026,-0.11503486335277557,-0.18807998299598694
2,72,-0.10530250519514084,-0.10661149024963379,-0.1155405044555664,-0.18920624256134033
2,73,-0.10553020983934402,-0.10612199455499649,-0.11583467572927475,-0.18949058651924133
2,74,-0.10658453404903412,-0.10572494566440582,-0.1159384697675705,-0.19035129249095917
2,75,-0.10816960781812668,-0.10774904489517212,-0.11608441174030304,-0.19072169065475464
2,76,-0.1063700020313263,-0.10714894533157349,-0.11801900714635849,-0.1923856884241104
2,77,-0.10651051998138428,-0.10673639178276062,-0.11758407950401306,-0.19207170605659485
2,78,-0.10649168491363525,-0.10628880560398102,-0.11820553988218307,-0.1924785077571869
2,79,-0.10637836158275604,-0.10704140365123749,-0.11841186881065369,-0.1924099326133728
2,80,-0.10606271773576736,-0.10654891282320023,-0.1172427162528038,-0.1924063265323639
2,81,-0.1055106371641159,-0.10604426264762878,-0.11783501505851746,-0.19231176376342773
2,82,-0.10573002696037292,-0.10575664788484573,-0.1181233674287796,-0.1928890347480774
2,83,-0.10498303920030594,-0.10622645914554596,-0.1193888783454895,-0.1936822384595871
2,84,-0.10502929985523224,-0.10612592846155167,-0.11764851957559586,-0.1942572146654129
2,85,-0.10527433454990387,-0.10682213306427002,-0.11786267906427383,-0.1951749175786972
2,86,-0.10399633646011353,-0.10776408016681671,-0.11780153959989548,-0.19558674097061157
2,87,-0.10386700183153152,-0.1080077514052391,-0.11875049024820328,-0.19475899636745453
2,88,-0.10393280535936356,-0.10752599686384201,-0.1202867403626442,-0.19577232003211975
2,89,-0.10439397394657135,-0.10779888927936554,-0.1208125576376915,-0.19606873393058777
2,90,-0.10488314926624298,-0.10725341737270355,-0.12151108682155609,-0.19764487445354462
2,91,-0.10502643138170242,-0.10829910635948181,-0.12115958333015442,-0.19790981709957123
2,92,-0.10515757650136948,-0.10779809951782227,-0.12077553570270538,-0.198744997382164
2,93,-0.10506565868854523,-0.10741548985242844,-0.12095338106155396,-0.19934888184070587
2,94,-0.10542777925729752,-0.10709172487258911,-0.11973989754915237,-0.20036302506923676
2,95,-0.10639896243810654,-0.10849892348051071,-0.11854631453752518,-0.20062118768692017
2,96,-0.10717742890119553,-0.10752502083778381,-0.11825811117887497,-0.2013920545578003
2,97,-0.10847766697406769,-0.1082535982131958,-0.11971776932477951,-0.20192177593708038
3,98,-0.10853296518325806,-0.1083882600069046,-0.11791124939918518,-0.20245526731014252
3,99,-0.10723058134317398,-0.10778003931045532,-0.11828184127807617,-0.20326188206672668
3,100,-0.1087183728814125,-0.10835877805948257,-0.11781363934278488,-0.20405840873718262
3,101,-0.10784827172756195,-0.10797113925218582,-0.11762405931949615,-0.20473293960094452
3,102,-0.10795385390520096,-0.1075180321931839,-0.11741163581609726,-0.20520487427711487
3,103,-0.1081010028719902,-0.10764138400554657,-0.11774004250764847,-0.2057873010635376
3,104,-0.10987354069948196,-0.10820113122463226,-0.11719659715890884,-0.20671413838863373
3,105,-0.11120665818452835,-0.10791756212711334,-0.11812391132116318,-0.20719175040721893
3,106,-0.11008986830711365,-0.1080901250243187,-0.11962053179740906,-0.2079392969608307
3,107,-0.11079960316419601,-0.10825909674167633,-0.11973429471254349,-0.20817214250564575
3,108,-0.11130009591579437,-0.10849091410636902,-0.12090224772691727,-0.20911528170108795
3,109,-0.11163899302482605,-0.10821089148521423,-0.12118097394704819,-0.20935656130313873
3,110,-0.11083425581455231,-0.10865970700979233,-0.12008824199438095,-0.21006634831428528
3,111,-0.1125958263874054,-0.10851162672042847,-0.12006296962499619,-0.21042171120643616
3,112,-0.11231987923383713,-0.10848235338926315,-0.12122408300638199,-0.21140940487384796
3,113,-0.11245513707399368,-0.10970785468816757,-0.1195671409368515,-0.21165050566196442
3,114,-0.11172425001859665,-0.10916408151388168,-0.11959422379732132,-0.2128179669380188
3,115,-0.11163687705993652,-0.10904177278280258,-0.11943897604942322,-0.2130618691444397
3,116,-0.11114848405122757,-0.10880457609891891,-0.11998897045850754,-0.21181969344615936
3,117,-0.11120803654193878,-0.10890641808509827,-0.12006501108407974,-0.2124020904302597
3,118,-0.11175832897424698,-0.10857733339071274,-0.121487557888031,-0.21314376592636108
3,119,-0.11328545212745667,-0.10884947329759598,-0.12186509370803833,-0.21398693323135376
3,120,-0.11298751085996628,-0.1087053045630455,-0.12214884161949158,-0.21161767840385437
3,121,-0.11409606039524078,-0.1106957197189331,-0.12177463620901108,-0.21250836551189423
3,122,-0.11342261731624603,-0.11060823500156403,-0.12041187286376953,-0.21266615390777588
3,123,-0.11321847140789032,-0.1103237122297287,-0.12137889117002487,-0.21325720846652985
3,124,-0.11334334313869476,-0.11028023809194565,-0.12206654995679855,-0.21367156505584717
3,125,-0.11507496982812881,-0.1097884401679039,-0.12143424153327942,-0.21422943472862244
3,126,-0.11436134576797485,-0.11095251142978668,-0.1210869699716568,-0.21469858288764954
3,127,-0.1123490035533905,-0.11076999455690384,-0.12210392951965332,-0.21514473855495453
3,128,-0.11226371675729752,-0.11130844801664352,-0.12338624894618988,-0.2154034525156021
3,129,-0.1114216148853302,-0.1121901422739029,-0.12239878624677658,-0.21487176418304443
3,130,-0.11126895248889923,-0.11271890252828598,-0.12269945442676544,-0.21522995829582214
3,131,-0.11095111817121506,-0.11428339034318924,-0.12301595509052277,-0.21484017372131348
3,132,-0.11108279228210449,-0.11397204548120499,-0.12429071217775345,-0.21525534987449646
3,133,-0.1119455024600029,-0.11268328130245209,-0.12451443076133728,-0.2160419076681137
3,134,-0.11349702626466751,-0.11188524216413498,-0.1250562220811844,-0.216465562582016
3,135,-0.11267899721860886,-0.1130918636918068,-0.12498319149017334,-0.21721595525741577
3,136,-0.113528311252594,-0.11253993213176727,-0.12748242914676666,-0.2178945541381836
3,137,-0.11387143284082413,-0.11252642422914505,-0.12873660027980804,-0.218168243765831
3,138,-0.11458051204681396,-0.11223842203617096,-0.12973354756832123,-0.21932454407215118
3,139,-0.11571148782968521,-0.11196183413267136,-0.12896119058132172,-0.21951237320899963
3,140,-0.11517395824193954,-0.11304298043251038,-0.12876807153224945,-0.22052490711212158
3,141,-0.11557522416114807,-0.11295251548290253,-0.13022327423095703,-0.22074070572853088
3,142,-0.11595213413238525,-0.11454861611127853,-0.12990547716617584,-0.22149121761322021
3,143,-0.11620910465717316,-0.11519841104745865,-0.12972387671470642,-0.22170989215373993
3,144,-0.11726608127355576,-0.11522728949785233,-0.13048972189426422,-0.2221868634223938
3,145,-0.12037482857704163,-0.11578385531902313,-0.13087497651576996,-0.2225312888622284
3,146,-0.11948774755001068,-0.11511363089084625,-0.13150018453598022,-0.22307075560092926
4,147,-0.12231062352657318,-0.11533151566982269,-0.13194508850574493,-0.2249709963798523
4,148,-0.12238212674856186,-0.11655738204717636,-0.13212352991104126,-0.2280345857143402
4,149,-0.12538395822048187,-0.11601335555315018,-0.13241317868232727,-0.22809813916683197
4,150,-0.1254061460494995,-0.11633237451314926,-0.13314072787761688,-0.22825448215007782
4,151,-0.12538638710975647,-0.11724446713924408,-0.1335817277431488,-0.22843915224075317
4,152,-0.1253962516784668,-0.11848121881484985,-0.13427843153476715,-0.22852298617362976
4,153,-0.1255037486553192,-0.1178809180855751,-0.13619185984134674,-0.22866840660572052
4,154,-0.12586699426174164,-0.11772403866052628,-0.1375044733285904,-0.2286863476037979
4,155,-0.1258494257926941,-0.11758194118738174,-0.13842031359672546,-0.2287604808807373
4,156,-0.12587685883045197,-0.11799628287553787,-0.13928259909152985,-0.22882167994976044
4,157,-0.12588199973106384,-0.11784365028142929,-0.13887456059455872,-0.2289397269487381
4,158,-0.1258852332830429,-0.11842246353626251,-0.1386808454990387,-0.2289738953113556
4,159,-0.12589234113693237,-0.11793336272239685,-0.1369807869195938,-0.22908711433410645
4,160,-0.1260010302066803,-0.1179487556219101,-0.13692769408226013,-0.2291337549686432
4,161,-0.12598778307437897,-0.11803341656923294,-0.13684184849262238,-0.2292594611644745
4,162,-0.12602615356445312,-0.11829635500907898,-0.13672880828380585,-0.2293010801076889
4,163,-0.12604886293411255,-0.11878468096256256,-0.1372126042842865,-0.22958967089653015
4,164,-0.1260395050048828,-0.11911001056432724,-0.13837487995624542,-0.23000988364219666
4,165,-0.12603215873241425,-0.11841806024312973,-0.13894377648830414,-0.2296811044216156
4,166,-0.12596330046653748,-0.11923608183860779,-0.140807643532753,-0.2303798794746399
4,167,-0.12600822746753693,-0.11929116398096085,-0.14222455024719238,-0.23116950690746307
4,168,-0.1260417401790619,-0.11974269151687622,-0.14165781438350677,-0.23204733431339264
4,169,-0.1261182278394699,-0.11942396312952042,-0.14311569929122925,-0.23281341791152954
4,170,-0.12575304508209229,-0.12011265009641647,-0.14255502820014954,-0.23335683345794678
4,171,-0.12573027610778809,-0.12052924931049347,-0.14369061589241028,-0.23435701429843903
4,172,-0.12582895159721375,-0.11999528110027313,-0.14427946507930756,-0.2350854128599167
4,173,-0.1258535534143448,-0.11976844817399979,-0.14576779305934906,-0.23576581478118896
4,174,-0.1259451061487198,-0.11895991861820221,-0.1463666558265686,-0.23654133081436157
4,175,-0.12597455084323883,-0.11943866312503815,-0.14494286477565765,-0.237020805478096
4,176,-0.12603124976158142,-0.12034882605075836,-0.14219088852405548,-0.2382786124944687
4,177,-0.12627431750297546,-0.1213693767786026,-0.14296939969062805,-0.23844048380851746
4,178,-0.12652383744716644,-0.12148179858922958,-0.14209823310375214,-0.23958507180213928
4,179,-0.12833651900291443,-0.12215593457221985,-0.14127464592456818,-0.23981529474258423
4,180,-0.1282135397195816,-0.12202037870883942,-0.14185985922813416,-0.24084468185901642
4,181,-0.12830203771591187,-0.12184174358844757,-0.14250023663043976,-0.24114440381526947
4,182,-0.12849114835262299,-0.1230500340461731,-0.14330624043941498,-0.24177737534046173
4,183,-0.128287672996521,-0.12335173785686493,-0.14323419332504272,-0.24232569336891174
4,184,-0.12733247876167297,-0.12352293729782104,-0.14380134642124176,-0.2428406924009323
4,185,-0.12740622460842133,-0.12317051738500595,-0.14502137899398804,-0.24359379708766937
4,186,-0.12758168578147888,-0.12271303683519363,-0.14512743055820465,-0.24411463737487793
4,187,-0.12756988406181335,-0.12223450839519501,-0.14514334499835968,-0.2452826350927353
4,188,-0.12865296006202698,-0.12290684133768082,-0.145846888422966,-0.24550293385982513
4,189,-0.1292661875486374,-0.1235298290848732,-0.14601677656173706,-0.2467668354511261
4,190,-0.12919752299785614,-0.12456320226192474,-0.1459685117006302,-0.2469780147075653
4,191,-0.1297292411327362,-0.12606863677501678,-0.1453789472579956,-0.24752716720104218
4,192,-0.12953586876392365,-0.1273694783449173,-0.14558029174804688,-0.24816924333572388
4,193,-0.1303061544895172,-0.12882335484027863,-0.1467696577310562,-0.24880599975585938
4,194,-0.13028721511363983,-0.12967674434185028,-0.14744235575199127,-0.24922335147857666
4,195,-0.12946201860904694,-0.13129861652851105,-0.14673805236816406,-0.2500883638858795
5,196,-0.1297275274991989,-0.13101597130298615,-0.14785805344581604,-0.2503776550292969
5,197,-0.12983477115631104,-0.1317736804485321,-0.1474587619304657,-0.25098082423210144
5,198,-0.12918537855148315,-0.13349226117134094,-0.14612454175949097,-0.25156518816947937
5,199,-0.12847957015037537,-0.13322947919368744,-0.14825783669948578,-0.2519964575767517
5,200,-0.13022813200950623,-0.13364450633525848,-0.14660826325416565,-0.252689927816391
5,201,-0.13051743805408478,-0.13584518432617188,-0.14780795574188232,-0.25322285294532776
5,202,-0.13051201403141022,-0.13586123287677765,-0.14850422739982605,-0.2543433606624603
5,203,-0.12933672964572906,-0.13781216740608215,-0.1496705859899521,-0.25446808338165283
5,204,-0.12925374507904053,-0.13864167034626007,-0.14866292476654053,-0.25548169016838074
5,205,-0.13015136122703552,-0.13861864805221558,-0.14912180602550507,-0.25579729676246643
5,206,-0.13101692497730255,-0.13839590549468994,-0.14995898306369781,-0.25649067759513855
5,207,-0.13124710321426392,-0.1380058079957962,-0.1492202877998352,-0.2547472417354584
5,208,-0.13165858387947083,-0.137851282954216,-0.1500473916530609,-0.2553615868091583
5,209,-0.1321679651737213,-0.13837282359600067,-0.14935517311096191,-0.2555827796459198
5,210,-0.13318724930286407,-0.13821819424629211,-0.1506631076335907,-0.2560628056526184
5,211,-0.13269838690757751,-0.13811810314655304,-0.15047968924045563,-0.2566968500614166
5,212,-0.133229598402977,-0.13841243088245392,-0.15151527523994446,-0.2547801434993744
5,213,-0.13514293730258942,-0.13942749798297882,-0.15216703712940216,-0.2553936243057251
5,214,-0.1360643059015274,-0.13958270847797394,-0.15316590666770935,-0.25593218207359314
5,215,-0.13630257546901703,-0.14027568697929382,-0.15533092617988586,-0.2569674253463745
5,216,-0.13671495020389557,-0.1413581520318985,-0.154151052236557,-0.25743529200553894
5,217,-0.13705410063266754,-0.1423766165971756,-0.15471644699573517,-0.2582547962665558
5,218,-0.13820526003837585,-0.1397731751203537,-0.15342210233211517,-0.2588840126991272
5,219,-0.13887356221675873,-0.13973169028759003,-0.15386360883712769,-0.2600116431713104
5,220,-0.13886769115924835,-0.14059056341648102,-0.15398873388767242,-0.2602688670158386
5,221,-0.13934196531772614,-0.14039915800094604,-0.1534535437822342,-0.2615165412425995
5,222,-0.14002975821495056,-0.1407727301120758,-0.15377871692180634,-0.2606775462627411
5,223,-0.14053994417190552,-0.14181898534297943,-0.1544339954853058,-0.2616073787212372
5,224,-0.14113791286945343,-0.14134244620800018,-0.15390928089618683,-0.2621413767337799
5,225,-0.14170970022678375,-0.14104165136814117,-0.15431247651576996,-0.26288869976997375
5,226,-0.14202333986759186,-0.14031435549259186,-0.15320804715156555,-0.2636337876319885
5,227,-0.14348222315311432,-0.14194411039352417,-0.1527099907398224,-0.264317125082016
5,228,-0.14473624527454376,-0.14231787621974945,-0.15268778800964355,-0.2650332450866699
5,229,-0.14353980123996735,-0.14310051500797272,-0.1523769348859787,-0.2637384533882141
5,230,-0.14421620965003967,-0.1444440633058548,-0.15281642973423004,-0.2639142572879791
5,231,-0.14611917734146118,-0.1448296159505844,-0.15315638482570648,-0.26525282859802246
5,232,-0.14787597954273224,-0.14531831443309784,-0.15283972024917603,-0.26531684398651123
5,233,-0.14849695563316345,-0.14565791189670563,-0.15342681109905243,-0.265830397605896
5,234,-0.14837057888507843,-0.1456722766160965,-0.1527179330587387,-0.26594609022140503
5,235,-0.14971105754375458,-0.14718098938465118,-0.15342573821544647,-0.2663518488407135
5,236,-0.1495438665151596,-0.14851635694503784,-0.15267212688922882,-0.26667001843452454
5,237,-0.14908954501152039,-0.14933618903160095,-0.1534416228532791,-0.26708680391311646
5,238,-0.14814458787441254,-0.150641068816185,-0.152110755443573,-0.2675536870956421
5,239,-0.1496022492647171,-0.15146315097808838,-0.15121857821941376,-0.26798975467681885
5,240,-0.15040884912014008,-0.14987900853157043,-0.1518803834915161,-0.26864054799079895
5,241,-0.15073952078819275,-0.15017403662204742,-0.15374520421028137,-0.2689598500728607
5,242,-0.15159323811531067,-0.1507328301668167,-0.15349048376083374,-0.26979467272758484
5,243,-0.1514713317155838,-0.1504553109407425,-0.1535148173570633,-0.2699953615665436
5,244,-0.15249328315258026,-0.1512695699930191,-0.15530571341514587,-0.2707570493221283
6,245,-0.15241068601608276,-0.15125061571598053,-0.15456299483776093,-0.27101612091064453
6,246,-0.15227723121643066,-0.1515626609325409,-0.15441153943538666,-0.27175474166870117
6,247,-0.15277458727359772,-0.15300464630126953,-0.1557631641626358,-0.2719358205795288
6,248,-0.1527542620897293,-0.15327370166778564,-0.1545639932155609,-0.27221235632896423
6,249,-0.15254263579845428,-0.15418189764022827,-0.1556035280227661,-0.2726227343082428
6,250,-0.15202173590660095,-0.15626578032970428,-0.15429681539535522,-0.2732504904270172
6,251,-0.15235653519630432,-0.15687736868858337,-0.15629063546657562,-0.2736888825893402
6,252,-0.15185676515102386,-0.15696367621421814,-0.15763230621814728,-0.2743414044380188
6,253,-0.15240484476089478,-0.15499956905841827,-0.15734560787677765,-0.2746486961841583
6,254,-0.15256835520267487,-0.15663866698741913,-0.16011404991149902,-0.2756222188472748
6,255,-0.1547435075044632,-0.15668517351150513,-0.1606092005968094,-0.2762545347213745
6,256,-0.1551779955625534,-0.1561717689037323,-0.16060714423656464,-0.2766885757446289
6,257,-0.15571244060993195,-0.15645001828670502,-0.15947002172470093,-0.27704212069511414
6,258,-0.15690839290618896,-0.15717828273773193,-0.15905144810676575,-0.2774186134338379
6,259,-0.15688078105449677,-0.15752050280570984,-0.1578340083360672,-0.27778321504592896
6,260,-0.15742062032222748,-0.15803125500679016,-0.15826109051704407,-0.2782590389251709
6,261,-0.15715287625789642,-0.1590919941663742,-0.15834668278694153,-0.2794785797595978
6,262,-0.1571142077445984,-0.1594655066728592,-0.15935777127742767,-0.27952054142951965
6,263,-0.15891747176647186,-0.15945208072662354,-0.15875254571437836,-0.2805693447589874
6,264,-0.16069981455802917,-0.15947279334068298,-0.15845325589179993,-0.2806527316570282
6,265,-0.16065713763237,-0.16137365996837616,-0.15873503684997559,-0.2811473608016968
6,266,-0.1617201268672943,-0.16200898587703705,-0.15947701036930084,-0.2814931869506836
6,267,-0.16154244542121887,-0.16203488409519196,-0.16022269427776337,-0.28230229020118713
6,268,-0.1630951464176178,-0.16289187967777252,-0.16078776121139526,-0.2827870547771454
6,269,-0.16204272210597992,-0.16396689414978027,-0.16142292320728302,-0.28303179144859314
6,270,-0.16271087527275085,-0.16469208896160126,-0.16042131185531616,-0.2835995554924011
6,271,-0.16242404282093048,-0.16432154178619385,-0.16184067726135254,-0.2839438021183014
6,272,-0.1618945151567459,-0.16339677572250366,-0.16202501952648163,-0.28426268696784973
6,273,-0.16290998458862305,-0.16232427954673767,-0.16184334456920624,-0.28470250964164734
6,274,-0.16310328245162964,-0.1634814739227295,-0.1632101833820343,-0.28501826524734497
6,275,-0.16397704184055328,-0.16313771903514862,-0.16435061395168304,-0.2855685353279114
6,276,-0.16398951411247253,-0.16252854466438293,-0.16398008167743683,-0.28596121072769165
6,277,-0.1651013344526291,-0.16430337727069855,-0.1640937328338623,-0.28619858622550964
6,278,-0.1660798043012619,-0.16558998823165894,-0.16436074674129486,-0.28645649552345276
6,279,-0.16504709422588348,-0.16658101975917816,-0.1619248241186142,-0.2876221835613251
6,280,-0.1665782779455185,-0.16682013869285583,-0.1616443693637848,-0.28767502307891846
6,281,-0.16717366874217987,-0.16754911839962006,-0.16186471283435822,-0.288644939661026
6,282,-0.1678609699010849,-0.1681320071220398,-0.16057170927524567,-0.2887265086174011
6,283,-0.16934075951576233,-0.16815993189811707,-0.1610824167728424,-0.2891838550567627
6,284,-0.17021656036376953,-0.16884642839431763,-0.16092249751091003,-0.2892621159553528
6,285,-0.17148274183273315,-0.1704772561788559,-0.16254733502864838,-0.2894541919231415
6,286,-0.17271436750888824,-0.17094632983207703,-0.1621125042438507,-0.28972575068473816
6,287,-0.17270527780056,-0.1700596809387207,-0.16257566213607788,-0.2901971638202667
6,288,-0.17200081050395966,-0.17153267562389374,-0.1632705181837082,-0.2905021607875824
6,289,-0.1732468158006668,-0.17255038022994995,-0.16275666654109955,-0.29143840074539185
6,290,-0.17333562672138214,-0.17274194955825806,-0.16314862668514252,-0.29164761304855347
6,291,-0.17392997443675995,-0.17264042794704437,-0.16360899806022644,-0.2922208607196808
6,292,-0.1752774715423584,-0.171269491314888,-0.16449730098247528,-0.2925770878791809
6,293,-0.17492298781871796,-0.17270997166633606,-0.16350623965263367,-0.2927749752998352
7,294,-0.17629219591617584,-0.17242784798145294,-0.16422510147094727,-0.29296615719795227
7,295,-0.17701898515224457,-0.17372828722000122,-0.16302725672721863,-0.2941455841064453
7,296,-0.17687033116817474,-0.17422248423099518,-0.16296902298927307,-0.2946677803993225
7,297,-0.17812925577163696,-0.17215535044670105,-0.16356469690799713,-0.2954760789871216
7,298,-0.17768040299415588,-0.17296163737773895,-0.16358238458633423,-0.29425209760665894
7,299,-0.17727112770080566,-0.17326191067695618,-0.16434037685394287,-0.29502248764038086
7,300,-0.17799808084964752,-0.1732320636510849,-0.16525396704673767,-0.2954496741294861
7,301,-0.1770533323287964,-0.1752203106880188,-0.1644316464662552,-0.29622381925582886
7,302,-0.17593879997730255,-0.175425186753273,-0.16452696919441223,-0.2959067225456238
7,303,-0.17676928639411926,-0.17350225150585175,-0.16553394496440887,-0.295572429895401
7,304,-0.17710985243320465,-0.17473381757736206,-0.16600275039672852,-0.29614925384521484
7,305,-0.17718780040740967,-0.17532368004322052,-0.1653670370578766,-0.2964986562728882
7,306,-0.17819438874721527,-0.17526641488075256,-0.1649375706911087,-0.2967037558555603
7,307,-0.17897658050060272,-0.17510420083999634,-0.16373255848884583,-0.29725944995880127
7,308,-0.1791001856327057,-0.17489966750144958,-0.16556936502456665,-0.2980942726135254
7,309,-0.1797936111688614,-0.17564703524112701,-0.16638590395450592,-0.2987706661224365
7,310,-0.18053065240383148,-0.17516592144966125,-0.16498617827892303,-0.2992156744003296
7,311,-0.18187591433525085,-0.17614181339740753,-0.16432374715805054,-0.30053192377090454
7,312,-0.1824721395969391,-0.17719945311546326,-0.16490678489208221,-0.30092379450798035
7,313,-0.18306508660316467,-0.17674563825130463,-0.16599394381046295,-0.3017740249633789
7,314,-0.1836332380771637,-0.1771424561738968,-0.16420339047908783,-0.3023035526275635
7,315,-0.18490134179592133,-0.17644983530044556,-0.16452667117118835,-0.3027079701423645
7,316,-0.18525928258895874,-0.17658793926239014,-0.16554126143455505,-0.3031550645828247
7,317,-0.18674218654632568,-0.17719119787216187,-0.16611993312835693,-0.3036792278289795
7,318,-0.18874531984329224,-0.17671233415603638,-0.16571363806724548,-0.3050982654094696
7,319,-0.18811003863811493,-0.1765449047088623,-0.16600973904132843,-0.30608606338500977
7,320,-0.18879929184913635,-0.17783617973327637,-0.16632746160030365,-0.306501179933548
7,321,-0.18783502280712128,-0.1779225617647171,-0.16577303409576416,-0.3071962893009186
7,322,-0.18885090947151184,-0.17744970321655273,-0.165996253490448,-0.3081676661968231
7,323,-0.1903795450925827,-0.17845769226551056,-0.16576699912548065,-0.30878445506095886
7,324,-0.18965846300125122,-0.17726600170135498,-0.16656745970249176,-0.3092268109321594
7,325,-0.19098587334156036,-0.17740066349506378,-0.16495977342128754,-0.31047675013542175
7,326,-0.19110552966594696,-0.1791609823703766,-0.1647171527147293,-0.31079283356666565
7,327,-0.19154326617717743,-0.1785687357187271,-0.16624753177165985,-0.31126517057418823
7,328,-0.19082820415496826,-0.1788591593503952,-0.1654672920703888,-0.3118116855621338
7,329,-0.1898823231458664,-0.1784500926733017,-0.16566544771194458,-0.31239983439445496
7,330,-0.189590185880661,-0.17872367799282074,-0.16627493500709534,-0.3130360543727875
7,331,-0.19163130223751068,-0.17742855846881866,-0.16739393770694733,-0.31397557258605957
7,332,-0.19265617430210114,-0.17762789130210876,-0.16653631627559662,-0.3149263262748718
7,333,-0.1941101849079132,-0.17614221572875977,-0.16618575155735016,-0.3152434229850769
7,334,-0.19395892322063446,-0.17662079632282257,-0.1664816290140152,-0.3162539601325989
7,335,-0.194717139005661,-0.17889729142189026,-0.16775311529636383,-0.31686273217201233
7,336,-0.19595438241958618,-0.1800605058670044,-0.16663992404937744,-0.3188544809818268
7,337,-0.19645379483699799,-0.179950550198555,-0.16818712651729584,-0.31945598125457764
7,338,-0.19560593366622925,-0.17891517281532288,-0.16782110929489136,-0.32035353779792786
7,339,-0.19603437185287476,-0.17915204167366028,-0.16890761256217957,-0.32085853815078735
7,340,-0.1966356635093689,-0.1792328953742981,-0.1700846552848816,-0.3215976059436798
7,341,-0.19657506048679352,-0.17998114228248596,-0.17083804309368134,-0.3219461739063263
7,342,-0.1981636881828308,-0.17997755110263824,-0.17164719104766846,-0.3246050477027893
8,343,-0.19888325035572052,-0.18085977435112,-0.16934750974178314,-0.3247644007205963
8,344,-0.20022115111351013,-0.18067990243434906,-0.1689600646495819,-0.32528695464134216
8,345,-0.20129889249801636,-0.18135985732078552,-0.16917692124843597,-0.3255476653575897
8,346,-0.20305344462394714,-0.17872947454452515,-0.17007015645503998,-0.32599708437919617
8,347,-0.20339654386043549,-0.1806265264749527,-0.1710083782672882,-0.3272486627101898
8,348,-0.205112025141716,-0.1803421825170517,-0.17020055651664734,-0.32738062739372253
8,349,-0.20445051789283752,-0.18011832237243652,-0.1721498817205429,-0.3295888304710388
8,350,-0.2021782547235489,-0.18043144047260284,-0.17114736139774323,-0.3296912610530853
8,351,-0.20282894372940063,-0.18119730055332184,-0.1716834157705307,-0.32712623476982117
8,352,-0.2041320502758026,-0.1810428947210312,-0.17097355425357819,-0.32742640376091003
8,353,-0.20384187996387482,-0.18070505559444427,-0.17216792702674866,-0.32716211676597595
8,354,-0.20327696204185486,-0.18277586996555328,-0.17298665642738342,-0.3277212381362915
8,355,-0.20372548699378967,-0.18273358047008514,-0.17265373468399048,-0.32813894748687744
8,356,-0.20150558650493622,-0.1836620718240738,-0.1734759658575058,-0.3285053074359894
8,357,-0.20192253589630127,-0.184064120054245,-0.17332875728607178,-0.3287275731563568
8,358,-0.20217350125312805,-0.18348480761051178,-0.17394208908081055,-0.328980952501297
8,359,-0.20523571968078613,-0.18173491954803467,-0.17347589135169983,-0.3293512761592865
8,360,-0.205318421125412,-0.18331791460514069,-0.1733759343624115,-0.3298010528087616
8,361,-0.20619340240955353,-0.18234635889530182,-0.17223995923995972,-0.33024805784225464
8,362,-0.20629756152629852,-0.1815180480480194,-0.1724032610654831,-0.33095303177833557
8,363,-0.20796748995780945,-0.1835828423500061,-0.17324428260326385,-0.3317602276802063
8,364,-0.2078334540128708,-0.18441933393478394,-0.17341503500938416,-0.3320096433162689
8,365,-0.20791585743427277,-0.18508224189281464,-0.17516395449638367,-0.3323999047279358
8,366,-0.20760393142700195,-0.18540987372398376,-0.1755785495042801,-0.3328506648540497
8,367,-0.2076895833015442,-0.18524648249149323,-0.1767827570438385,-0.33309730887413025
8,368,-0.2080298811197281,-0.18550418317317963,-0.1756514310836792,-0.33386290073394775
8,369,-0.20726950466632843,-0.1845414936542511,-0.17360620200634003,-0.33397993445396423
8,370,-0.20698830485343933,-0.18615604937076569,-0.17362383008003235,-0.3348233997821808
8,371,-0.20656976103782654,-0.18590399622917175,-0.17421945929527283,-0.33531850576400757
8,372,-0.20680785179138184,-0.1858970671892166,-0.1737581342458725,-0.33575546741485596
8,373,-0.20704598724842072,-0.18513908982276917,-0.17572280764579773,-0.3359546959400177
8,374,-0.20678046345710754,-0.1858239322900772,-0.17626287043094635,-0.3366145193576813
8,375,-0.20705658197402954,-0.1847091168165207,-0.1769329458475113,-0.337073415517807
8,376,-0.20689456164836884,-0.1848917156457901,-0.17758512496948242,-0.3377106785774231
8,377,-0.20692460238933563,-0.1853950321674347,-0.176869735121727,-0.3384816646575928
8,378,-0.20686636865139008,-0.18500904738903046,-0.1770259588956833,-0.3393119275569916
8,379,-0.2072601616382599,-0.1853186935186386,-0.17567382752895355,-0.34071245789527893
8,380,-0.20703884959220886,-0.18410761654376984,-0.17543666064739227,-0.34152093529701233
8,381,-0.20777849853038788,-0.18427921831607819,-0.17516088485717773,-0.342376708984375
8,382,-0.20791612565517426,-0.18498282134532928,-0.17366012930870056,-0.34358614683151245
8,383,-0.20795838534832,-0.1846967190504074,-0.17452052235603333,-0.34455999732017517
8,384,-0.20762892067432404,-0.18263714015483856,-0.17431244254112244,-0.34561753273010254
8,385,-0.20912432670593262,-0.18414521217346191,-0.17433412373065948,-0.3463089168071747
8,386,-0.20951798558235168,-0.18574416637420654,-0.17413729429244995,-0.34780818223953247
8,387,-0.20950305461883545,-0.1848330944776535,-0.17496156692504883,-0.3482002913951874
8,388,-0.20947547256946564,-0.18480317294597626,-0.17409029603004456,-0.34943684935569763
8,389,-0.20901739597320557,-0.18528752028942108,-0.17611876130104065,-0.350006639957428
8,390,-0.20862041413784027,-0.18441331386566162,-0.17598365247249603,-0.3513253629207611
8,391,-0.2079862654209137,-0.18630264699459076,-0.1764257699251175,-0.35194841027259827
9,392,-0.2082705795764923,-0.18605740368366241,-0.17676690220832825,-0.3530164659023285
9,393,-0.20768006145954132,-0.1853347271680832,-0.17623348534107208,-0.35386988520622253
9,394,-0.20867754518985748,-0.1845839023590088,-0.17684942483901978,-0.3534841537475586
9,395,-0.20816832780838013,-0.18401047587394714,-0.17666591703891754,-0.35443493723869324
9,396,-0.20869757235050201,-0.18494297564029694,-0.1785980463027954,-0.35530224442481995
9,397,-0.20976515114307404,-0.18526405096054077,-0.17866875231266022,-0.3558915853500366
9,398,-0.20970618724822998,-0.1852896362543106,-0.17884665727615356,-0.3567342758178711
9,399,-0.2093600481748581,-0.18640932440757751,-0.17994171380996704,-0.3575722873210907
9,400,-0.2093082070350647,-0.18739748001098633,-0.17958854138851166,-0.3583282232284546
9,401,-0.2105015218257904,-0.18813422322273254,-0.1800461858510971,-0.359356552362442
9,402,-0.2100885510444641,-0.18796755373477936,-0.18051862716674805,-0.3601631820201874
9,403,-0.21091525256633759,-0.18792802095413208,-0.1808353066444397,-0.36120325326919556
9,404,-0.21008408069610596,-0.18871799111366272,-0.18078075349330902,-0.3620496690273285
9,405,-0.20967721939086914,-0.18773238360881805,-0.18171845376491547,-0.3631092607975006
9,406,-0.21044540405273438,-0.18775705993175507,-0.18275126814842224,-0.36393433809280396
9,407,-0.21166200935840607,-0.18746349215507507,-0.18169397115707397,-0.36514848470687866
9,408,-0.21142299473285675,-0.18749447166919708,-0.18176424503326416,-0.3655537962913513
9,409,-0.21183115243911743,-0.18728488683700562,-0.1818348914384842,-0.3666507601737976
9,410,-0.21210172772407532,-0.18774956464767456,-0.18237879872322083,-0.3674061596393585
9,411,-0.2148558795452118,-0.1888323575258255,-0.18330040574073792,-0.36869773268699646
9,412,-0.21451136469841003,-0.18906797468662262,-0.18411798775196075,-0.3660743832588196
9,413,-0.21476204693317413,-0.19124506413936615,-0.1832994818687439,-0.3665724992752075
9,414,-0.2151203453540802,-0.19239698350429535,-0.18523311614990234,-0.3670412600040436
9,415,-0.2150425910949707,-0.1928059309720993,-0.18574346601963043,-0.36758479475975037
9,416,-0.21636922657489777,-0.19288335740566254,-0.18583449721336365,-0.3680145740509033
9,417,-0.21615026891231537,-0.19397702813148499,-0.18415777385234833,-0.3684055507183075
9,418,-0.2164691984653473,-0.19425320625305176,-0.1850201040506363,-0.36888182163238525
9,419,-0.21683478355407715,-0.19448086619377136,-0.18559040129184723,-0.3695908784866333
9,420,-0.216718390583992,-0.19476382434368134,-0.1855842024087906,-0.37010565400123596
9,421,-0.2162264734506607,-0.19333991408348083,-0.186454638838768,-0.3706558644771576
9,422,-0.21653541922569275,-0.19456332921981812,-0.18717728555202484,-0.37147676944732666
9,423,-0.2179701030254364,-0.19503502547740936,-0.18791234493255615,-0.37182608246803284
9,424,-0.21772615611553192,-0.19459931552410126,-0.1871364712715149,-0.3724663257598877
9,425,-0.2190934419631958,-0.19437454640865326,-0.188149094581604,-0.37303927540779114
9,426,-0.21962067484855652,-0.19414100050926208,-0.1900027096271515,-0.37384912371635437
9,427,-0.21930739283561707,-0.19436949491500854,-0.1904028356075287,-0.3742557168006897
9,428,-0.21918286383152008,-0.1939215213060379,-0.18941019475460052,-0.37489429116249084
9,429,-0.21885868906974792,-0.194792702794075,-0.18962571024894714,-0.3755992650985718
9,430,-0.21917787194252014,-0.19388706982135773,-0.1890394538640976,-0.37644335627555847
9,431,-0.22139926254749298,-0.19179704785346985,-0.1899605691432953,-0.37694424390792847
9,432,-0.2216242402791977,-0.1920023262500763,-0.19071093201637268,-0.37759914994239807
9,433,-0.2221246063709259,-0.19316397607326508,-0.19063735008239746,-0.37746354937553406
9,434,-0.22216898202896118,-0.19222359359264374,-0.19084089994430542,-0.378397136926651
9,435,-0.22353656589984894,-0.1929716020822525,-0.1919882744550705,-0.3789074420928955
9,436,-0.22372524440288544,-0.1946514993906021,-0.19100192189216614,-0.3801959156990051
9,437,-0.22381001710891724,-0.19450998306274414,-0.1911764293909073,-0.38103851675987244
9,438,-0.22367708384990692,-0.19515836238861084,-0.1918257474899292,-0.3816434144973755
9,439,-0.2245035022497177,-0.1950082778930664,-0.19272170960903168,-0.3826476037502289
9,440,-0.2247246950864792,-0.1953829973936081,-0.19366873800754547,-0.383627712726593
10,441,-0.22536905109882355,-0.19481819868087769,-0.19416558742523193,-0.38418418169021606
10,442,-0.22701840102672577,-0.19268935918807983,-0.1932784467935562,-0.38529840111732483
10,443,-0.22623765468597412,-0.19336044788360596,-0.1927221417427063,-0.38667264580726624
10,444,-0.2282181978225708,-0.19347357749938965,-0.19372208416461945,-0.3872828781604767
10,445,-0.22827911376953125,-0.19336901605129242,-0.19358861446380615,-0.38813185691833496
10,446,-0.2289038598537445,-0.19365715980529785,-0.19382500648498535,-0.3892316520214081
10,447,-0.2290085405111313,-0.19498439133167267,-0.19289271533489227,-0.38976696133613586
10,448,-0.22927163541316986,-0.1961979866027832,-0.19395561516284943,-0.39028704166412354
10,449,-0.22960202395915985,-0.19729498028755188,-0.1953723132610321,-0.39165693521499634
10,450,-0.22766439616680145,-0.19601716101169586,-0.19726280868053436,-0.3920089900493622
10,451,-0.22769717872142792,-0.19706135988235474,-0.19651798903942108,-0.3935217559337616
10,452,-0.22806626558303833,-0.19712336361408234,-0.19787460565567017,-0.39408910274505615
10,453,-0.22882068157196045,-0.19655431807041168,-0.19909816980361938,-0.39527180790901184
10,454,-0.22772330045700073,-0.1968860626220703,-0.19907376170158386,-0.39600270986557007
10,455,-0.22729696333408356,-0.19553141295909882,-0.19660261273384094,-0.39689385890960693
10,456,-0.22767581045627594,-0.1960633546113968,-0.19722597301006317,-0.39793047308921814
10,457,-0.22873850166797638,-0.194693461060524,-0.19739338755607605,-0.3987870514392853
10,458,-0.22824379801750183,-0.1941821575164795,-0.19768907129764557,-0.39926913380622864
10,459,-0.22933433949947357,-0.1953161358833313,-0.19764362275600433,-0.4000047743320465
10,460,-0.23014625906944275,-0.1956738978624344,-0.19705933332443237,-0.4008868634700775
10,461,-0.23077617585659027,-0.19581188261508942,-0.19804932177066803,-0.40214088559150696
10,462,-0.23024868965148926,-0.19603431224822998,-0.19819892942905426,-0.40274661779403687
10,463,-0.23040515184402466,-0.19659171998500824,-0.1976989209651947,-0.40382927656173706
10,464,-0.23178191483020782,-0.19746001064777374,-0.19821687042713165,-0.4052796959877014
10,465,-0.23151855170726776,-0.19714513421058655,-0.19796870648860931,-0.4059324562549591
10,466,-0.2327561229467392,-0.19726769626140594,-0.19921565055847168,-0.40692681074142456
10,467,-0.23295071721076965,-0.19787271320819855,-0.2005401849746704,-0.40748223662376404
10,468,-0.23482222855091095,-0.19604112207889557,-0.2015818953514099,-0.40836888551712036
10,469,-0.23425599932670593,-0.19434283673763275,-0.20083600282669067,-0.40882036089897156
10,470,-0.23478353023529053,-0.1945038139820099,-0.2012476623058319,-0.40988898277282715
10,471,-0.23496560752391815,-0.19472123682498932,-0.20018555223941803,-0.410496324300766
10,472,-0.23607134819030762,-0.19479773938655853,-0.1999620944261551,-0.4113680422306061
10,473,-0.2384410947561264,-0.1946593075990677,-0.20182308554649353,-0.41233399510383606
10,474,-0.23849600553512573,-0.19386564195156097,-0.20295029878616333,-0.4130163788795471
10,475,-0.23860350251197815,-0.1959332525730133,-0.20328682661056519,-0.4138801097869873
10,476,-0.23923370242118835,-0.1960693746805191,-0.20330089330673218,-0.41464006900787354
10,477,-0.23940955102443695,-0.19544172286987305,-0.20147612690925598,-0.41540655493736267
10,478,-0.23877577483654022,-0.19498462975025177,-0.20076747238636017,-0.41634219884872437
10,479,-0.23841559886932373,-0.19538500905036926,-0.20153285562992096,-0.41754692792892456
10,480,-0.23833663761615753,-0.19566042721271515,-0.20117852091789246,-0.41818177700042725
10,481,-0.2396567165851593,-0.1974288821220398,-0.19911202788352966,-0.419233500957489
10,482,-0.24108491837978363,-0.19817575812339783,-0.19907239079475403,-0.41975006461143494
10,483,-0.24094223976135254,-0.199297234416008,-0.19766998291015625,-0.4209868013858795
10,484,-0.24159954488277435,-0.19708143174648285,-0.198038712143898,-0.421779602766037
10,485,-0.2419355809688568,-0.19850470125675201,-0.1991027295589447,-0.4229699373245239
10,486,-0.2427722066640854,-0.19796527922153473,-0.19950690865516663,-0.42403456568717957
10,487,-0.24263456463813782,-0.19906151294708252,-0.20089881122112274,-0.42510196566581726
10,488,-0.24227114021778107,-0.1982136368751526,-0.20254401862621307,-0.42610684037208557
10,489,-0.24324582517147064,-0.19926191866397858,-0.20243437588214874,-0.42714303731918335
11,490,-0.24349065124988556,-0.19936661422252655,-0.20364892482757568,-0.4277399480342865
11,491,-0.24305100739002228,-0.20013505220413208,-0.20349937677383423,-0.42885202169418335
11,492,-0.24495509266853333,-0.2005278766155243,-0.20264454185962677,-0.4297577440738678
11,493,-0.24506714940071106,-0.20211341977119446,-0.2034144550561905,-0.430582195520401
11,494,-0.2466346025466919,-0.20073895156383514,-0.20424960553646088,-0.43133437633514404
11,495,-0.24777784943580627,-0.20168054103851318,-0.20440839231014252,-0.43212369084358215
11,496,-0.24747049808502197,-0.20296648144721985,-0.20256683230400085,-0.4331424832344055
11,497,-0.24838301539421082,-0.203306183218956,-0.20186170935630798,-0.4340110421180725
11,498,-0.24703088402748108,-0.20384669303894043,-0.20281608402729034,-0.4348662197589874
11,499,-0.24650967121124268,-0.20439881086349487,-0.20187018811702728,-0.435061514377594
11,500,-0.24787673354148865,-0.205830380320549,-0.20170743763446808,-0.43550726771354675
11,501,-0.24795976281166077,-0.20625333487987518,-0.201835498213768,-0.43674588203430176
11,502,-0.2483300119638443,-0.20434513688087463,-0.2018665373325348,-0.437411904335022
11,503,-0.2498081773519516,-0.20466668903827667,-0.20112164318561554,-0.4387395977973938
11,504,-0.24900373816490173,-0.20488962531089783,-0.20118123292922974,-0.4396357834339142
11,505,-0.24834047257900238,-0.203813835978508,-0.20120693743228912,-0.4402507543563843
11,506,-0.2492927759885788,-0.20367300510406494,-0.20065073668956757,-0.4410771131515503
11,507,-0.25012826919555664,-0.20429198443889618,-0.20066392421722412,-0.440617173910141
11,508,-0.24980157613754272,-0.2048487663269043,-0.20095352828502655,-0.4414842128753662
11,509,-0.2498311549425125,-0.2046712040901184,-0.20116280019283295,-0.44214972853660583
11,510,-0.2500966489315033,-0.20341835916042328,-0.20147934556007385,-0.44282159209251404
11,511,-0.2513622045516968,-0.20413899421691895,-0.20297639071941376,-0.44415411353111267
11,512,-0.24997755885124207,-0.20270313322544098,-0.2026022970676422,-0.4424567222595215
11,513,-0.2511400580406189,-0.2022200971841812,-0.2035074532032013,-0.4435991048812866
11,514,-0.252165287733078,-0.20371946692466736,-0.20412996411323547,-0.4441729784011841
11,515,-0.2516569197177887,-0.2056906819343567,-0.2043200582265854,-0.44516730308532715
11,516,-0.2526811361312866,-0.2057872861623764,-0.206526979804039,-0.4455965757369995
11,517,-0.25264865159988403,-0.2058018445968628,-0.20619332790374756,-0.4465419352054596
11,518,-0.25233763456344604,-0.20506826043128967,-0.20575173199176788,-0.44730669260025024
11,519,-0.25110793113708496,-0.20563006401062012,-0.20404218137264252,-0.44805246591567993
11,520,-0.25231143832206726,-0.20614267885684967,-0.20505385100841522,-0.44913581013679504
11,521,-0.25134405493736267,-0.20564594864845276,-0.20595453679561615,-0.4499664604663849
11,522,-0.2518671154975891,-0.20603209733963013,-0.2052484154701233,-0.4506482183933258
11,523,-0.2536384165287018,-0.20569241046905518,-0.2070169746875763,-0.45174214243888855
11,524,-0.2532566785812378,-0.2051965594291687,-0.20831792056560516,-0.4521383047103882
11,525,-0.2537747919559479,-0.20483216643333435,-0.20874175429344177,-0.4530988335609436
11,526,-0.25429221987724304,-0.20546838641166687,-0.20877552032470703,-0.4539392590522766
11,527,-0.25518980622291565,-0.20550233125686646,-0.20858430862426758,-0.45471495389938354
11,528,-0.25462061166763306,-0.20509220659732819,-0.20865222811698914,-0.4555526673793793
11,529,-0.2543203830718994,-0.20647980272769928,-0.20709006488323212,-0.4568753242492676
11,530,-0.2538147270679474,-0.20807671546936035,-0.20558486878871918,-0.4581615924835205
11,531,-0.2553569972515106,-0.20879234373569489,-0.20579305291175842,-0.4589283764362335
11,532,-0.25538647174835205,-0.20832708477973938,-0.20771370828151703,-0.45993703603744507
11,533,-0.25664085149765015,-0.208729088306427,-0.20743462443351746,-0.4608299732208252
11,534,-0.2575395405292511,-0.2093549519777298,-0.2080148607492447,-0.4618039131164551
11,535,-0.25785908102989197,-0.20862892270088196,-0.2080961912870407,-0.4623693525791168
11,536,-0.25778359174728394,-0.20828934013843536,-0.2077830731868744,-0.4636231064796448
11,537,-0.25826138257980347,-0.20708312094211578,-0.20789913833141327,-0.46408939361572266
11,538,-0.2574739456176758,-0.20820842683315277,-0.2063358873128891,-0.46501603722572327
12,539,-0.25724828243255615,-0.20791277289390564,-0.20695410668849945,-0.4653864800930023
12,540,-0.25732025504112244,-0.20948787033557892,-0.20807401835918427,-0.46699222922325134
12,541,-0.25511640310287476,-0.20767360925674438,-0.20755068957805634,-0.4674038290977478
12,542,-0.2567242681980133,-0.21016453206539154,-0.2073608636856079,-0.4688890874385834
12,543,-0.25739631056785583,-0.21032875776290894,-0.20716065168380737,-0.4697504937648773
12,544,-0.2585057318210602,-0.21116261184215546,-0.20774078369140625,-0.4702701270580292
12,545,-0.25898921489715576,-0.20967085659503937,-0.20743651688098907,-0.4709586501121521
12,546,-0.25824832916259766,-0.21064803004264832,-0.2091633677482605,-0.47170060873031616
12,547,-0.2579893171787262,-0.21093641221523285,-0.21027787029743195,-0.4724434018135071
12,548,-0.2577069103717804,-0.21266253292560577,-0.21212200820446014,-0.47312843799591064
12,549,-0.25682273507118225,-0.21236926317214966,-0.21299026906490326,-0.47403645515441895
12,550,-0.25551867485046387,-0.21391178667545319,-0.21057245135307312,-0.4748210310935974
12,551,-0.2561657130718231,-0.21390210092067719,-0.21041706204414368,-0.4757399260997772
12,552,-0.2565237879753113,-0.21543626487255096,-0.21062232553958893,-0.47660717368125916
12,553,-0.2582317888736725,-0.21581384539604187,-0.2101738154888153,-0.4775916635990143
12,554,-0.25788185000419617,-0.21674713492393494,-0.21010297536849976,-0.4784705340862274
12,555,-0.2580212950706482,-0.21735073626041412,-0.21156398952007294,-0.47911781072616577
12,556,-0.258743554353714,-0.21823778748512268,-0.2109098583459854,-0.4802972972393036
12,557,-0.2588004767894745,-0.21890556812286377,-0.2106998860836029,-0.4811882972717285
12,558,-0.2571263909339905,-0.21819117665290833,-0.21009531617164612,-0.48195168375968933
12,559,-0.2572177052497864,-0.21715328097343445,-0.20921781659126282,-0.4819134473800659
12,560,-0.2575922906398773,-0.21649117767810822,-0.2096956968307495,-0.48313164710998535
12,561,-0.25715261697769165,-0.21700696647167206,-0.20995742082595825,-0.483757346868515
12,562,-0.25645899772644043,-0.21765704452991486,-0.20932923257350922,-0.48489972949028015
12,563,-0.2578561007976532,-0.21859391033649445,-0.20942823588848114,-0.4858868420124054
12,564,-0.2577466666698456,-0.2197829782962799,-0.21094490587711334,-0.4874880313873291
12,565,-0.25822871923446655,-0.22150146961212158,-0.21180133521556854,-0.4882064461708069
12,566,-0.2604255974292755,-0.22116287052631378,-0.21118450164794922,-0.4888445734977722
12,567,-0.2604132294654846,-0.22144685685634613,-0.21169859170913696,-0.48942291736602783
12,568,-0.2621253430843353,-0.22002075612545013,-0.21224024891853333,-0.49039480090141296
12,569,-0.26117339730262756,-0.2205350399017334,-0.21090562641620636,-0.49131372570991516
12,570,-0.26213037967681885,-0.22096538543701172,-0.21224114298820496,-0.49223974347114563
12,571,-0.26122307777404785,-0.2217167168855667,-0.21376030147075653,-0.4928799569606781
12,572,-0.26157838106155396,-0.22191408276557922,-0.21334615349769592,-0.4935148358345032
12,573,-0.2623943090438843,-0.22164249420166016,-0.21474534273147583,-0.4945874512195587
12,574,-0.26211485266685486,-0.22149795293807983,-0.21333076059818268,-0.49497970938682556
12,575,-0.2624516189098358,-0.22237704694271088,-0.21283723413944244,-0.495892196893692
12,576,-0.26374951004981995,-0.22204771637916565,-0.21278439462184906,-0.4964388906955719
12,577,-0.2637513279914856,-0.22369752824306488,-0.21152019500732422,-0.49764713644981384
12,578,-0.26147955656051636,-0.22281716763973236,-0.21141785383224487,-0.49833473563194275
12,579,-0.26074957847595215,-0.22288784384727478,-0.2105911374092102,-0.4995497167110443
12,580,-0.2609308063983917,-0.222451850771904,-0.20879188179969788,-0.5006353259086609
12,581,-0.26293838024139404,-0.2221750169992447,-0.20943833887577057,-0.5013504028320312
12,582,-0.26278573274612427,-0.2239280492067337,-0.21066439151763916,-0.5019234418869019
12,583,-0.26363712549209595,-0.2225348800420761,-0.21052643656730652,-0.5023890137672424
12,584,-0.26424092054367065,-0.22257357835769653,-0.21119700372219086,-0.503655731678009
12,585,-0.2651400566101074,-0.2224685698747635,-0.21092882752418518,-0.504332959651947
12,586,-0.26641395688056946,-0.22391782701015472,-0.21037763357162476,-0.5056066513061523
12,587,-0.26677975058555603,-0.22464674711227417,-0.21092864871025085,-0.5065230131149292
13,588,-0.2671804428100586,-0.2245846390724182,-0.21056924760341644,-0.5074947476387024
13,589,-0.26762673258781433,-0.22473905980587006,-0.21046948432922363,-0.5081632733345032
13,590,-0.26738956570625305,-0.22615225613117218,-0.21143382787704468,-0.5090706944465637
13,591,-0.26661258935928345,-0.2260252684354782,-0.21102604269981384,-0.5097187757492065
13,592,-0.2677455544471741,-0.22732889652252197,-0.20989109575748444,-0.5107818245887756
13,593,-0.2666638195514679,-0.22810813784599304,-0.20995351672172546,-0.511637806892395
13,594,-0.26875045895576477,-0.2279364913702011,-0.20784896612167358,-0.5124673247337341
13,595,-0.2703573405742645,-0.227678120136261,-0.2086402326822281,-0.51290363073349
13,596,-0.2696831226348877,-0.22913594543933868,-0.20884467661380768,-0.5140134692192078
13,597,-0.2691253423690796,-0.2295437455177307,-0.20892614126205444,-0.5143336057662964
13,598,-0.269198477268219,-0.231045201420784,-0.20974144339561462,-0.5149571299552917
13,599,-0.2694108784198761,-0.23025751113891602,-0.20985360443592072,-0.5157575607299805
13,600,-0.26855143904685974,-0.22934174537658691,-0.20917348563671112,-0.5162383913993835
13,601,-0.27005964517593384,-0.22842194139957428,-0.20819370448589325,-0.5167275071144104
13,602,-0.2702966332435608,-0.22892852127552032,-0.20707468688488007,-0.5176410675048828
13,603,-0.27153724431991577,-0.22843751311302185,-0.20855602622032166,-0.51864093542099
13,604,-0.2707413136959076,-0.2271251231431961,-0.2084549069404602,-0.5195744633674622
13,605,-0.27080202102661133,-0.22756513953208923,-0.20949804782867432,-0.5200695395469666
13,606,-0.2717377841472626,-0.22740763425827026,-0.20794792473316193,-0.5211409330368042
13,607,-0.2722845673561096,-0.22772227227687836,-0.2073816955089569,-0.5219751596450806
13,608,-0.2721058428287506,-0.22754992544651031,-0.20839907228946686,-0.5192018747329712
13,609,-0.27154216170310974,-0.22757011651992798,-0.20785383880138397,-0.5194454789161682
13,610,-0.2722584009170532,-0.2253955751657486,-0.20805136859416962,-0.5198289752006531
13,611,-0.27109572291374207,-0.2264893501996994,-0.20855185389518738,-0.5205643773078918
13,612,-0.27159583568573,-0.22707822918891907,-0.2090379148721695,-0.5210316181182861
13,613,-0.272443562746048,-0.2286364734172821,-0.20806775987148285,-0.5217182040214539
13,614,-0.27267441153526306,-0.2292230725288391,-0.2095818817615509,-0.5223664045333862
13,615,-0.2736627757549286,-0.2302250862121582,-0.2084924429655075,-0.5229767560958862
13,616,-0.27459725737571716,-0.22920577228069305,-0.21027831733226776,-0.5232017636299133
13,617,-0.2741490602493286,-0.2289835810661316,-0.21071410179138184,-0.5235952138900757
13,618,-0.2733890116214752,-0.22859284281730652,-0.20975828170776367,-0.5239788293838501
13,619,-0.2723674178123474,-0.2283763289451599,-0.20944653451442719,-0.524528443813324
13,620,-0.27285662293434143,-0.22899800539016724,-0.21032743155956268,-0.5248466730117798
13,621,-0.2729438841342926,-0.2284441590309143,-0.21065972745418549,-0.522760808467865
13,622,-0.2726815938949585,-0.22869263589382172,-0.21073584258556366,-0.5232847332954407
13,623,-0.2748400866985321,-0.2280379682779312,-0.212272047996521,-0.5237022042274475
13,624,-0.2739656865596771,-0.22936087846755981,-0.211547389626503,-0.5239761471748352
13,625,-0.2751324474811554,-0.23011311888694763,-0.20945817232131958,-0.5243674516677856
13,626,-0.2763788402080536,-0.22983509302139282,-0.20926879346370697,-0.524753987789154
13,627,-0.27564090490341187,-0.23159964382648468,-0.20817416906356812,-0.5253509283065796
13,628,-0.2740856409072876,-0.2333153337240219,-0.20765502750873566,-0.5259383320808411
13,629,-0.27523964643478394,-0.2328684777021408,-0.2074963003396988,-0.5266439914703369
13,630,-0.27541226148605347,-0.230564147233963,-0.20761916041374207,-0.527375340461731
13,631,-0.27712690830230713,-0.23049265146255493,-0.20913806557655334,-0.5278491973876953
13,632,-0.27767544984817505,-0.2321348488330841,-0.2095126211643219,-0.5285913944244385
13,633,-0.27802547812461853,-0.23238013684749603,-0.210113063454628,-0.5296435952186584
13,634,-0.2792382836341858,-0.23208126425743103,-0.20925404131412506,-0.5301161408424377
13,635,-0.2801976501941681,-0.23301413655281067,-0.2088390737771988,-0.5310559868812561
13,636,-0.28001120686531067,-0.2310245931148529,-0.20841439068317413,-0.5315622687339783
14,637,-0.2800450026988983,-0.2318752408027649,-0.210152268409729,-0.5325431227684021
14,638,-0.2798922061920166,-0.23209711909294128,-0.2090984433889389,-0.5330947041511536
14,639,-0.27855610847473145,-0.23090776801109314,-0.20805463194847107,-0.5338271856307983
14,640,-0.27832216024398804,-0.23086687922477722,-0.20587371289730072,-0.5344619750976562
14,641,-0.27810484170913696,-0.2302725911140442,-0.20639578998088837,-0.535183846950531
14,642,-0.2794918417930603,-0.23037217557430267,-0.2071986198425293,-0.5358588099479675
14,643,-0.277866005897522,-0.23004522919654846,-0.20784839987754822,-0.5366775393486023
14,644,-0.27996522188186646,-0.2297007143497467,-0.20813581347465515,-0.537385880947113
14,645,-0.27970090508461,-0.2302500158548355,-0.20972998440265656,-0.537917971611023
14,646,-0.28096216917037964,-0.22993141412734985,-0.21074454486370087,-0.5386855602264404
14,647,-0.2811509668827057,-0.2305409461259842,-0.21067997813224792,-0.5390619039535522
14,648,-0.2810722887516022,-0.23119866847991943,-0.20984865725040436,-0.539779782295227
14,649,-0.2802963852882385,-0.23050908744335175,-0.21061016619205475,-0.5404061079025269
14,650,-0.2801467776298523,-0.22986888885498047,-0.20992186665534973,-0.5409906506538391
14,651,-0.27966490387916565,-0.23142027854919434,-0.20818684995174408,-0.541543185710907
14,652,-0.2792782485485077,-0.23200856149196625,-0.20862653851509094,-0.5423753261566162
14,653,-0.28018391132354736,-0.22986188530921936,-0.2093713879585266,-0.5432798862457275
14,654,-0.2785031795501709,-0.2296132594347,-0.21037927269935608,-0.5440208315849304
14,655,-0.2776278853416443,-0.22932416200637817,-0.21039968729019165,-0.5444391965866089
14,656,-0.2787991166114807,-0.2292017936706543,-0.20983433723449707,-0.5454663634300232
14,657,-0.27935901284217834,-0.22851021587848663,-0.21167907118797302,-0.545820415019989
14,658,-0.2793515920639038,-0.22855396568775177,-0.21030676364898682,-0.5466246008872986
14,659,-0.27917608618736267,-0.22921332716941833,-0.21147289872169495,-0.5470097064971924
14,660,-0.27925169467926025,-0.23108907043933868,-0.20985957980155945,-0.5478207468986511
14,661,-0.2795388400554657,-0.2317775934934616,-0.2110220044851303,-0.5491324663162231
14,662,-0.2803839147090912,-0.23405152559280396,-0.2115011215209961,-0.5498417615890503
14,663,-0.2822685241699219,-0.233551025390625,-0.21109338104724884,-0.5509192943572998
14,664,-0.28272393345832825,-0.23352131247520447,-0.2112824022769928,-0.551786482334137
14,665,-0.28339359164237976,-0.2327965795993805,-0.21208566427230835,-0.5523297786712646
14,666,-0.2839664816856384,-0.2325255423784256,-0.21046239137649536,-0.5529113411903381
14,667,-0.28318098187446594,-0.23214298486709595,-0.21041831374168396,-0.5537862777709961
14,668,-0.28278031945228577,-0.23298989236354828,-0.20958229899406433,-0.554862916469574
14,669,-0.28122857213020325,-0.23405401408672333,-0.209700807929039,-0.5556756854057312
14,670,-0.28132355213165283,-0.2346641719341278,-0.21071860194206238,-0.5565043687820435
14,671,-0.2822703421115875,-0.2356594204902649,-0.21039734780788422,-0.5571210384368896
14,672,-0.2832808792591095,-0.23478437960147858,-0.21034666895866394,-0.5580072402954102
14,673,-0.28557321429252625,-0.23432303965091705,-0.2114359438419342,-0.5590028166770935
14,674,-0.2860320508480072,-0.23281794786453247,-0.21304798126220703,-0.5598617792129517
14,675,-0.2865477502346039,-0.23244786262512207,-0.21444346010684967,-0.5608226656913757
14,676,-0.28752923011779785,-0.2317531853914261,-0.21619009971618652,-0.56146240234375
14,677,-0.28719595074653625,-0.23103830218315125,-0.2176983505487442,-0.5621882677078247
14,678,-0.28607696294784546,-0.23322562873363495,-0.218650683760643,-0.5631234645843506
14,679,-0.2855816185474396,-0.23306120932102203,-0.21942250430583954,-0.5640280246734619
14,680,-0.2852916717529297,-0.23377341032028198,-0.21979214251041412,-0.5649013519287109
14,681,-0.28648433089256287,-0.23344507813453674,-0.21898923814296722,-0.5657094717025757
14,682,-0.28687819838523865,-0.2335955798625946,-0.21836882829666138,-0.566587507724762
14,683,-0.28771764039993286,-0.23318374156951904,-0.2174890786409378,-0.5679110288619995
14,684,-0.28874310851097107,-0.2333127111196518,-0.2183767408132553,-0.5685570240020752
14,685,-0.290252149105072,-0.23395989835262299,-0.21873033046722412,-0.5691830515861511
15,686,-0.2891153395175934,-0.23419873416423798,-0.2190910428762436,-0.5697062611579895
15,687,-0.28921231627464294,-0.23444533348083496,-0.22001224756240845,-0.57076495885849
15,688,-0.28932613134384155,-0.23464128375053406,-0.21836614608764648,-0.5713352560997009
15,689,-0.28915706276893616,-0.23468062281608582,-0.21749863028526306,-0.5722480416297913
15,690,-0.28743815422058105,-0.23521417379379272,-0.2179364264011383,-0.572987973690033
15,691,-0.2873019874095917,-0.23598293960094452,-0.2185734510421753,-0.5743473172187805
15,692,-0.28918173909187317,-0.23568537831306458,-0.2186407893896103,-0.5752697587013245
15,693,-0.2896588146686554,-0.23498407006263733,-0.21900224685668945,-0.5764026045799255
15,694,-0.29116082191467285,-0.23674292862415314,-0.2205170840024948,-0.5772278904914856
15,695,-0.29218295216560364,-0.23749643564224243,-0.2208739072084427,-0.5780532956123352
15,696,-0.29301947355270386,-0.24000105261802673,-0.22196033596992493,-0.5788654685020447
15,697,-0.29273998737335205,-0.24042212963104248,-0.22160100936889648,-0.5793929100036621
15,698,-0.29290488362312317,-0.23999959230422974,-0.22072450816631317,-0.5801811218261719
15,699,-0.2925136685371399,-0.24105942249298096,-0.22026461362838745,-0.5809090733528137
15,700,-0.2917077839374542,-0.2415837049484253,-0.22141805291175842,-0.581318199634552
15,701,-0.292998731136322,-0.2414475977420807,-0.22227215766906738,-0.582375168800354
15,702,-0.2934890389442444,-0.24068360030651093,-0.22188884019851685,-0.5831053256988525
15,703,-0.29469388723373413,-0.24067191779613495,-0.2223483771085739,-0.5842762589454651
15,704,-0.29469630122184753,-0.24067842960357666,-0.22195479273796082,-0.5850136876106262
15,705,-0.29435500502586365,-0.24108178913593292,-0.22226864099502563,-0.5856629610061646
15,706,-0.2959253489971161,-0.2408122420310974,-0.22232262790203094,-0.5860897302627563
15,707,-0.2960532605648041,-0.2418203502893448,-0.22303441166877747,-0.5873667001724243
15,708,-0.2962285876274109,-0.24407322704792023,-0.22332841157913208,-0.5877501964569092
15,709,-0.29704779386520386,-0.2451459914445877,-0.2217482030391693,-0.588646650314331
15,710,-0.29756057262420654,-0.24465157091617584,-0.2234799861907959,-0.5890451669692993
15,711,-0.29702267050743103,-0.24578839540481567,-0.22446037828922272,-0.5901443958282471
15,712,-0.29730653762817383,-0.2449972778558731,-0.22330491244792938,-0.590900182723999
15,713,-0.2987993657588959,-0.24489758908748627,-0.22423312067985535,-0.5923783183097839
15,714,-0.3002500832080841,-0.24560919404029846,-0.22298391163349152,-0.5930672883987427
15,715,-0.30053409934043884,-0.24575287103652954,-0.22334882616996765,-0.5937724709510803
15,716,-0.29967212677001953,-0.24632544815540314,-0.22220897674560547,-0.5943999886512756
15,717,-0.30051493644714355,-0.244424507021904,-0.22197695076465607,-0.5949389338493347
15,718,-0.30027276277542114,-0.24385769665241241,-0.2222689986228943,-0.596021294593811
15,719,-0.2988548278808594,-0.24546995759010315,-0.2224712073802948,-0.5966236591339111
15,720,-0.2992249131202698,-0.24528829753398895,-0.22235660254955292,-0.5974897742271423
15,721,-0.29949936270713806,-0.24490788578987122,-0.22237814962863922,-0.5985057950019836
15,722,-0.30035045742988586,-0.24423395097255707,-0.2229805290699005,-0.5991626381874084
15,723,-0.30230605602264404,-0.24412767589092255,-0.22109699249267578,-0.599801242351532
15,724,-0.30236220359802246,-0.2438833862543106,-0.22300191223621368,-0.6004078984260559
15,725,-0.30209431052207947,-0.2458512783050537,-0.22276674211025238,-0.6013065576553345
15,726,-0.3025684356689453,-0.24544285237789154,-0.22410522401332855,-0.6021134257316589
15,727,-0.30383044481277466,-0.24535253643989563,-0.2234976589679718,-0.6027654409408569
15,728,-0.30192193388938904,-0.2465207725763321,-0.2231879085302353,-0.6035981178283691
15,729,-0.3013112246990204,-0.24674899876117706,-0.22377921640872955,-0.6042963862419128
15,730,-0.3015149235725403,-0.24815315008163452,-0.22380787134170532,-0.6051198244094849
15,731,-0.30282461643218994,-0.24667291343212128,-0.2250996232032776,-0.605696976184845
15,732,-0.30447840690612793,-0.2471773326396942,-0.22655633091926575,-0.6065574884414673
15,733,-0.30518144369125366,-0.24579612910747528,-0.22642822563648224,-0.6070133447647095
15,734,-0.3058331608772278,-0.24577002227306366,-0.22652314603328705,-0.6079578399658203
16,735,-0.3057481646537781,-0.2458191066980362,-0.22719265520572662,-0.608157217502594
16,736,-0.30491921305656433,-0.24646036326885223,-0.22707386314868927,-0.609470009803772
16,737,-0.30600258708000183,-0.24669387936592102,-0.22863802313804626,-0.6099629998207092
16,738,-0.30728423595428467,-0.2451554834842682,-0.22711718082427979,-0.6108009219169617
16,739,-0.30833008885383606,-0.24512988328933716,-0.2266036719083786,-0.611480176448822
16,740,-0.3069052994251251,-0.24594101309776306,-0.22637243568897247,-0.6123014688491821
16,741,-0.30632030963897705,-0.24472977221012115,-0.22684922814369202,-0.6128509044647217
16,742,-0.30723828077316284,-0.24441465735435486,-0.22665315866470337,-0.6136553287506104
16,743,-0.30659615993499756,-0.242913156747818,-0.22794796526432037,-0.6143041253089905
16,744,-0.3074611723423004,-0.24449685215950012,-0.2293999195098877,-0.6149115562438965
16,745,-0.3076356053352356,-0.24525196850299835,-0.2286970168352127,-0.6155417561531067
16,746,-0.3085589110851288,-0.24600118398666382,-0.22830848395824432,-0.6163192987442017
16,747,-0.3087603449821472,-0.24634553492069244,-0.22801095247268677,-0.6168940663337708
16,748,-0.3090822994709015,-0.24652104079723358,-0.22761256992816925,-0.6172818541526794
16,749,-0.3095810115337372,-0.24694964289665222,-0.22752398252487183,-0.6182631254196167
16,750,-0.308513343334198,-0.24879015982151031,-0.22920198738574982,-0.6187723278999329
16,751,-0.30855610966682434,-0.2474798858165741,-0.22727560997009277,-0.6198951601982117
16,752,-0.30780673027038574,-0.24780058860778809,-0.22760562598705292,-0.6206405758857727
16,753,-0.3089158535003662,-0.24807730317115784,-0.2274009734392166,-0.6218301057815552
16,754,-0.3079814612865448,-0.2468724101781845,-0.22732426226139069,-0.6223251819610596
16,755,-0.30721163749694824,-0.24615049362182617,-0.2268284261226654,-0.6232401132583618
16,756,-0.3071849048137665,-0.2465129792690277,-0.22687655687332153,-0.6237566471099854
16,757,-0.30765286087989807,-0.24705083668231964,-0.2269740253686905,-0.6247624754905701
16,758,-0.3073500096797943,-0.24662163853645325,-0.22763049602508545,-0.6253224611282349
16,759,-0.3077506124973297,-0.2463652789592743,-0.2271653413772583,-0.6260073184967041
16,760,-0.3077310025691986,-0.24531622231006622,-0.22815658152103424,-0.6269333362579346
16,761,-0.30787748098373413,-0.24589936435222626,-0.22708210349082947,-0.6277754306793213
16,762,-0.30748802423477173,-0.24459365010261536,-0.22639413177967072,-0.6281488537788391
16,763,-0.3098832666873932,-0.24655050039291382,-0.22632816433906555,-0.6292995810508728
16,764,-0.31052735447883606,-0.24655161798000336,-0.2270863950252533,-0.6301114559173584
16,765,-0.31111761927604675,-0.24531057476997375,-0.22885502874851227,-0.6307622790336609
16,766,-0.31174731254577637,-0.2457437366247177,-0.2286430150270462,-0.6316237449645996
16,767,-0.31297874450683594,-0.24599027633666992,-0.22981026768684387,-0.6321353316307068
16,768,-0.3130389451980591,-0.24655891954898834,-0.23104552924633026,-0.6333134770393372
16,769,-0.3126572370529175,-0.24589164555072784,-0.22918397188186646,-0.6339898109436035
16,770,-0.31318676471710205,-0.24575857818126678,-0.22878238558769226,-0.6347374320030212
16,771,-0.31341907382011414,-0.24651092290878296,-0.22860565781593323,-0.6319841742515564
16,772,-0.31349048018455505,-0.24646714329719543,-0.22990433871746063,-0.6322430968284607
16,773,-0.31547120213508606,-0.24698644876480103,-0.22924725711345673,-0.6326510906219482
16,774,-0.31638917326927185,-0.24669380486011505,-0.23006001114845276,-0.6329231262207031
16,775,-0.31703445315361023,-0.24640601873397827,-0.23026379942893982,-0.6331294178962708
16,776,-0.3174094557762146,-0.24696046113967896,-0.23216548562049866,-0.633577287197113
16,777,-0.3167177140712738,-0.24743102490901947,-0.23052017390727997,-0.633780300617218
16,778,-0.31531715393066406,-0.2489061802625656,-0.2309025228023529,-0.6346784830093384
16,779,-0.313898503780365,-0.24709023535251617,-0.23011386394500732,-0.6352819204330444
16,780,-0.31263405084609985,-0.24904899299144745,-0.23042216897010803,-0.635895848274231
16,781,-0.3147980570793152,-0.24810539186000824,-0.2316129207611084,-0.6361614465713501
16,782,-0.3161793649196625,-0.24813926219940186,-0.23233097791671753,-0.6366552710533142
16,783,-0.31710541248321533,-0.24821554124355316,-0.2327217310667038,-0.637012779712677
17,784,-0.3181450366973877,-0.24914541840553284,-0.23312979936599731,-0.6374780535697937
17,785,-0.3187457025051117,-0.2503941059112549,-0.2327081263065338,-0.6381404399871826
17,786,-0.3178824186325073,-0.2523670792579651,-0.23466835916042328,-0.6383551955223083
17,787,-0.3180921971797943,-0.25239425897598267,-0.23478253185749054,-0.6386979818344116
17,788,-0.31669434905052185,-0.25213372707366943,-0.2347550243139267,-0.6390337347984314
17,789,-0.3173656165599823,-0.25177568197250366,-0.23480243980884552,-0.6395431756973267
17,790,-0.3167111575603485,-0.25235602259635925,-0.23521609604358673,-0.6403166055679321
17,791,-0.3180038332939148,-0.2519785165786743,-0.23696701228618622,-0.6407021880149841
17,792,-0.3170830011367798,-0.25223851203918457,-0.237190842628479,-0.6415108442306519
17,793,-0.3157760202884674,-0.2543533146381378,-0.23713508248329163,-0.6419574618339539
17,794,-0.3168288767337799,-0.2542213201522827,-0.23740524053573608,-0.6426559686660767
17,795,-0.3179683983325958,-0.25475943088531494,-0.23798558115959167,-0.6434073448181152
17,796,-0.3176249861717224,-0.2558824121952057,-0.23905736207962036,-0.6443273425102234
17,797,-0.31731361150741577,-0.2548102140426636,-0.23780298233032227,-0.6446698307991028
17,798,-0.3185417056083679,-0.2553045451641083,-0.2371189445257187,-0.6452628374099731
17,799,-0.31785091757774353,-0.2540243864059448,-0.23685137927532196,-0.6458892822265625
17,800,-0.31777459383010864,-0.2534976303577423,-0.23792381584644318,-0.6466990113258362
17,801,-0.31691256165504456,-0.254224956035614,-0.2357022613286972,-0.6470111012458801
17,802,-0.31754270195961,-0.25323358178138733,-0.23510654270648956,-0.6476446390151978
17,803,-0.31865644454956055,-0.25387537479400635,-0.2345302850008011,-0.6484508514404297
17,804,-0.3168618083000183,-0.25491246581077576,-0.23422083258628845,-0.6491847634315491
17,805,-0.31701579689979553,-0.25418195128440857,-0.23512379825115204,-0.6497054696083069
17,806,-0.3167264461517334,-0.25370413064956665,-0.23473244905471802,-0.6506314873695374
17,807,-0.3174517750740051,-0.2533300817012787,-0.23388971388339996,-0.6509595513343811
17,808,-0.31655874848365784,-0.25322893261909485,-0.23367060720920563,-0.6520052552223206
17,809,-0.3178060054779053,-0.2523554563522339,-0.23397156596183777,-0.6524935960769653
17,810,-0.3183191120624542,-0.25278300046920776,-0.23331482708454132,-0.6532123684883118
17,811,-0.31830140948295593,-0.25223177671432495,-0.2340041995048523,-0.6546372771263123
17,812,-0.3168192207813263,-0.2533552944660187,-0.2336205542087555,-0.6553237438201904
17,813,-0.3182634711265564,-0.25357481837272644,-0.23443123698234558,-0.656055748462677
17,814,-0.32064613699913025,-0.255134254693985,-0.23451128602027893,-0.656840443611145
17,815,-0.32108500599861145,-0.254080206155777,-0.23470564186573029,-0.6572496294975281
17,816,-0.3220146596431732,-0.2543049454689026,-0.23545609414577484,-0.6575531363487244
17,817,-0.32202833890914917,-0.25422531366348267,-0.23445484042167664,-0.6580098867416382
17,818,-0.32144832611083984,-0.2543598711490631,-0.23539337515830994,-0.6586132049560547
17,819,-0.32099536061286926,-0.25632089376449585,-0.23607952892780304,-0.6592758893966675
17,820,-0.32046863436698914,-0.2563398778438568,-0.2363848090171814,-0.6599306464195251
17,821,-0.32094237208366394,-0.25696492195129395,-0.2365250587463379,-0.6606112718582153
17,822,-0.3214314877986908,-0.2559841275215149,-0.23685438930988312,-0.6613761186599731
17,823,-0.3213619589805603,-0.25671830773353577,-0.23709924519062042,-0.661714494228363
17,824,-0.3205184042453766,-0.2568981349468231,-0.2366655468940735,-0.6625536680221558
17,825,-0.32087236642837524,-0.25651565194129944,-0.2366866171360016,-0.6633373498916626
17,826,-0.322417676448822,-0.25543034076690674,-0.23637822270393372,-0.6646630167961121
17,827,-0.32119253277778625,-0.25431013107299805,-0.23668229579925537,-0.6657690405845642
17,828,-0.3202701807022095,-0.2554405927658081,-0.2368716597557068,-0.666885256767273
17,829,-0.31998997926712036,-0.255310982465744,-0.23735293745994568,-0.6676298975944519
17,830,-0.32062336802482605,-0.2573481798171997,-0.2381708323955536,-0.6686546802520752
17,831,-0.32084375619888306,-0.256439745426178,-0.23888848721981049,-0.6693898439407349
17,832,-0.3229338824748993,-0.257878839969635,-0.23849698901176453,-0.6699512004852295
18,833,-0.3234434723854065,-0.2586182951927185,-0.2400398999452591,-0.670569121837616
18,834,-0.3246803283691406,-0.2592182755470276,-0.23965473473072052,-0.6709997057914734
18,835,-0.32426679134368896,-0.2585966885089874,-0.2389763742685318,-0.6720016002655029
18,836,-0.32497331500053406,-0.2590021789073944,-0.23955853283405304,-0.672538697719574
18,837,-0.32495221495628357,-0.25836360454559326,-0.23980292677879333,-0.6738712787628174
18,838,-0.3252435028553009,-0.25646865367889404,-0.2385614663362503,-0.6743295192718506
18,839,-0.3246156573295593,-0.2557508647441864,-0.23890237510204315,-0.6752442121505737
18,840,-0.3236638903617859,-0.257132887840271,-0.23971380293369293,-0.6759857535362244
18,841,-0.3251008093357086,-0.25759240984916687,-0.24019303917884827,-0.6769426465034485
18,842,-0.32632723450660706,-0.25709012150764465,-0.23993989825248718,-0.6777893304824829
18,843,-0.32594984769821167,-0.25751128792762756,-0.24285045266151428,-0.6785568594932556
18,844,-0.32790645956993103,-0.2582318186759949,-0.24267053604125977,-0.6793423891067505
18,845,-0.3271403908729553,-0.25873833894729614,-0.2425185889005661,-0.6798934936523438
18,846,-0.32640230655670166,-0.2607352137565613,-0.24170471727848053,-0.68044513463974
18,847,-0.3279630243778229,-0.2610994875431061,-0.24130329489707947,-0.6815561056137085
18,848,-0.3270755708217621,-0.2621638774871826,-0.24133063852787018,-0.6821517944335938
18,849,-0.32664936780929565,-0.2616364657878876,-0.24194292724132538,-0.6833128333091736
18,850,-0.3281296491622925,-0.2630498707294464,-0.24282516539096832,-0.6836493611335754
18,851,-0.3281492590904236,-0.2635813355445862,-0.24298016726970673,-0.6845191717147827
18,852,-0.3275441527366638,-0.2638286352157593,-0.2439214140176773,-0.6852973103523254
18,853,-0.3292619287967682,-0.26340070366859436,-0.2449406385421753,-0.686272382736206
18,854,-0.3298218548297882,-0.2615760862827301,-0.2446926385164261,-0.6870230436325073
18,855,-0.329703688621521,-0.26141130924224854,-0.24486051499843597,-0.6878994703292847
18,856,-0.33023062348365784,-0.2612363398075104,-0.24386122822761536,-0.6886591911315918
18,857,-0.3300952911376953,-0.26096612215042114,-0.244212344288826,-0.6894626021385193
18,858,-0.32908669114112854,-0.2617093622684479,-0.24432235956192017,-0.6898239850997925
18,859,-0.32909202575683594,-0.26174432039260864,-0.24322938919067383,-0.6904757618904114
18,860,-0.3299257755279541,-0.26116275787353516,-0.24284639954566956,-0.691837728023529
18,861,-0.33012813329696655,-0.26174598932266235,-0.24252080917358398,-0.6926008462905884
18,862,-0.32958048582077026,-0.2627788186073303,-0.24356599152088165,-0.6935492157936096
18,863,-0.3305898904800415,-0.2616780698299408,-0.24420875310897827,-0.6946394443511963
18,864,-0.3327447175979614,-0.2619234621524811,-0.2439424842596054,-0.6956872940063477
18,865,-0.33373138308525085,-0.26115256547927856,-0.24361474812030792,-0.6967243552207947
18,866,-0.33499768376350403,-0.2613016963005066,-0.24506965279579163,-0.6971307396888733
18,867,-0.33387067914009094,-0.2610827088356018,-0.2447453886270523,-0.6978650689125061
18,868,-0.33349210023880005,-0.26223039627075195,-0.2445068061351776,-0.6985703110694885
18,869,-0.332861065864563,-0.26410579681396484,-0.24487267434597015,-0.6990792155265808
18,870,-0.3333355486392975,-0.26410624384880066,-0.24531406164169312,-0.7003801465034485
18,871,-0.3327638506889343,-0.26389896869659424,-0.24406324326992035,-0.7009082436561584
18,872,-0.3342651128768921,-0.26601991057395935,-0.24436841905117035,-0.7015628218650818
18,873,-0.33557236194610596,-0.2652038633823395,-0.24486015737056732,-0.7020898461341858
18,874,-0.3358224332332611,-0.2645857334136963,-0.24446991086006165,-0.7025711536407471
18,875,-0.3370960056781769,-0.2654475271701813,-0.24550631642341614,-0.7032290101051331
18,876,-0.337095707654953,-0.2664952278137207,-0.2462746948003769,-0.7043542861938477
18,877,-0.3367231488227844,-0.2664826810359955,-0.24708084762096405,-0.7050355672836304
18,878,-0.33699119091033936,-0.2679137885570526,-0.2471744269132614,-0.7056787610054016
18,879,-0.33682218194007874,-0.269045352935791,-0.2470092624425888,-0.7070437073707581
18,880,-0.3375232517719269,-0.2701241374015808,-0.24807307124137878,-0.7079832553863525
18,881,-0.33893072605133057,-0.2690310776233673,-0.24961142241954803,-0.7083867788314819
19,882,-0.3408309817314148,-0.26857882738113403,-0.24873802065849304,-0.7089192867279053
19,883,-0.341865599155426,-0.26715633273124695,-0.2505694627761841,-0.7096628546714783
19,884,-0.34320157766342163,-0.2689306437969208,-0.2507990002632141,-0.7103222608566284
19,885,-0.34344911575317383,-0.26867857575416565,-0.25137701630592346,-0.711037814617157
19,886,-0.3425368666648865,-0.2685166001319885,-0.2511940896511078,-0.7115826606750488
19,887,-0.3425828814506531,-0.2693304717540741,-0.2519659698009491,-0.7120208740234375
19,888,-0.3435310125350952,-0.26848718523979187,-0.25144004821777344,-0.7127059698104858
19,889,-0.3429442048072815,-0.2678647041320801,-0.25085538625717163,-0.7133008241653442
19,890,-0.34338632225990295,-0.2687157392501831,-0.24912425875663757,-0.7141751646995544
19,891,-0.34412455558776855,-0.26786303520202637,-0.2487337291240692,-0.7146312594413757
19,892,-0.3456451892852783,-0.26628175377845764,-0.24888013303279877,-0.7154993414878845
19,893,-0.3446514308452606,-0.26824986934661865,-0.25054851174354553,-0.7162809371948242
19,894,-0.3448978662490845,-0.2688543200492859,-0.2510160803794861,-0.7170815467834473
19,895,-0.34567078948020935,-0.27010419964790344,-0.25075671076774597,-0.7176589369773865
19,896,-0.34486842155456543,-0.2702687978744507,-0.2513201832771301,-0.7184149622917175
19,897,-0.34614571928977966,-0.27090179920196533,-0.2515779435634613,-0.7188606262207031
19,898,-0.34699392318725586,-0.2716222107410431,-0.2509913742542267,-0.7197591066360474
19,899,-0.3466646373271942,-0.27244138717651367,-0.25184401869773865,-0.7203012704849243
19,900,-0.34563449025154114,-0.27172142267227173,-0.25319337844848633,-0.7214648127555847
19,901,-0.34625184535980225,-0.27200236916542053,-0.25286659598350525,-0.7219999432563782
19,902,-0.34654372930526733,-0.2720917761325836,-0.25276029109954834,-0.7232526540756226
19,903,-0.3486422598361969,-0.27233853936195374,-0.25458475947380066,-0.7242519855499268
19,904,-0.3478728234767914,-0.2714345455169678,-0.25351256132125854,-0.7247591018676758
19,905,-0.3475588262081146,-0.27254560589790344,-0.2543574869632721,-0.7250703573226929
19,906,-0.3478955328464508,-0.2720334827899933,-0.25304821133613586,-0.7261265516281128
19,907,-0.34852734208106995,-0.2712509334087372,-0.25182732939720154,-0.7263365983963013
19,908,-0.3490636348724365,-0.27291393280029297,-0.2522951066493988,-0.7269986867904663
19,909,-0.3485638201236725,-0.2739374041557312,-0.2532880902290344,-0.7276456356048584
19,910,-0.3478485345840454,-0.27296388149261475,-0.2532944679260254,-0.7288946509361267
19,911,-0.3488961160182953,-0.27373817563056946,-0.2526727020740509,-0.7294248342514038
19,912,-0.34887704253196716,-0.274354487657547,-0.2532810866832733,-0.7297835946083069
19,913,-0.34945201873779297,-0.2739485502243042,-0.25297126173973083,-0.7304567098617554
19,914,-0.351062148809433,-0.27566346526145935,-0.25318318605422974,-0.731471061706543
19,915,-0.3518851697444916,-0.27749744057655334,-0.2549915313720703,-0.7319526672363281
19,916,-0.35323280096054077,-0.2770601809024811,-0.25462764501571655,-0.7327562570571899
19,917,-0.35338589549064636,-0.27701857686042786,-0.254284530878067,-0.7332268357276917
19,918,-0.3521915674209595,-0.27797913551330566,-0.25528085231781006,-0.7337173819541931
19,919,-0.35232606530189514,-0.27821680903434753,-0.2544940412044525,-0.7344967126846313
19,920,-0.35136157274246216,-0.27855920791625977,-0.25382646918296814,-0.7348918914794922
19,921,-0.3524373173713684,-0.27678370475769043,-0.25424322485923767,-0.7356027960777283
19,922,-0.35284754633903503,-0.2777060270309448,-0.255524605512619,-0.7362414598464966
19,923,-0.353377103805542,-0.2778519093990326,-0.2554660737514496,-0.7367737889289856
19,924,-0.35366296768188477,-0.2785869240760803,-0.2579101026058197,-0.7371025681495667
19,925,-0.35447344183921814,-0.2774312198162079,-0.25834226608276367,-0.7380103468894958
19,926,-0.35596078634262085,-0.2764892876148224,-0.2591114640235901,-0.7387895584106445
19,927,-0.35443422198295593,-0.27645519375801086,-0.25863116979599,-0.7394959926605225
19,928,-0.35267484188079834,-0.2771005928516388,-0.2581419050693512,-0.740511417388916
19,929,-0.3521280586719513,-0.2760276198387146,-0.25778064131736755,-0.7413663864135742
19,930,-0.35233619809150696,-0.2767592668533325,-0.25866177678108215,-0.7419157028198242
20,931,-0.3542821705341339,-0.2760080099105835,-0.2585330009460449,-0.7425267100334167
20,932,-0.3557438850402832,-0.27678656578063965,-0.2592574954032898,-0.7429941892623901
20,933,-0.3558550179004669,-0.2764321267604828,-0.26088055968284607,-0.7436227798461914
20,934,-0.35700029134750366,-0.2774673402309418,-0.2604900300502777,-0.7441946268081665
20,935,-0.35732588171958923,-0.2776084542274475,-0.2627721130847931,-0.7446860074996948
20,936,-0.3578108847141266,-0.2792273163795471,-0.26289159059524536,-0.7452799677848816
20,937,-0.3579833209514618,-0.2787805199623108,-0.2635158896446228,-0.7460260987281799
20,938,-0.3589974343776703,-0.2777855694293976,-0.2641260325908661,-0.7466159462928772
20,939,-0.35896357893943787,-0.2782392203807831,-0.2645705044269562,-0.7470017075538635
20,940,-0.3583383560180664,-0.27904510498046875,-0.26467424631118774,-0.7475600242614746
20,941,-0.35912349820137024,-0.2771247327327728,-0.26444417238235474,-0.7485256195068359
20,942,-0.3589787185192108,-0.27733689546585083,-0.2658384144306183,-0.7496294975280762
20,943,-0.3594498932361603,-0.2779204845428467,-0.26650846004486084,-0.7504651546478271
20,944,-0.3594173789024353,-0.2775559425354004,-0.2678980231285095,-0.7516726851463318
20,945,-0.35811930894851685,-0.2784052789211273,-0.26869916915893555,-0.7523791790008545
20,946,-0.35838139057159424,-0.27809247374534607,-0.2684064507484436,-0.7528456449508667
20,947,-0.35805654525756836,-0.278358519077301,-0.2688670754432678,-0.7532128691673279
20,948,-0.3576395511627197,-0.2793155908584595,-0.2693893313407898,-0.7536752820014954
20,949,-0.3574167490005493,-0.28047072887420654,-0.26933199167251587,-0.7546672224998474
20,950,-0.35791096091270447,-0.2804185748100281,-0.2669046223163605,-0.7549641728401184
20,951,-0.35633981227874756,-0.28049445152282715,-0.2662715017795563,-0.7552208304405212
20,952,-0.35575082898139954,-0.2783936560153961,-0.26498153805732727,-0.7556438446044922
20,953,-0.3563038110733032,-0.27885040640830994,-0.2652847170829773,-0.7567161917686462
20,954,-0.3538031280040741,-0.279525488615036,-0.2659029960632324,-0.7573084235191345
20,955,-0.35249829292297363,-0.2805165946483612,-0.2665524184703827,-0.7575976848602295
20,956,-0.35360294580459595,-0.28041553497314453,-0.2667495906352997,-0.7580951452255249
20,957,-0.35348251461982727,-0.2811424136161804,-0.2661122977733612,-0.7590057253837585
20,958,-0.35274603962898254,-0.28071290254592896,-0.2664240002632141,-0.759503960609436
20,959,-0.3536745309829712,-0.28270184993743896,-0.26780936121940613,-0.7599230408668518
20,960,-0.35361722111701965,-0.2832711338996887,-0.2679539918899536,-0.7608206868171692
20,961,-0.35407766699790955,-0.28448450565338135,-0.2671184539794922,-0.7616170644760132
20,962,-0.35308387875556946,-0.2862960994243622,-0.2681211829185486,-0.7620099782943726
20,963,-0.35463041067123413,-0.28657296299934387,-0.26796799898147583,-0.7628480792045593
20,964,-0.3560822606086731,-0.28761303424835205,-0.2687063217163086,-0.76346355676651
20,965,-0.355094313621521,-0.2865618169307709,-0.26927676796913147,-0.7638577818870544
20,966,-0.35626929998397827,-0.28703147172927856,-0.26743367314338684,-0.7645307779312134
20,967,-0.35699695348739624,-0.2856312394142151,-0.26745080947875977,-0.765346348285675
20,968,-0.3576209247112274,-0.28670400381088257,-0.2665546238422394,-0.7657040357589722
20,969,-0.3564220368862152,-0.288302481174469,-0.2653936743736267,-0.7665888071060181
20,970,-0.3577444553375244,-0.28864413499832153,-0.26451316475868225,-0.7670878767967224
20,971,-0.3586615324020386,-0.28887441754341125,-0.26509156823158264,-0.7676988244056702
20,972,-0.3592238128185272,-0.2872374951839447,-0.2666289508342743,-0.7680915594100952
20,973,-0.3605230450630188,-0.28867703676223755,-0.2658942937850952,-0.7685732245445251
20,974,-0.360406756401062,-0.2887129783630371,-0.2654368579387665,-0.768926203250885
20,975,-0.3605010211467743,-0.2892533838748932,-0.2652255594730377,-0.7694621682167053
20,976,-0.3606332540512085,-0.2891767621040344,-0.26568275690078735,-0.7699422240257263
20,977,-0.36052849888801575,-0.2904069721698761,-0.2658316195011139,-0.7708364129066467
20,978,-0.3593495190143585,-0.290722519159317,-0.2664799988269806,-0.7718416452407837
20,979,-0.35848209261894226,-0.2912921905517578,-0.2662885785102844,-0.7727342247962952
21,980,-0.3583642244338989,-0.29104915261268616,-0.26690295338630676,-0.7733891010284424
21,981,-0.36058011651039124,-0.2912451922893524,-0.2686258852481842,-0.7736281156539917
21,982,-0.36169400811195374,-0.29112574458122253,-0.26753056049346924,-0.7740090489387512
21,983,-0.3623897135257721,-0.29056069254875183,-0.26756298542022705,-0.7747500538825989
21,984,-0.36151477694511414,-0.2899899184703827,-0.2678564488887787,-0.7750842571258545
21,985,-0.36240655183792114,-0.290822833776474,-0.2682737112045288,-0.7756264209747314
21,986,-0.36160528659820557,-0.29297497868537903,-0.2678370773792267,-0.7762911915779114
21,987,-0.36114737391471863,-0.29261741042137146,-0.2687694728374481,-0.7772054076194763
21,988,-0.3631853759288788,-0.2923109829425812,-0.26810839772224426,-0.7781951427459717
21,989,-0.3621074855327606,-0.29226425290107727,-0.2689196467399597,-0.7786102890968323
21,990,-0.36239609122276306,-0.2919754087924957,-0.2701989710330963,-0.7793421745300293
21,991,-0.36369913816452026,-0.2908996641635895,-0.27064794301986694,-0.7798207402229309
21,992,-0.3646063506603241,-0.2919752299785614,-0.2717300057411194,-0.7807421088218689
21,993,-0.3645396828651428,-0.290921151638031,-0.27000537514686584,-0.7819653749465942
21,994,-0.3647879660129547,-0.2927861511707306,-0.2696986198425293,-0.7829101085662842
21,995,-0.36583369970321655,-0.29243168234825134,-0.27131688594818115,-0.783443033695221
21,996,-0.3657451570034027,-0.2915585935115814,-0.2710452675819397,-0.7838345766067505
21,997,-0.36553171277046204,-0.29267624020576477,-0.27071890234947205,-0.7846866846084595
21,998,-0.3653571307659149,-0.2943064868450165,-0.26966243982315063,-0.7849582433700562
21,999,-0.3651455342769623,-0.29562804102897644,-0.27018290758132935,-0.7855794429779053
21,1000,-0.3666968047618866,-0.29690009355545044,-0.2703534960746765,-0.7857486605644226
21,1001,-0.36666542291641235,-0.2959674298763275,-0.27055302262306213,-0.786185085773468
21,1002,-0.36687085032463074,-0.29633936285972595,-0.270133376121521,-0.7871037125587463
21,1003,-0.3677246570587158,-0.29720303416252136,-0.2695223391056061,-0.7877624034881592
21,1004,-0.3656659722328186,-0.2978849709033966,-0.26894092559814453,-0.7880305051803589
21,1005,-0.36499327421188354,-0.2996467351913452,-0.2700352966785431,-0.7882542610168457
21,1006,-0.36615607142448425,-0.3001307547092438,-0.2720319926738739,-0.7888510823249817
21,1007,-0.36673545837402344,-0.30027586221694946,-0.27066946029663086,-0.789923369884491
21,1008,-0.36648932099342346,-0.300702303647995,-0.2705836892127991,-0.7906413078308105
21,1009,-0.3659394383430481,-0.3027072846889496,-0.2707461714744568,-0.7910876274108887
21,1010,-0.3664950728416443,-0.3029261827468872,-0.27162593603134155,-0.7927221059799194
21,1011,-0.36485904455184937,-0.3032929003238678,-0.2708457410335541,-0.7935011982917786
21,1012,-0.3639564514160156,-0.30368897318840027,-0.2708826959133148,-0.7905505299568176
21,1013,-0.36494433879852295,-0.3044602870941162,-0.27250412106513977,-0.7906225323677063
21,1014,-0.3667069971561432,-0.3037495017051697,-0.27376803755760193,-0.7907627820968628
21,1015,-0.36725375056266785,-0.30293118953704834,-0.2743374705314636,-0.7908260822296143
21,1016,-0.36828815937042236,-0.30300605297088623,-0.2754640579223633,-0.7910081148147583
21,1017,-0.36810317635536194,-0.3030337691307068,-0.27438032627105713,-0.7910723686218262
21,1018,-0.36811506748199463,-0.30404120683670044,-0.27383875846862793,-0.7912047505378723
21,1019,-0.36761748790740967,-0.30370214581489563,-0.2724381387233734,-0.7913253307342529
21,1020,-0.36752310395240784,-0.3037765324115753,-0.2727620005607605,-0.791419506072998
21,1021,-0.36743631958961487,-0.3045685887336731,-0.27288317680358887,-0.7915378212928772
21,1022,-0.36943235993385315,-0.30488163232803345,-0.2728109657764435,-0.7917064428329468
21,1023,-0.3709653615951538,-0.3064565062522888,-0.27166128158569336,-0.7917696237564087
21,1024,-0.3714969754219055,-0.3061796724796295,-0.27195531129837036,-0.7919166684150696
21,1025,-0.372025728225708,-0.30781447887420654,-0.27197468280792236,-0.7921371459960938
21,1026,-0.37410271167755127,-0.30737847089767456,-0.27264147996902466,-0.7924433350563049
21,1027,-0.3736937642097473,-0.3074440658092499,-0.27097088098526,-0.7925422191619873
21,1028,-0.37177979946136475,-0.3061809539794922,-0.2713688313961029,-0.7927954196929932
22,1029,-0.37106603384017944,-0.3075103759765625,-0.2733837962150574,-0.7929473519325256
22,1030,-0.3712778687477112,-0.30848079919815063,-0.27369198203086853,-0.7932350039482117
22,1031,-0.3720674216747284,-0.30838629603385925,-0.2730496823787689,-0.7933738827705383
22,1032,-0.37203797698020935,-0.3095795512199402,-0.27342671155929565,-0.793520987033844
22,1033,-0.3729779124259949,-0.31008872389793396,-0.27211764454841614,-0.7937212586402893
22,1034,-0.3732278645038605,-0.30902406573295593,-0.2721197009086609,-0.7938955426216125
22,1035,-0.37381479144096375,-0.309719443321228,-0.270820677280426,-0.7940219044685364
22,1036,-0.37245678901672363,-0.3110284209251404,-0.27127063274383545,-0.7942184805870056
22,1037,-0.37261900305747986,-0.3111550807952881,-0.27070772647857666,-0.7943892478942871
22,1038,-0.37381047010421753,-0.31128740310668945,-0.2702662944793701,-0.7946436405181885
22,1039,-0.37351682782173157,-0.31310445070266724,-0.2704859972000122,-0.7948043942451477
22,1040,-0.37268006801605225,-0.3132951855659485,-0.27053242921829224,-0.7951157093048096
22,1041,-0.3736090064048767,-0.3136274516582489,-0.27000322937965393,-0.79531329870224
22,1042,-0.37401801347732544,-0.3147851228713989,-0.26977965235710144,-0.7954928278923035
22,1043,-0.3731555938720703,-0.31502941250801086,-0.27158087491989136,-0.7958000898361206
22,1044,-0.3745199143886566,-0.31587982177734375,-0.27216383814811707,-0.7961331009864807
22,1045,-0.37535786628723145,-0.31632277369499207,-0.27180638909339905,-0.7964051365852356
22,1046,-0.37559348344802856,-0.3163948655128479,-0.27143508195877075,-0.79697185754776
22,1047,-0.37592074275016785,-0.3186049163341522,-0.2716344892978668,-0.797427237033844
22,1048,-0.37597373127937317,-0.3181193172931671,-0.2720246911048889,-0.7976990342140198
22,1049,-0.37596291303634644,-0.31805479526519775,-0.2722592353820801,-0.7986211180686951
22,1050,-0.3763337731361389,-0.3201073110103607,-0.27376657724380493,-0.7989542484283447
22,1051,-0.3770011365413666,-0.32098570466041565,-0.27410757541656494,-0.7991116046905518
22,1052,-0.37722066044807434,-0.32219070196151733,-0.2758060693740845,-0.7995724678039551
22,1053,-0.3782050311565399,-0.32267096638679504,-0.2773263454437256,-0.8000685572624207
22,1054,-0.3769014775753021,-0.3210896849632263,-0.2777569890022278,-0.8003581762313843
22,1055,-0.37593337893486023,-0.3208176791667938,-0.27707064151763916,-0.8007975816726685
22,1056,-0.3774005174636841,-0.3211227357387543,-0.27727702260017395,-0.8012208938598633
22,1057,-0.37680578231811523,-0.3217998147010803,-0.27739936113357544,-0.8018190264701843
22,1058,-0.375702440738678,-0.3213271498680115,-0.27765166759490967,-0.8023049235343933
22,1059,-0.37542107701301575,-0.3220520615577698,-0.2777091860771179,-0.8027500510215759
22,1060,-0.37664392590522766,-0.32273751497268677,-0.27827730774879456,-0.8033000826835632
22,1061,-0.3758421838283539,-0.32223835587501526,-0.27881714701652527,-0.80392986536026
22,1062,-0.37698933482170105,-0.3228643536567688,-0.2798875868320465,-0.8044846653938293
22,1063,-0.3776799738407135,-0.32304564118385315,-0.2788758873939514,-0.804855465888977
22,1064,-0.37963730096817017,-0.3229040503501892,-0.27857473492622375,-0.8052716255187988
22,1065,-0.38013482093811035,-0.3210340440273285,-0.27925020456314087,-0.8055713176727295
22,1066,-0.3817213475704193,-0.3196101188659668,-0.27864131331443787,-0.8060322999954224
22,1067,-0.38083919882774353,-0.3191789984703064,-0.2783115804195404,-0.806291937828064
22,1068,-0.38108134269714355,-0.32082048058509827,-0.2797815501689911,-0.8068264126777649
22,1069,-0.38012760877609253,-0.3210868537425995,-0.2803954780101776,-0.807898223400116
22,1070,-0.3787478804588318,-0.3215616047382355,-0.2805386781692505,-0.808209240436554
22,1071,-0.3788689970970154,-0.3211822211742401,-0.2787822186946869,-0.8087928891181946
22,1072,-0.3792816400527954,-0.32118988037109375,-0.27850043773651123,-0.8092147707939148
22,1073,-0.38012662529945374,-0.3210996091365814,-0.27820488810539246,-0.8096728920936584
22,1074,-0.3805430829524994,-0.320355623960495,-0.27947303652763367,-0.8101024627685547
22,1075,-0.38168755173683167,-0.32259485125541687,-0.27939245104789734,-0.8107181191444397
22,1076,-0.3822624683380127,-0.322717547416687,-0.2813316285610199,-0.8112052083015442
22,1077,-0.3821338713169098,-0.3225964605808258,-0.2815500795841217,-0.812091052532196
23,1078,-0.3815809488296509,-0.3220633268356323,-0.280059814453125,-0.8126809597015381
23,1079,-0.38187041878700256,-0.32212963700294495,-0.2820250689983368,-0.8132719397544861
23,1080,-0.38169294595718384,-0.3242371082305908,-0.28257009387016296,-0.813816487789154
23,1081,-0.3821195065975189,-0.3241501748561859,-0.2818358242511749,-0.8146517872810364
23,1082,-0.3841473460197449,-0.3240245282649994,-0.28173840045928955,-0.8149973154067993
23,1083,-0.3833411931991577,-0.32404470443725586,-0.2802525758743286,-0.8156845569610596
23,1084,-0.38298162817955017,-0.32416629791259766,-0.27985742688179016,-0.8162428140640259
23,1085,-0.3838793635368347,-0.3245033621788025,-0.2804441452026367,-0.8169363737106323
23,1086,-0.38385680317878723,-0.3240671753883362,-0.28114187717437744,-0.8173022270202637
23,1087,-0.38371869921684265,-0.32401150465011597,-0.2822645306587219,-0.8180589079856873
23,1088,-0.3849656879901886,-0.32430216670036316,-0.28203344345092773,-0.8193159103393555
23,1089,-0.3843427896499634,-0.32575011253356934,-0.2798864543437958,-0.8200443387031555
23,1090,-0.3835318088531494,-0.3251800835132599,-0.2808036506175995,-0.8207489848136902
23,1091,-0.38569527864456177,-0.3240679204463959,-0.2816617488861084,-0.8212379217147827
23,1092,-0.387129008769989,-0.32365715503692627,-0.28134292364120483,-0.8221715688705444
23,1093,-0.3868849277496338,-0.323720246553421,-0.2824859619140625,-0.8227989673614502
23,1094,-0.38804900646209717,-0.3236110806465149,-0.2829432487487793,-0.82386714220047
23,1095,-0.3878587484359741,-0.3221691846847534,-0.2822837233543396,-0.8243639469146729
23,1096,-0.3871251046657562,-0.32154354453086853,-0.2814873158931732,-0.8248989582061768
23,1097,-0.386249840259552,-0.32170549035072327,-0.2804538905620575,-0.8251940011978149
23,1098,-0.38588669896125793,-0.32061946392059326,-0.28129538893699646,-0.825487494468689
23,1099,-0.3860461413860321,-0.32142373919487,-0.28140178322792053,-0.8259373903274536
23,1100,-0.3868080675601959,-0.3210735619068146,-0.28350985050201416,-0.8261604905128479
23,1101,-0.38540327548980713,-0.32145988941192627,-0.28334367275238037,-0.8265300393104553
23,1102,-0.38551974296569824,-0.32243606448173523,-0.2840529978275299,-0.8270348906517029
23,1103,-0.38697347044944763,-0.32336345314979553,-0.28485098481178284,-0.827456533908844
23,1104,-0.3875217139720917,-0.3245948553085327,-0.2836228609085083,-0.8283109068870544
23,1105,-0.38659676909446716,-0.3252734839916229,-0.28417444229125977,-0.8285393118858337
23,1106,-0.3863087594509125,-0.325227826833725,-0.28302517533302307,-0.829372763633728
23,1107,-0.38680970668792725,-0.32467713952064514,-0.2826858162879944,-0.8299738764762878
23,1108,-0.3882672190666199,-0.3239807188510895,-0.283367782831192,-0.8305477499961853
23,1109,-0.3880477249622345,-0.324529767036438,-0.28455960750579834,-0.8307472467422485
23,1110,-0.38808944821357727,-0.32481276988983154,-0.2839924097061157,-0.831449031829834
23,1111,-0.387697696685791,-0.3254163861274719,-0.2843840718269348,-0.8318524360656738
23,1112,-0.389783650636673,-0.32591021060943604,-0.2847701609134674,-0.8325964212417603
23,1113,-0.3890950381755829,-0.3262856900691986,-0.2860495150089264,-0.833167314529419
23,1114,-0.3898339569568634,-0.3252948224544525,-0.28564074635505676,-0.8334251642227173
23,1115,-0.3905335068702698,-0.32620304822921753,-0.284673810005188,-0.8337221741676331
23,1116,-0.3914099335670471,-0.32614752650260925,-0.28516021370887756,-0.833882749080658
23,1117,-0.3934653103351593,-0.32436150312423706,-0.2852673828601837,-0.8341083526611328
23,1118,-0.3948250710964203,-0.32577458024024963,-0.2855556607246399,-0.8344863653182983
23,1119,-0.3946107029914856,-0.3276459574699402,-0.28617143630981445,-0.8353502154350281
23,1120,-0.39465945959091187,-0.32799360156059265,-0.2865682542324066,-0.8356982469558716
23,1121,-0.3941633999347687,-0.3297562301158905,-0.28617486357688904,-0.8361863493919373
23,1122,-0.39546456933021545,-0.328793466091156,-0.28501152992248535,-0.8365631103515625
23,1123,-0.39687380194664,-0.32875269651412964,-0.28373217582702637,-0.8369011282920837
23,1124,-0.3980587422847748,-0.32974639534950256,-0.28410661220550537,-0.8370662927627563
23,1125,-0.3983824849128723,-0.32933706045150757,-0.2854377031326294,-0.8373505473136902
23,1126,-0.399004727602005,-0.3308153748512268,-0.28639480471611023,-0.8377213478088379
24,1127,-0.39911630749702454,-0.33103474974632263,-0.2866770327091217,-0.8380891680717468
